{"architecture": {"input_size": 784, "hidden_layers": [128, 64], "output_size": 10}, "weights": [[[-0.008741926377893663, 0.06278651531718081, 0.03731134515532965, 0.02361959007586993, -0.06089231090938637, -0.025319054193114764, -0.1006064566194742, -0.02962471778690591, 0.043668412231974776, -0.03296711340476972, -0.01729279121427066, 0.10633302904043478, 0.01717231793839209, -0.01336671807573595, 0.05520028834345877, 0.03535687290799252, 0.025177247950582637, -0.017940692754726633, -0.014141219884357764, 0.06440099023004311, -0.1258183459679756, 0.06494580397372825, -0.0339102003014224, -0.06707113844295214, 0.084045712556133, -0.022001409745545646, 0.043908222767241774, 0.08067214427404457, -0.03498422360133019, 0.031565796085126885, -0.09540457703563589, 0.06967093225968908, -0.03417891397642604, 0.047351199118178755, 0.07819796913077844, 0.05946078343320723, 0.061430041811958574, 0.01825364736094937, 0.026641069810202152, -0.041250254285749285, -0.012189309095375196, -0.08075940541015628, 0.00011199767537138114, -0.0017667817432495752, -0.025849189656716898, -0.12683436670514994, -0.05064368374362708, -0.04154291412494128, 0.1133744764567863, 0.057090604701466305, 0.040130448667593126, 0.007444577775494076, -0.022001729061927593, -0.006262067649533811, 0.02790025761012478, -0.026116504583476044, 0.02649920590326362, 0.07051821031178929, -0.021643804663765056, 0.008806259590739354, -0.07248767489550165, -0.02857878484981129, 0.0038486002888522665, -0.05974801621759564, -0.05878079852789697, -0.014493525830346122, -0.007131778316053829, 0.014217138018296695, -0.03695133778164197, -0.06788124409303774, -0.02416694451833939, -0.061032821968836366, 0.013851310731092066, 0.042007983703045405, -0.07177591097079376, 0.007173086014949157, 0.007196756656894687, 0.05576752436078693, 0.007602046045183637, 0.013267881528238008, -0.019630168812240386, 0.03663146799103899, 0.07211980733622238, -0.016066702043242433, 0.060256290876849083, -0.08512843720674727, -0.009551512491600998, -0.10397743382158861, -0.00844212402440048, -0.050068879048145866, 0.07078186240260524, -0.012499769594243414, 0.01873142130396364, -0.017309038332827043, 0.04133749277270559, 0.05159794600874982, -0.0320279073976671, -0.06433634104201263, -0.0016906180933975122, -0.03116394470129021, -0.06169043916575202, -0.14085017901153607, -0.0010261118915986403, 0.03331426253017187, 0.04774202777510544, -0.011955457763956677, 0.03708577982942339, 0.021631323601116404, 0.006053381496287109, -0.10334020397645526, 0.023831717234273235, -0.08791264394262249, -0.0007854528863923808, 0.03645254448482342, 0.025371204368525843, 0.031752755497351653, -0.06159477954907227, -0.015484558015651335, -0.025402782222545692, -0.00887708642894798, 0.047220480288922353, -0.09497354314558536, -0.047247080213985146, -0.05588826262990413, 0.028336262552216773, 0.03127163922294986, 0.012005729458700466, 0.04389662640711727], [-0.015230851078760677, 0.1133332197998143, -0.04032186865042298, -0.05143443138954933, 0.0019234154096521388, -0.037996832873565214, 0.012601476389623879, 0.01936945205388463, -0.006883911691893317, 0.04123499677919194, 0.007145908516726747, 0.013003232642583028, -0.06371691241517258, -0.05802493045976393, -0.04094490146333962, -0.0013833710475215243, -0.019670424989917303, 0.01413347509536928, -0.020010680304064415, -0.00797043355579265, 0.039844272436651645, -0.08223865961999999, -0.026649841199473077, -0.0125754978428699, -0.03944626034977906, 0.017370465670445243, -0.012708934200589432, 0.07661003163627968, 0.011223388257194683, -0.02128805205503479, 0.025710993299071914, 0.02173789684243585, 0.02790145145027161, 0.021613221816760453, 0.06069470449901091, 0.02575363731124738, -0.01855190005543614, 0.007939394181276878, 0.11424339884763234, 0.0802178191182147, -0.02485285761561359, 0.06311623737217271, -0.0363325049660708, 0.04287375740471522, 0.04704175203837192, -0.06822493420913238, -0.011883382946512231, 0.11600900020649549, -0.04351184735159473, 0.028446757843186492, -0.0786084620097079, -0.011259516287139051, -0.031045554112551367, 0.11780115785886504, -0.08450968550197474, 0.05147622877978082, -0.07186194243748181, -0.06256594360967976, -0.052214846732837376, -0.04816667314977562, 0.001959293176179716, 0.023115204817860478, 0.05759978085020331, 0.051721057072043046, -0.002312259448083649, -0.056793466008166225, -0.035088846638281386, 0.0874072917578546, -0.0002307784890004915, -0.12807231664361543, -0.011254943837058697, -0.07054556701175843, 0.019708167090090715, -0.01834958147653483, 0.0036049647569985784, 0.042343627141578015, 0.05110539239086045, 0.0058184079436713705, 0.001911212080805678, 0.01054374840769398, 0.02354464224565868, 0.031224025274525943, -0.02243756056694117, 0.025685286590040084, -0.002823140464282352, 0.0723145204644286, 0.025149080695053366, -0.008033158594902008, 0.07640113092623144, 0.05235011311025751, -0.0563778813802047, -0.032088987549590754, 0.08437098930618196, 0.04604033152610065, -0.03647422226847625, -0.024236745757106777, -0.10569040444811664, -0.038775556480962155, -0.05596831591555663, -0.015095956900200632, -0.05635525134486512, -0.00032698223352326135, 0.05069939585976402, -0.07666864954042064, -0.14672030200478556, -0.024633388039759674, 0.06858345926186012, -0.07048111871375763, -0.06343638723464357, 0.04466741616778725, 0.005582646660739525, -0.02786746758806535, -0.029096020123659964, 0.006299133406352423, -0.007219510566251354, -0.0018084769457453566, 0.005059841366772953, 0.0756010102084334, 0.0718264036245745, -0.024264142750273977, 0.015479349418232397, 0.014849240475934049, -0.028148997791547243, 0.0407092225820022, 0.02287485939110151, -0.008684333856444416, 0.059479129587491714, -0.07143071723541926], [-0.05713416804696559, -0.023481669264306438, 0.08657431716938813, -0.029273250240866952, -0.04336186616759048, 0.10678446587888497, -0.028277902532142636, 0.005196180062324339, -0.006684840876113742, 0.01222800936851521, 0.14315423582153, 0.0887545103515032, 0.007704408612534267, -0.039895716871023515, -0.0649380158082293, -0.006387041813131519, 0.0497962627903883, 0.021071798696090927, -0.04365521122620648, -0.013496118914387158, 0.003512035707758426, 0.05208155282941079, -0.03920352463567677, -0.014655774725384964, 0.031271627453064985, -0.013048226964199652, 0.039774100027053894, 0.05995623208168034, 0.02473278935292072, -0.06268939898660465, -0.014092474398788647, 0.08893025079502806, -0.07472843475954315, 0.006960644952566808, -0.07089149086272123, -0.08652946196411825, -0.08117330731973038, -0.05808335819715855, -0.04361877107537641, -0.019077667371603994, -0.02515398102905813, 0.02324426874663178, -0.049885328875996594, -0.059621455281624956, 0.1027990831637082, -0.07905944065933226, 0.02855664163671698, -0.0440383292638172, 0.09290346832508986, -0.1136051886058892, 0.05355802110505664, 0.005087886268228402, 0.02946920112314955, 0.08426629479838388, 0.0063614420171796875, -0.028784170878031923, 0.030592995081352634, -0.010387442506339805, -0.09078137628003571, 0.0027295467764922926, 0.0014842774283559104, -0.09544353846687656, 0.06402925124989642, 0.0036577693223919525, 0.0007857971528645789, -0.03240029483037342, 0.01912901728308265, -0.04443535062853791, 0.032454039039255055, 0.018078324587508767, 0.00012692427846338643, -0.006692844323863658, -0.09490048269296798, 0.04854594687102654, 0.012667382795959357, 0.03309293798368433, 0.08600931994107237, -0.002922847836419955, -0.004415220438481615, -0.06086958554148887, -0.003821967218767244, 0.1061244058152683, -0.024787686099195308, 0.02944371177608213, 0.025794636301447963, -0.003410436680608229, -0.020381912528778398, 0.026978603286753524, 0.1184987148607665, 0.011192123362881959, -0.006141056832266587, -0.04125745264515562, -0.03874841701401082, -0.050486064896728695, -0.016020789049461467, 0.0699647228932952, 0.031390502981598, -0.007195831145084752, 0.051088853435421924, -0.022045407701590018, -0.05056608235300246, -0.04163661731277721, -0.02181468750651672, 0.007178178072412926, 0.010556557383311547, -0.05104706812574274, 0.02160929709947081, -0.04839575152226183, 0.024874923853613486, 0.023815301944877486, 0.019058778347475568, -0.0026634769475588245, -0.023910458520329532, -0.004879330375173165, -0.0013773638182669164, 0.06660053252570491, -0.02927554038116335, -0.044493041557967086, 0.03619975115883826, -0.0827972693935794, -0.004477720774267042, -0.09141057558391623, 0.046009631004951444, -0.011648512528879888, -0.09043504245781286, 0.015538986064925233, -0.05081218714756411, -0.001356797690369319], [0.013932787461126145, -0.08279910773481772, 0.0007218073410736321, -0.04779083612540742, -0.08879735774993999, -0.0694172940513414, -0.018458052443330757, -0.01416445410098753, -0.038145463532216074, 0.00581734008274957, -0.07277951936933946, -0.020143466321126145, 0.032287647905401354, 0.012808078951385264, -0.05452451307347106, -0.0112999944591971, 0.07140585459570592, 0.023907061796749, -0.01037713709538325, -0.07440141115132998, -0.07167522052356304, -0.010266037267867898, 0.016360768981057452, -0.08212464573931925, -0.01565804843588316, 0.009280751470603633, 0.003631612756461458, 0.010117312004134325, -0.03857036620027166, 0.0010939389411681007, 0.038925188052592034, 0.020823565553178193, -0.030799257966948913, -0.0028076136744879417, 0.07415291779018683, 0.00810341418717473, 0.1050776589148701, 0.03642947226526923, 0.05393176349423624, -0.03413470613390202, 0.03567779038325375, -0.06936439208279647, -0.028123065979245753, 0.026067399967548935, 0.05136670017731946, 0.13345857173464237, -0.02794799987558302, 0.03847782953703636, 0.03381440437271908, -0.035744887962093165, 0.002637490149744371, 0.0755915485693572, 0.015857088629869273, -0.018286117542611655, -0.03404529432270107, 0.038619760472702, -0.05472346612282857, -0.06334430815539134, -0.05962720042097279, 0.003540513625004456, 0.07189752650901304, -0.02894083188019565, -0.020034231399568305, -0.007609006447436998, 0.03816411039964567, -0.028658727933393125, 0.04080503329795253, -0.02193631388796035, 0.1051342974393224, 0.010248562963842927, -0.028769965876491433, 0.044216295984048706, 0.0071428406233213886, 0.015632493457421254, -0.029199357422283898, 0.0675115006819181, -0.011798161884407563, 0.02264028633386527, -0.07874367237595072, -0.005838116615899812, -0.0007395381791223264, 0.0919921816711593, -0.10646859552566201, 0.012373263252086807, -0.05883511653556803, 0.008143238090544335, 0.002029601027158023, 0.09590703016863796, 0.04932525280639555, -0.01350465428159206, -0.0007860524219489474, 0.04661983844630034, -0.007818215288779108, -0.08213622770576778, -0.06896678666259848, -0.03958908383815938, -0.01718033131851232, -0.08683298430098607, -0.0652814751439721, -0.04131603298650484, 0.019396026084024603, -0.02627670549007116, 0.010484266634795689, 0.0012634891436806273, -0.017956257955939647, -0.030585356156920956, 0.029483896196363633, 0.03052054207728612, 0.02980471195362952, 0.015909299433630196, 0.03273457318161426, -0.02646427217090898, 0.049558075118831306, -0.07601982882997728, -0.005990053654971651, -0.019390427835617483, -0.04867044182365361, -0.0026185073958491195, 0.023378227734534126, -0.046709641354522324, 0.002386544751754357, -0.03216815029190749, 0.005061486759823198, -0.05011347633446161, 0.03553872309719753, 0.03830693888492633, 0.022834792784656055, -0.006877091180629178], [0.049853338214154164, -0.0017758271521247956, 0.01866436702933579, 0.07463689723145915, 0.05788202589157687, -0.01644323870221924, 0.0032657502388134603, 0.016460614787489638, 0.03526044305664611, 0.07092634761355394, -0.03025333977369836, 0.037279822734326826, 0.003854682971505567, -0.062247045685324257, 0.036024838485524034, -0.00845005467261812, -0.026521036301139635, 0.03572302740597011, -0.00021061003423670773, -0.03300411189516779, -0.0312618034681416, -0.06656659540559863, -0.05500989342893506, 0.07041860526517346, -0.02171170107982275, 0.07720187933780527, 0.0016429166890144823, 0.11091952912098527, 0.12138250745324453, 0.05066422556033933, 0.027376672893520762, 0.024485075581327505, 0.04451244673258856, -0.05838411766589897, 0.015369256960817706, -0.008855352874078912, -0.15473797747635962, 0.08565097629236662, -0.005403883105423535, -0.05907848229487789, -0.028006381057554618, 0.027984636006752033, -0.002528981043288769, -0.021537803011823474, 0.024932355359237227, -0.0373229765415858, 0.008255204050112118, 0.024799637553013655, 0.10258291979451428, 0.00992781982594751, 0.05262706341772837, 0.0006040699071974674, 0.03376274598564011, 0.05101776486501231, -0.043653146710815736, -0.018191707504049005, 0.04468647264503413, -0.014046129674291008, 0.048962269717565864, -0.027513753870045437, -0.05795131790652514, 0.12455656052684701, -0.09565411208413109, -0.010060961618848, 0.026284992031350513, 0.041010687770611544, -0.0361594926710107, 0.010664869933356146, -0.027629908200360837, -0.018621382716926288, -0.04559004670798426, -0.05488046274146955, -0.09031501234226462, 0.06373993454806888, -0.02789246023061976, -0.02242328082022062, 0.03298711632142187, 0.017341354669714044, 0.02140954485544821, -0.011593537080696398, -0.01810689194447649, -0.0890760256958576, -0.010626494264034916, 0.009310985516257992, -0.031004425288944065, -0.023091426476296296, -0.0552190921817768, -0.04099345241946267, 0.049736404962849624, -0.030892594855739298, 0.027327176803260873, -0.03416315176017419, -0.04225873102018641, -0.015176614049747314, 0.0024234041891064515, -0.014374368736606496, 0.006913350160565488, -0.024517729025130275, 0.047053233350875724, 0.02609265831817869, 0.012701957316152765, 0.05306428689692919, -0.0014361342885078358, -0.07361399784519959, -0.1101687214721184, 0.09730335434557677, 0.01990758081587455, 0.09235899071576244, 0.008403643617808034, 0.06946422234226239, -0.030097577420640086, 0.005382575446360244, -0.03621786576677975, -0.01598948503702674, 0.04001418165475939, -0.10923459137353513, 0.0019235031305386901, -0.032126018225014694, 0.04648066675647393, -0.033561987132583855, 0.006117819307159743, -0.004850885489530544, -0.034121409613350646, 0.0188080105441434, 0.025210723086581382, 0.045075066931271994, 0.017029559909217902, 0.03862627695488714], [0.008982088515662364, 0.028865890224479055, 0.0208983655362316, -0.06388955561840011, -0.05514555752101901, 0.004013529743547506, -0.07580503343812421, -0.0069017745089003, 0.08616336771155216, 0.03959216828273409, 0.05873712341859406, -0.041379196965836224, -0.02451316061294447, 0.05165667694794516, 0.06402219445523526, -0.018917988681381673, 0.014278059406027811, 0.047079621956889535, 0.009546108531232693, 0.04652631298426184, 0.02139689702751154, 0.11889228013626503, 0.06275841915741474, 0.008998000911519716, 0.005543110617335285, -0.003454456875562656, -0.056466615434789744, 0.04604984274058543, 0.03598993383913751, -0.0002829664256422732, 0.05225905286858552, 0.05495396968030486, -0.007758569221999157, 0.052274847984724614, 0.00952327429481469, 0.011708431467204579, 0.06332720775798305, 0.05777811496895761, 0.015143191860483692, -0.05997227252891757, 0.026829019826882093, 0.0017397093572981326, 0.023429534596783833, 0.038788326675717924, 0.04302948000458712, 0.0049526316382581944, -0.00953143708011341, 0.021983267650205723, -0.09103540720445474, -0.00521509657901259, 0.07985818681296863, -0.02471661683889312, -0.03600189965970554, -0.022741246467571932, 0.09241909267918444, -0.020605857442500892, -0.10382580863950808, 0.006172173163297397, 0.07590618176232182, 0.05951779961651602, -0.018512594936975293, 0.03346691306154313, -0.028470286679616843, 0.028491579199712416, -0.030966735993219502, -0.010264134496234263, 0.009293203262629448, -0.027697351597054363, -0.005341903625239377, 0.020043897345055236, -0.06849686629453694, 0.07931908476101597, -0.04327906304495613, -0.05872941947633335, -0.02825114790134372, 0.01629305807690204, -0.011900755139961031, -0.01939616859140216, -0.06895400808218304, -0.030407217095025325, 0.06451919919522434, -0.09499629935474223, 0.02502941563859891, 0.013042328173066435, -0.0393043629292466, -0.11839518308474704, 0.01318022536634744, 0.02903799140767766, -0.08081362000193318, -0.011097528042875579, 0.08156172048664803, -0.05137662284108384, -0.0013573229027604113, 0.012079160786615561, 0.010185000017034838, 0.057656797789895964, 0.00628262142275927, -0.022176518128570036, 0.04949734421346098, 0.030429144370028645, 0.0628453863605785, -0.04157036949566811, 0.024695375101601573, -0.08575996447394384, -0.04971677567823129, 0.056922714400332954, 0.037057291363071836, -0.046475576770426054, 0.0014873843690271546, -0.19884559260615797, 0.0751569071815564, 0.0077682651142885325, 0.03938219443729038, -0.03550437915274189, 0.11032464007633956, 0.018079284637050188, -0.04186926518922799, 0.06817930158920724, 0.024621037208174292, 0.09020484814481645, 0.025518120870908195, 0.03601122953168934, 0.060734606090292305, -0.031990762582787075, -0.0302933135299779, -0.07730236775835016, 0.044009393620605894, 0.0661870490524905], [0.0415549241695067, 0.04473079577640429, 0.07845466833113623, 0.02146225718782671, 0.07096696439219474, -0.05406796005656613, 0.0299642801574375, -0.06678145303171752, 0.03103032039421233, 0.007927303051733427, -0.010596670918959607, -0.036887042103550094, 0.06406641290650661, -0.0018354032535648317, 0.05020833535084951, 0.0008641767536000345, 0.06348150990368594, -0.02351359987703985, 0.004064266309615862, -0.03601833663847079, -0.05293208814805342, 0.00832484670045788, -0.010018033147999912, 0.03028667224633255, 0.015888397620248504, -0.017241709536136483, 0.01570297357456466, -0.10495611816906043, 0.06992679328837206, 0.029571206417350032, 0.0783888059987022, -0.04436282733888055, -0.0017471148520125804, 0.02291985563936451, 0.010999329252491714, 0.013846577598456868, 0.03208677882124486, -0.016459912112036613, -0.0975915743929857, 0.039671821504465146, -0.0746958520071806, -0.00854594487559306, 0.018377954890640674, -0.12612265247022167, -0.11215880366337615, -0.05688552645449064, -0.015718250622666626, 0.04185194903375358, -0.022784279421518155, -0.039881361264757643, 0.001352919849456983, -0.036022994682314555, -0.055749353067997824, 0.04894388229867549, 0.06178071996628065, -0.019671883645445674, -0.03890869545980535, 0.1476146858241361, 0.018369245991210603, -0.08467485102356141, -0.0884808970636245, -0.02918099993003869, 0.003577768420029089, 0.007518103874214397, -0.04081274753084555, 0.06328023944770748, 0.009002903757851961, 0.018226254795883273, 0.04901539623660487, -0.04274129051249384, 0.08985913161631576, -0.021839600831734352, 0.01717507046477832, -0.04307210792895663, 0.008637464167744364, 0.07911479106155815, 0.01620632483068845, 0.01069233067031323, -0.02866549701218536, 0.06113111192923262, 0.025152283577222913, -0.06931650878829924, -0.07399013201459079, 0.04825440413700411, 0.016307035101788124, 0.056294868708189616, 0.023246801403911884, -0.0043419288896255435, 0.01752715173982673, -0.05999162861960373, -0.05102448523418044, -0.016430161538747497, 0.00235934750372889, -0.01776262344000861, 0.009123918736394836, 0.004612588591449412, 0.056373959805653164, -0.011369630295812711, 0.029055458119062665, -0.027913573657252, 0.03169630266384921, 0.029392673795295962, 0.08490184359269051, 0.004312512087230902, 0.13361095565207817, 0.050847849839311635, -0.039786499458660196, -0.06536732559637427, 0.04001694499064061, 0.03677996847219656, 0.059554002501351205, -0.032166621970787436, -0.018660289353830774, -0.007041095652004297, 0.022097410677275928, 0.006171434648247935, 0.0011178159322695691, 0.0060816469432839635, -0.0036202732350696758, 0.04160809957661358, -0.02578327785080426, 0.03161099685109578, 0.04649482029521887, -0.028803935692405462, 0.05321556297153329, 0.04109633271586002, 0.040578745585515594, -0.0008072946193822518], [-0.025976906345372305, 0.012482844826852895, -0.05277460313320619, 0.08636018898112058, 0.012058397586744946, -0.025051565763283348, 0.0598482267961297, -0.03644597405718105, 0.00433768049734961, 0.03957612640836055, -0.002914347303710538, -0.002190620238952181, 0.04190860840568629, 0.007428901151204476, -0.009651511526658909, -0.022051566213932495, 0.03421106693528332, -0.03644380519277766, 0.026622718855533193, 0.05134841565646361, -0.01166944372679835, -0.0192863097880685, 0.020609047067269695, 0.045736523777880934, -0.014875152926579939, 0.03797125904560413, -0.03402532015928774, 0.032009998334141, -0.11508420095781263, 0.026373820819918, -0.02089250846438093, -0.03141836415550929, 0.025599468087019243, 0.08779105061780185, 0.02611209372183834, -0.00921340753876089, 0.014130734836285571, 0.006014253865070799, -0.04934725957086144, 0.031035888576207194, 0.028078533232422334, -0.0937960860960881, 0.035550165878555466, -0.015928894821242025, 0.04209148667305448, -0.06781612206216932, -0.06014541982029086, -0.1231082145584279, 0.00716616278155349, 0.10332824669161753, -0.001587847487599189, 0.08583502802570962, -0.021654914467657438, -0.020908080709946493, 0.04392506738941374, -0.0016417680241053421, -0.011460018699894162, -0.018389614752780174, -0.008278107539644383, -0.016354999671779967, 0.01469838968916374, -0.0325208007396264, 0.037189486821833165, -0.003129437922296602, 0.027314688772181118, 0.025043572182545843, -0.06739188776259325, 0.13604005023106241, 0.009006914255126362, 0.052284094206952576, 0.06534416843167427, -0.02851520374494163, -0.06276766228476056, -0.12663148570790078, 0.02691632566885987, 0.08119945268033506, -0.07549496762687702, 0.004546114082140223, -0.04019799924246296, 0.07937583857955563, -0.07723497985888925, -0.043648751904733864, -0.05533266749323822, -0.028600869010178893, -0.019783537284257947, -0.058373611543642255, -0.01105797186807411, -0.11372919969552417, 0.01990758378184181, 0.1304450834755995, -0.012103188980914559, -0.05221386689754841, 0.08370995313113536, -0.0059990930094787585, -0.0038822780119847963, -0.03851891917321239, -0.005011586023454737, -0.037898220563127014, -0.020377579166958683, -0.03835745176645754, 0.01270871243924666, -0.03894357064871451, 0.04101646328552219, 0.009303946279373615, 0.009955253732445374, 0.11063820736415406, -0.05732139963916545, 0.041574080580731955, 0.032205402119552265, -0.058881053116484436, -0.045616346599821424, -0.028156726817183234, -0.03009164822781567, -0.06271090198772719, 0.10158793830173676, -0.05531715422035903, -0.0020519938274490947, 0.09658034493278161, 0.04448498241113291, 0.02132135411279302, 0.04799181303426617, 0.0068909956848843806, -0.0686136738446372, 0.08673676045472452, 0.027737846951854044, 0.051909697688941936, -0.03040481011755751, -0.02506053594412147], [0.01354271219342512, -0.03583093775780903, 0.06376197237436203, 0.10720207579886827, 0.02204011184305824, 0.08966882403821423, 0.020221946238320146, -0.08762806048141182, -0.06147718559065289, -0.04033509298972445, 0.05389724301024344, 0.008074733008410264, -0.07974192174635628, 0.06153367069849705, 0.031050320257840183, -0.05136460769492244, -0.018098952889841414, -0.003666561027040749, -0.015689702778550217, 0.007799024891977483, 0.059060208925107965, -0.048145748371683, 0.032913656655300313, 0.0027953206340752593, -0.050197672863452204, -0.02901561877505615, -0.06990789193447938, 0.006595056384190432, 0.018947692246744263, 0.031657977984104795, 0.012777990187206704, 0.004780496170370748, -0.01652109137234014, -0.009225616521274573, -0.008318400484365955, -0.15281274829305028, 0.0005294354838432682, 0.05056800828621609, -0.03377982999862821, -0.08636631391313433, -0.06495032267522143, 0.10014212908484164, 0.006260464538247344, -0.08532780707874332, 0.045401249526812903, -0.0857970382766413, 0.1034827430267869, 0.03356992330773272, -0.0015601589213951807, -0.09659115186826485, 0.037435339117292465, 0.009063874183005534, 0.07948123196672509, -0.052658189672575725, 0.00382190041630096, -0.04402411173592094, 0.05104792843950539, 0.06557451487068026, 0.04431198782690671, -0.0033941202248360556, -0.06097002958047733, -0.029526821102239746, -0.00682762333422108, -0.005020881184196348, -0.052459447858233046, 0.006075696807486946, 0.01683104362225289, 0.10923130752374298, 0.05295046182094402, -0.005491605440269096, -0.0024915713828003202, -0.025388837411905885, -0.03802843835909926, -0.05154598757789169, 0.0012737867062948879, 0.03031948710802382, -0.05279730135670223, 0.025452112663637193, -0.07878526847887175, -0.013210275598367786, 0.005284884140420296, 0.06658490030449978, -0.07938320303907363, 0.05135055634031286, 0.08190792713462634, -0.009933922644323485, -0.034102784412572563, 0.05151652216034103, -0.021818130310324643, -0.10211280455255917, 0.05953464984556477, -0.006356001534614386, 0.004257293177929744, 0.0033197513073355872, 0.00015138842708205044, 0.01853602184737627, -0.024252349071473507, 0.0059577116169566265, 0.08162137957546796, -0.021649500500963, -0.027489209291604245, 0.02265983606019507, 0.08267884539029624, -0.026341691572540453, 0.030276760630397272, -0.06436168007497356, 0.04761039639008349, -0.08507759175184215, -0.0043549139669729845, 0.009930441956996796, 0.011800043823202995, 0.07414951665577542, -0.016044700419556274, -0.04752541915428161, 0.03224076962538424, -0.10745213657742744, -0.04510605338576859, -0.040721314778698205, 0.04314530855353308, -0.020843560644061235, -0.012330543436759805, -0.018136841465342574, -0.06469237344695601, 0.038236388160502094, -0.031192435053696118, -0.018789809363915642, -0.026818189733377726, -0.059261134730979985], [-0.08825312591902704, -0.05095948302340135, -0.03778880501530323, -0.04954649441580703, 0.0016872468214241955, -0.03434404593278504, -0.03591111286036911, -0.06729706117206316, 0.04781736216713994, 0.0386449935688858, 0.03455929025199082, -0.03472653884266304, -0.08068932292688866, -0.09476633560480478, -0.010320422129995092, -0.029770048311401478, 0.035949285728099016, 0.04004454179989592, -0.021960880579451524, -0.018279411647064966, 0.05824714986663938, 0.07265730999284953, 0.012348426943747723, 0.10554833394140414, 0.09134833597211055, 0.003694191054286623, 0.03882702853487317, 0.10502198108741174, 0.0009808159901366683, -0.003527460760120143, 0.008672740062628156, 0.018907677564337203, -0.034281090460697404, -0.01008702070376975, -0.03826028001171201, 0.05262060936754322, 0.016960366136685282, 0.018288611305820494, -0.05085043194855223, 0.051506656223084625, 0.0371471185222202, 0.06327971419745171, -0.028606196326445524, 0.04853403212738277, 0.04272744459244134, -0.03430866004959748, -0.04244280313347032, -0.06512587558137604, -0.10683426291582294, -0.013109082511328455, -0.006392523618257833, -0.02392498909553476, -0.0020793288929106253, -0.006314777422530142, 0.03673283171226284, -0.06268182375252271, 0.01114339408955437, 0.02623550973913657, -0.0264736661071342, 0.1024438610906149, -0.013159153263104958, -0.03596956606942486, -0.004444032875632743, 0.014183902131326464, -0.019536177660026372, -0.022169962733319892, 0.10362340188316535, 0.04793113657482595, -0.09039476175326264, 0.01836958787582076, 0.02881630776334137, 0.027971248972792198, -0.04059689743577605, -0.06347696532228894, -0.02921842150839883, -0.058031067134627544, 0.021920266199486418, 0.06792576990577, -0.01562187680997674, 0.03003062506994407, -0.005264016680826266, 0.0028249924367620624, -0.03331337395061497, 0.051022047507513824, 0.005150575998300333, 0.01240153732830067, 0.027193784838812372, -0.05014466770660487, 0.01316764461283047, 0.027063734984149945, -0.03085952987731934, 0.01942289340584752, -0.026965283249592877, 0.08010528830681854, 0.05071758627156049, 0.11070958767011992, -0.024504479985382195, -0.031078702964607772, -0.0667345339570979, -0.05405744770902772, -0.08142292000478758, -0.010629299143451289, 0.004042895850056258, -0.19602744135932507, 0.007554408928205385, 0.09663367199628149, -0.0005139533444569961, 0.07054055908930407, -0.00716736814203721, 0.003481512576647281, 0.005166874415408832, -0.08159777182636234, -0.03789549084676785, -0.0625205698988918, -0.011951207323824181, -0.06279901730460721, -0.0014894266892627529, 0.08637062987913637, 0.07655830075095892, -0.034498555786382994, 0.10516509599207934, -0.005877027496610416, -0.06922605365751, -0.01719902772630115, -0.020775873749800625, -0.037048573374881814, -0.0300287728445805, 0.007909987029659999], [0.00011491709117673628, 0.017960840677340096, 0.10669755265807682, -0.013027307773581426, 0.06143652807365958, 0.04417499105931227, -0.039276473092923245, 0.05740881949597027, 0.04140971128357577, -0.0998484399893257, 0.07313407956202915, -0.04904121388404219, 0.05744911151285675, 0.02468406506468798, -0.01784930651196244, 0.024928255882724997, 0.09412870755112399, 0.038344497263537655, -0.029947520517665582, -0.025684048241796757, 0.026014197481116563, 0.051652576602655244, -0.048460379782516036, 0.036201271321865305, 0.03480209747283707, 0.02057452383987346, -0.09021856395980642, -0.04870820637628636, 0.045843128532087975, -0.021379432283300945, -0.000607215444341043, 0.04403741954528996, 0.033263706056275495, -0.035614363961388534, 0.02995989053716367, -0.0901408993470353, 0.06810122336657322, 0.07085877783306548, 0.023614276536761025, -0.025005137504627628, 0.015957257734726817, -0.03896438603798782, 0.0012930673158650153, 0.07555404895244718, 0.03476030103350499, 0.08731918125693897, -0.02239145601237641, 0.03895452174284482, -0.013851952188090011, -0.036556703642775544, -0.06013992246375269, 0.04278240660670018, 0.021482133289445312, 0.013272972870437083, 0.021083103272269997, -0.016826887183466886, 0.03258793673245863, 0.1039022289716908, -0.059721913563115486, 0.023970014681624838, 0.03606569398267063, 0.018479481911668007, 0.04073573096058562, -0.01398009525257225, -0.07440657566912733, 0.039139466047876464, -0.005203633280833199, -0.03735584954852706, -0.0010295397605061252, 0.020880757105825605, -0.06843545068052358, -0.0013756576107101495, 0.020015989275204024, -0.004593462290277907, -0.0530261742592802, -0.0036885271344885098, 0.024127500446041634, 0.07216089387639217, -0.02532447017222795, 0.03595975932847168, 0.04078317921126128, 0.022513027312926964, 0.05360261113437421, -0.014661664891115131, -0.05729896838908706, 0.09047847394903355, 0.0019750536282645563, 0.040672448139919715, 0.058387398188636704, 0.127105792480673, 0.06779281792257916, -0.06609280598260413, -0.04776654919900086, -0.03380076540320293, 0.1019720382600336, 0.07002213600211848, 0.03684155423740189, -0.10681057394430706, 0.05066239904382735, -0.05698715267540006, 0.015906968363869196, -0.07354480497357879, 0.0026269240644708302, 0.002283716884634762, 0.02444940400602804, -0.03250072012872527, 0.0274167784974217, 0.028506273176896517, 0.012835896995905165, 0.0038396419868616293, -0.030777744756927156, -0.032677316643674625, 0.08901359428848032, 0.10264436999197317, 0.014247369547489513, -0.012100585677312972, 0.008677077974666662, 0.015753507200335918, 0.06173830990128613, 0.08625361390384366, -0.006682993256398197, 0.014684321860615709, -0.06353956305034672, 0.031381030908208554, -0.001265269502366374, -0.04614961774894904, -0.006155405659544685, -0.017127505923275322], [0.028655175932183852, 0.056156551352257535, -0.006748750429991591, -0.00037913587820321664, -0.01054656526320239, -0.019243525593751226, 0.03584632705291324, -0.05612603075645664, -0.03084531493569371, 0.04885190442890686, 0.05074950199724143, -0.019809287642714897, 0.06349214282490681, 0.013295552497512554, 0.05253331307859287, -0.020830307881924772, -0.0017599578866163894, -0.035283812939347944, -0.017980713040769838, -0.04588485249449076, 0.07471214942084606, -0.11126190183544792, -0.04826180795778119, -0.06958172992855849, 0.08013442702852076, -0.07671668864017463, 0.01845577463369281, -0.047163463809136816, 0.12326952518892702, 0.066958095929685, 0.0210860656066255, 0.03754147938369471, -0.01984280862723505, -0.006647813384256474, -0.09573559825760015, -0.09434620667153094, 0.0763847836727846, -0.02132670994874836, -0.0007606592654433894, -0.035643722702358216, -0.025307372722170363, -0.05947548574729758, 0.029480932330180915, -0.03334269678767179, 0.02028128154583691, -0.0032671117460895452, 0.07642047457664777, 0.04197073133692416, 0.034882029492525383, 0.056370711809237944, -0.01581330802844195, -0.06911912761463324, -0.00630109924660588, 0.07068485148329853, -0.10324905848497075, -0.04050405497729356, -0.01276795613539674, -0.04122406307274567, 0.08189340395502377, -0.014185980383509465, -0.00849266461928715, 0.009394460533727736, -0.028878113544273224, 0.0095279369562171, -0.02691558465505462, 0.05813150775134418, -0.02442610432931829, 0.031835419634994165, 0.010973993130729939, 0.11511540298536223, 0.0054870094337802905, -0.05337957814174769, -0.10298033599840166, -0.03814115405316749, 0.11974093972307696, 0.0033438664427298944, 0.004115096280181322, -0.09633153488322412, 0.0491887709817124, 0.048680501397709755, 0.029227775592496803, 0.044055160099932315, 0.11796979863021367, -0.06656369771821487, 0.0036509981121384395, -0.04226802158955461, -0.048052720700274165, -0.04935950250529642, -0.013438942066955102, 0.005936154136093185, 0.01132483863673253, -0.03726173081977273, -0.04481558131595883, -0.07187530345978327, -0.01719925744676035, -0.03959438260474523, -0.02763242482298472, 0.01350655960082827, -0.05242653505256204, 0.020836420878292367, -0.11904066167725207, -0.018003562902628036, -0.11304008802239261, 0.02379915456827988, -0.006039136539966926, 0.04745502912970964, 0.07668517170252555, -0.06659600091731663, -0.009316322808786383, -0.01621431573759244, -0.017152012536590933, -0.05716226577511149, 0.03403686606334257, 0.02535209828011347, -0.04005413444300615, 0.021326923997167065, -0.02121040324154841, -0.007855913647252251, -0.04494488274942033, 0.03999044495432291, 0.0014697474624356392, -0.03355446688141988, 0.10808182008079552, 0.011356044736380742, -0.02567179733607257, -0.023353338524307144, 0.023526901325724565, 0.054297735704656465], [-0.09921171137253153, -0.029432019188817143, -0.06177207036080871, -0.013066092846734427, -0.03849414432559254, -0.07433585164984667, 0.04317023447147525, 0.07593275954737334, 0.00618661707602438, 0.014247041106661543, 0.04190519142351744, -0.0508751028242773, 0.0068787330116469704, 0.010238521306779302, -0.0060438948511416955, -0.023111721910963855, -0.016280101375973823, -0.04620391220018711, -0.045961361235527416, 0.02734725949486081, 0.011551440819016557, 0.038164388558948055, -0.03296750204974916, 0.12189723569390276, -0.12103509099221105, 0.07802719346008002, 0.026816256491888752, -0.05204567204602298, 0.012411088547923842, -0.017162554444216837, 0.046657545905047115, 0.00533795132016399, -0.005312249931003565, -0.005232869150312226, 0.008947941355194118, 0.038034506543412935, 0.07215846315424666, 0.042518829774539156, 0.028608199979926526, -0.04157902049850633, 0.011021903373239567, 0.053319302233375346, 0.08165967932218866, 0.002953013913615523, 0.007882458156416057, -0.04414870229969715, -0.03776758128290124, -0.022482982264619242, 0.058994375823243315, -0.02748126779744515, -0.09396779104163766, -0.003212727426229146, -0.11580111418803062, 0.01440631506457555, -0.03731970932655183, -0.03576469462192327, -0.07274462373998007, -0.1094135656210991, -0.02610159491799017, -0.011600020379343138, 0.05096831466632473, 0.03532473168210984, -0.03723892951032264, 0.024161046346959272, 0.04278477434873586, -0.03224876576739027, 0.01484847780056325, -0.03430149097967498, 0.02016448245377448, 0.0068707196526546395, 0.03573810607615823, 0.030381674813841398, -0.03599781579699879, 0.05685479223127114, -0.0055270221433860066, -0.0420547822618543, -0.07653958027186596, 0.08270214030436196, 0.02839524470443644, -0.017534479846683406, 0.003992599772344261, 0.04008008515984221, 0.08239702604212963, -0.0014489437844726779, 0.04920752809355699, 0.11034934185096638, -0.0015711947418637945, -0.03605522989315761, 0.0029913077549730176, -0.0031416029746105254, 0.042861860641966364, 0.05766575162160139, 0.0049818763987502495, 0.054658878358907585, 0.09034888890493371, 0.015211980218921053, -0.05394166291649151, -0.024171180959370275, 0.028595551424100304, 0.007011199165870718, -0.030652464218037124, -0.051679175209248966, 0.05736082692805927, 0.07899958130992987, -0.05991760658649087, 0.018792632496058143, 0.08386541035665969, 0.015278667422318877, 0.04398742385983272, 0.10166395042078906, -0.045751438288250096, -0.1234943790089611, -0.06723007054535371, 0.0026563054508277305, 5.791995590884729e-05, -0.008951389995623928, -0.05588529560084446, -0.05538440691222322, -0.02216226035351861, 0.028350563714748384, 0.03150777846344804, -0.052378769688615885, 0.016311537874157633, -0.08456370320037349, -0.014175622020462467, -0.0051042299100858045, 0.10380139766566837, -0.017609902992266176], [0.04989706938472371, -0.029351352700890128, 0.056275020356762746, -0.0036508302245958665, 0.007022894235242565, -0.03773765919242905, 0.038556713911370485, 0.03799746449652837, 0.07322081507207895, 0.0031990837014275867, -0.02115194000558269, -0.04796580024131818, 0.0039495540377522806, -0.06112747721806893, -0.005124756611072567, 0.052358411633714456, -0.004106299148963351, -0.07748176863961814, -0.012732908886442703, -0.028704097726591212, -0.040645848723882404, 0.08586143231722096, -0.053823028470680524, -0.08452217152322543, 0.02259659499545176, -0.08576956516029534, 0.008720702414439695, -0.014854605751618264, -0.0024530914637139493, 0.024322542906637608, -0.025842254693993087, 0.0349855685390411, 0.03209465512460389, 0.03426874703885073, -0.052029150056294896, -0.018067621048518032, -0.034039817771806744, 0.02324259400687518, 0.017599776688676076, 0.004598041695290781, -0.01807905499084421, 0.01876653000774716, 0.018923735474825235, 0.04746455407411378, 0.011562890833783292, 0.06510037425808854, 0.03441658857486233, 0.0553326508795064, 0.03404476233705647, -0.051126033467106126, -0.04405923259431344, -0.029255435670584442, -0.027966154403552525, -0.07022152615357699, 0.05782932246713531, 0.011592242315430198, 0.025367952004186647, -0.021517200545261645, 0.004083337842812812, -0.02997277105872598, 0.005716871513652852, -0.03481598121422084, 0.038347406024158176, -0.08797667443890238, -0.0008216180395257012, 0.008639388433355108, -0.055779361938069594, 0.037651281748428966, 0.028601869608931366, 0.0038000841828744096, 0.0009675868611428487, -0.08410765102968824, -0.03497179862774387, 0.008065004289967717, -0.015821978916506194, 0.01573376861774591, 0.03192722013340481, 0.0807548196841375, -0.004520072522310642, 0.003047738085017651, -0.01077405036825043, 0.043884491138961645, 0.07353095312674518, -0.003535350688205993, -0.00470908656038208, 0.12658521881741522, 0.0659072725933077, 0.031405539013281164, -0.09170712725596576, -0.002223732530963352, 0.07636939737896743, -0.06083307451868643, -0.02517980278383784, 0.03213465172729698, -0.08095381797473825, -0.06836322715528097, 0.07481040117739904, 0.02888586365499133, -0.02073672278960755, -0.06560003569772148, 0.11481079047489916, -0.0059645409579010995, -0.0005429011154520492, -0.07429271042017956, 0.017005270624091084, 0.07306348677990018, -0.03103737407363871, -0.054935485544347025, -0.039264578134814224, -0.006093957193929776, 0.06584847118742822, -0.005375699413264821, -0.03466852655453814, -0.04994684874544078, 0.021992300789144603, -0.08845722942115086, -0.08561928158322642, -0.018990437988967823, 0.046748938254806284, -0.08782364716748202, 0.029363790038429375, -0.03377442612680779, 0.012194651970991495, -0.046788804969778906, 0.09299163866015664, -0.003026505402686882, 0.08115590942946316, -0.02613452217371814], [-0.02449050666449454, 0.058514094713381454, -0.07345354972721557, -0.037711825631224154, 0.10534110949059447, -0.03487576658205714, -0.013351277051152141, -0.004171390207900569, 0.08636331304985047, -0.12080304155651414, 0.03385738453364355, 0.040676241591107005, 0.009972780999847095, 0.05620851233897885, -0.036394064781375655, 0.02424464886406368, -0.04412453968816523, 0.017042723731606892, -0.011761100803046261, -0.11101935807849318, 0.11482752026446714, -0.033890176626011896, 0.02027029723575847, 0.01560745303779196, -0.09807914946157612, -0.09462036451449032, 0.07641527663052695, 0.03680250999926365, 0.024285388997018414, 0.008164490581016787, 0.02193544959603862, -0.03912545703860782, 0.012629043342183122, 0.0128543414558501, -0.043780705410539335, -0.0035766631118145965, 0.024407878581871635, 0.06952619515244438, 0.037596240125384456, 0.060956727157510035, 0.0318374086263503, 0.02034526514787767, -0.03826579479606236, 0.0003599589911039881, 0.14809125213333812, 0.04758830052484842, -0.04318292745393251, -0.006767283850136507, -0.026336199731475222, 0.07286993848395604, 0.01433674646425664, -0.023291446666517317, -0.05250324015009888, 0.015292043195187616, 0.00283985464978172, -0.0126846563045589, 0.02257221048130787, -0.06063275509140725, 0.01012673820876329, -0.02655520480029794, 0.0031234339515280787, -0.03888919140259864, 0.0023639291594844372, 0.09029548514658572, 0.03595830867956294, -0.08249728339406394, -0.017389364431125036, 0.039924633293881566, 0.059263519097999214, -0.02341967831976171, 0.0215528785421203, 0.06043703379032465, -0.028928789099117037, 0.026873074848053343, -0.10404023213017197, 0.002788742629450512, -0.06849136269348195, -0.02274708426870794, -0.008275381777168826, 0.09074878254783042, -0.03339844258816491, 0.0027557225619386206, -0.004814159975805799, 0.022894977278368957, 0.025026798390170735, -0.042174544875326674, -0.021229626970419968, -0.04998284570542077, -0.14990464060808278, -0.011728473654237816, 0.004335885219733765, -0.06286710372779539, -0.03635713750459121, -0.019056622454447766, 0.0038528417459184196, 0.06203601414368095, 0.03019668970058984, 0.050245070032952116, 0.0876565757496448, 0.05962918092637383, -0.025042797830176825, -0.009506114762427005, 0.04287381525620012, 0.024473668704589474, -0.01910546073470958, -0.0014564144876302043, -0.05420933042337186, 0.017311306550023907, 0.023479211303337, 0.043199148168763156, -0.01883531702117994, 0.012443532919582473, 0.013909717025366388, -0.0041379018392010405, -0.07502278825296269, -0.0031990732402238024, 0.05742323328342007, 0.0861166852188134, 0.020911046811292473, 0.052093261793291594, -0.025563846039562747, 0.012444209389088738, -0.025239382790249006, 0.07581337222401995, -0.04458864799220675, -0.046693654664660106, 0.07888336440276907, -0.044529220599835065], [-0.12148304340757293, 0.013732818298076543, 0.037891119816410516, -0.015906907612060237, 0.04794778741342131, -0.0734803875537395, 0.07595625366679176, 0.06039158768839721, 0.03736922874744794, 0.01908429255368712, 0.009916084637178165, -0.04720684162356385, 0.033301021091979376, -0.0010701546325519807, 0.004530999994552619, -0.009898662105395967, 0.014302999580140582, 0.007707480545540671, -0.04671183809132751, 0.07776466334403304, -0.06288544992522191, -0.006311825602500379, -0.07914579521029146, 0.10829590466529149, -0.011527343951626223, -0.033798643797150425, 0.03401673937034645, 0.005138685188030038, 0.036058352738005985, -0.05199899757720136, 0.008316616451473255, 0.11150469149872252, -0.10506197405490825, 0.014513200167345513, 0.04430893486740667, -0.036854774607584816, 0.0031668722726403108, 0.05292965794880997, 0.058601111931255175, -0.08265920683670509, 0.00557839991467229, -0.03909095499250242, 0.027736959120165713, 0.07148397513391566, -0.022919444959862065, -0.019702474264324088, 0.01685571118186095, 0.0391364457278461, -0.02610047140445553, -0.08722210620181915, -0.023184284757127766, 0.027437881887944646, -0.04136262546688856, -0.07453604950894148, 0.01343772829262774, -0.01216812995549461, -0.06439487787892646, -0.03601535990658154, 0.07436674810882017, 0.01895038298907903, -0.023406380184299195, -0.10842912579210784, 0.03894874067874357, 0.03682486789611851, -0.07287514259860414, -0.02218858481118908, -0.012583050011046773, 0.0128846920235021, 0.021841855780794537, 0.0121421079232419, 0.05444626744547494, -0.050885780063490545, 0.007325854690376226, 0.052181377203024265, -0.015677381158810958, -0.025293023318808498, 0.07585962941990786, -0.003398011986156106, -0.019712738233629772, 0.018061371463030818, -0.018845344869694268, 0.014324030020945738, 0.03509730068345683, 0.021208968484650648, 0.04529580392005265, -0.04061642138614538, -0.00040312849847471153, 0.043226857410042056, 0.08937689922500155, -0.010005426867024683, -0.015129246563849846, 0.04546218049394063, 0.05434296154343932, 0.05086731985024723, -0.00951810968846224, -0.01020914784129619, -0.013179736426667442, -0.06370025832079187, -0.048494101195662394, -0.03875246895529058, 0.055469190835437096, -0.015084662408177305, 0.0415459055669481, 0.009171521148504011, 0.03088119217971505, -0.02090428581573172, 0.034019213461505396, 0.0024003623004425737, -0.05309148582982057, 0.007752734589792834, -0.11424861056836118, 0.011704421155620474, -0.03265829495974536, -0.035446402991096464, -0.03681158409100014, 0.00834939788603688, 0.0274918583938584, 0.12332547234008306, 0.017247368456951188, 0.03014088431478931, 0.058609010960576025, -0.0878011374446525, 0.02927032297666156, -0.01363072875364322, 0.02785007140397089, 0.03441364064466889, 0.0005962348612439462, 0.008982738335870634], [-0.14554811712397472, -0.03369051527304833, 0.02620408757961725, 0.022669578757526513, -0.05608675207415191, 0.08419116889244369, 0.06436842626998063, 0.010510004444792477, 0.05461366742309874, -0.05614979739981262, 0.01564909618041569, -0.024055644826371073, -0.028645853586869916, -0.037959359745512296, -0.030313689524917153, -0.03351362228124347, 0.021955011452774103, -0.02675209583570235, -0.016649334398906594, 0.046105581006698995, -0.05118450676786553, 0.004393056739059155, -0.06530553217463786, -0.022867680573010734, -0.17627544285882477, 0.01681732884813609, -0.09376753380257079, 0.05841667554117052, -0.057169085622927863, -0.0430143154018282, -0.011824926504674928, -0.10686405104491876, -0.032069354907925056, 0.061027361004930114, -0.0649429385850937, 0.01574501810102011, -0.0036972398101764855, -0.07250569497390427, 0.00012428884817348242, -0.02197294356354101, -0.04223668288662043, 0.08407491675081652, -0.061064224833742756, -0.007044810679338349, -0.0724249628949436, -0.03101836119602445, 0.01583588722990337, 0.04490165725859939, 0.02387597782501559, -0.04290446588974288, 0.0041652491455031575, 0.04182080117692398, 0.02303547719596987, 0.012451250793289017, -0.02120512428096659, -0.011531700697520766, -0.038465001848635126, 0.0608224418765219, -0.0024892545583404552, -0.021253661816775724, 0.02928065302926757, -0.03812238288733441, 0.003570030010713508, -0.03778583315787616, -0.0676628363773081, 0.010315825115673293, 0.06156056798244106, 0.06058536349724987, 0.004329721049779146, -0.02517237862759827, 0.03651173602788254, -0.026765740619553946, 0.06769888922715672, 0.06413419609654704, -0.03175458385549943, 0.02063567512987717, -0.016363539619166728, 0.04985461280452387, -0.04074854870922312, -0.06711764259519694, -0.056900469908366606, 0.05770820925556706, -0.017961855825115523, -0.06495379158498654, 0.004782982908912264, 0.048279389962731394, -0.04909255221649416, -0.022629999545930528, -0.10986042096420268, -0.024092867375902507, 0.044784773371573265, 0.001648701515877938, -0.020010046486991624, 0.06828983240368364, 0.022911707137378095, -0.047069362712027434, -0.05270640773868378, -0.040907403186240775, 0.031006049916637496, -0.11152110568250873, 0.006144844916936826, 0.02276182000111772, 0.05670872144099922, -0.017267742985161927, 0.07830519545829319, -0.058719025592031224, 0.026781181058886223, -0.1466668076376443, 0.00926613050859935, 0.06879000967315954, 0.04077013524351452, -0.09902939145554424, -0.06971859688729894, 0.02927350731252836, -0.005819656496117556, 0.011852503996911429, -0.007461777025940172, -0.10743281561538084, -0.019195130770439463, 0.01641157919943829, -0.015700141196667797, -0.11046267859349927, 0.0549367214544607, -0.050852992961445964, 0.02921929281054736, 0.05079364992579392, 0.03609465224600251, -0.028398734532365598], [-0.07008492560291327, 0.03276063360186998, -0.00032445074322261187, -0.0647575001121366, 0.055512726259567, 0.01171318189969502, -0.04919696439172455, 0.014876647695125086, -0.014394152429094326, -0.008286965278706945, -0.02707643044306337, 0.09684140088251848, 0.05381395273489256, -0.015222527077177417, -0.016487162080519806, -0.08746410704938169, 0.03220456096116898, 0.0025895830556757933, 0.024372955279088226, 0.027691270850264037, -0.006400493703286558, 0.036034237146688436, 0.05053209317772521, -0.033214433842466015, 0.06225055187689584, 0.03307543857170316, -0.052409322630416956, 0.00015412245877529043, 0.09073318480957918, -0.015194515937453194, -0.04323817861638328, -0.10879467842872921, -0.044096937659174135, 0.003500217847635795, -0.0120677845755988, -0.0720656181630669, -0.012736514023503167, -0.04240311337604698, 0.0062356824739369515, 0.031961636825707705, 0.06264096878589309, 0.010216632535854241, 0.028492888143727746, -0.04663480850455602, -0.002001645810047098, -0.025657841318154725, -0.08349298656270945, 0.01882576718646467, -0.003304175771557162, 0.03789784325294764, -0.018638412048266516, -0.036608629626647966, -0.04484261382686121, 0.08040767842772774, 0.006062774920887343, -0.03305888790700228, 0.12505796072752165, -0.003622602116149836, -0.012261366076553447, 0.018344019179327858, -0.03838931709134813, -0.03404349129473316, -0.11581640688480936, -0.034787616465087205, -0.02607397269519665, -0.03946153651793792, -0.03230784660852445, 0.008690028700527281, 0.02816956979203918, 0.05207157670761482, -0.007791206786295221, -0.042479704553480116, -0.01634389089155993, -0.03406709116096365, -0.04560799194041027, -0.03890663207097196, -0.04972446110860138, -0.019058782601789868, 0.07255614416762099, -0.03336804220518613, 0.08410713511808865, -0.028149214306939598, 0.054522582815651775, -0.09538566591441099, 0.027849545565694963, 0.001158528376002859, -0.10057078489849768, 0.011790627289175399, 0.07755802435399593, -0.01580578792612342, 0.06913168276071434, -0.10769702485851299, -0.007927810034444049, 0.06426946409576607, 0.04576549824695948, 0.0018920159813855344, -0.0488626420712988, 0.04640498574862544, 0.026324688602134733, -0.024360020395803476, 0.05992838596588456, -0.026424715163844457, 0.08277339245988571, 0.028207424871672094, -0.0031449290472837063, 0.04418669610944484, -0.05092392212895605, -0.008350637012213412, 0.08850825477139863, 0.012082883838658937, -0.0482152134449995, -0.019861079041214983, 0.007567275508107454, 0.025909969921777968, -0.0980031236936724, 0.03206455839853829, -0.008526068879114012, -0.06094835753250754, -0.0036316849298731126, 0.03994342950274394, 0.012147828500039778, 0.041715159698881496, -0.05316334973404011, -0.029660973187604914, -0.02459523145807874, 0.04577873934014053, 0.049889682031251215, -0.00840017818331058], [0.0576533375599144, -0.006767547587040466, -0.02802011525325232, -0.04277885971983983, -0.0426560074997894, 0.009904781553203009, -0.011038342983213548, 0.03162056105093159, -0.04296235035954356, 0.012404436312535698, 0.0636064892741032, 0.015701217849893107, 0.010707700840169514, 0.07673826875706942, 0.024694514110868364, 0.02551237932121211, -0.030945769546242452, -0.02009158396496007, -0.010726983006077998, 0.056127352350459445, -0.04366497025799559, 0.08375911802731305, 0.02044882093624475, 0.006138807338777917, -0.02029236698690898, 0.020877061643423313, 0.05398423070830909, -0.05075662445510979, 0.04214960164120966, 0.07209572032634946, 0.11241479526538435, 0.04414806943926208, 0.011777847799510422, -0.08082878444102029, -0.06225377854865803, -0.04994622050577771, -0.06630035615198854, -0.001454613884002466, 0.03432247120547285, -0.08795815787958938, 0.08263670531437663, 0.007205438683943172, -0.014318928788851892, -0.04379448307590235, 0.012033938252536042, 0.07498820627996565, -0.023926582827034113, -0.01593243997418914, 0.028483591741191503, 0.009632040119329898, 0.06927000051566218, -0.05903182723955347, -0.05778535796499112, -0.01701514078222923, -0.02646499370545984, -0.03208418575489778, 0.03552523979844622, -0.059472474010900694, 0.0023263466331579605, 0.0010178134654733563, 0.010045243533065818, 0.03251161341832207, 0.018893764245039357, -0.017728671256278777, 0.013098461982256018, -0.03572459074602578, 0.03844818573545534, -0.012091846107193358, 0.10520453804544877, -0.08205801140905593, 0.08386334145271798, 0.025623230259932153, 0.09752759637899093, 0.06066099695550061, -0.005712662912000813, -0.005648478495444259, 0.047794297565803945, 0.02143394374840579, -0.04052190918731345, -0.027765427450902918, 0.03876251691316037, 0.07423082158190175, -0.00762109213400917, -0.033404031226212105, 0.04659957728064046, 0.014301403789642817, 0.0691347583041514, -0.03046871421774975, -0.022706276901606908, -0.018720202992812254, -0.08445639323935289, 0.01937990386817293, -0.05138322101643693, 0.003941549603101855, -0.02633849571458436, -0.07463269941199438, -0.01243818359603162, 0.01826118693205031, -0.014995911669074808, -0.014783549037267044, 0.02170897697338902, -0.013136787145128052, 0.05660980951018629, 0.005193799510108565, 0.0356817818294593, -0.046006954038221984, 0.046354880161073156, 0.015886636544928553, 0.05355943508877114, -0.13308739294276242, 0.038528666885898, 0.06334315417141075, 0.03720494589254957, 0.07012435324677048, -0.11513354834760103, 0.09092313414738083, 0.08308427162026576, 0.13476497225831935, 0.002078849643505847, 0.09875630728279841, 0.01584526918284657, -0.033944953142296, 0.027792704049582083, 0.03605369103899885, -0.05418909092033665, -0.06244775983113717, -0.05019531101520231, -0.0708399957207691], [0.04863874076283285, -0.044359943640536595, 0.028577044920489278, 0.06491459376595735, 0.03967444714470776, 0.006736021498453228, -0.0854117069050164, -0.03574931777397611, 0.05259894238699275, 0.0985862967505378, -0.05758066276315096, -0.005128034686668109, -0.07915242656725573, -0.026143666027476094, -0.017168337858342837, 0.0802287267713031, 0.09215786374337676, -0.054416698785285746, 0.09485812931854315, 0.043250526331049755, 0.009612630319826473, -0.04259996639961686, -0.054809382140788884, -0.023233081235935878, -0.027887422118222732, -0.008058056755960287, -0.01800940446926265, 0.04686770751086454, 0.07767197360996647, -0.029904646339095804, -0.06566185663632132, -0.04671731676142065, -0.011819658154156398, -0.040316536084172995, -0.01753293374008772, -0.025843675700684444, -0.057118274697043746, -0.026122527082146744, -0.02587259129333541, -0.031344028878241545, 0.02207133508098736, 0.0039890464844013615, 0.06644489407652551, 0.0013282156632231543, -0.05267026650957375, 0.036446228143783135, 0.005016811257593542, 0.0013107868910343435, 0.051226848656433954, -0.0347925575579374, -0.059990817901178856, -0.00832547153851418, -0.00015223214319402814, 0.006104231815121222, 0.036600992987367076, -0.05279403745357587, -0.04535620209552459, -0.11342341761742168, 0.019832531832606706, 0.07241336802279405, 0.04279556767041245, 0.03619419652569975, 0.05157437125810656, -0.0039839540545690225, -0.05675365449167579, -0.04028211317832718, -0.019298300536712977, -0.03379238906672883, 0.033919992944092814, -0.06196166491745319, 0.004877323908631063, -0.023805932623407057, 0.022781215646005847, 0.02260405870354009, 0.0032773101747209923, -0.11933635627768918, -0.021998806686269235, -0.03273163708582755, -0.008815820932080474, 0.05783018414252753, 0.04677050720411104, 0.026066214958440664, 0.0035276527352101615, 0.05810083016314073, -0.1096191091303456, 0.003285959773062014, 0.09222111673591603, -0.07198456467291638, -0.03834756383280245, -0.010790229598814198, -0.01827164499697555, -0.06089662612597116, -0.05736583756451397, -0.03390380071625248, -0.12398416866642142, -0.08365215429998486, 0.02378489192489745, 0.0034415609870676054, -0.0360615435323776, 0.016541709096471426, 0.033669691059052195, 0.08551201613878083, -0.03205706485940994, 0.0013319020600489474, 0.0886574997275107, -0.02957930633892784, -0.015026099122077662, -0.10175515897748763, -0.012534928380421265, 0.0738310698297913, 0.06229022410281685, -0.04949587343152482, 0.009067927672016808, 0.0006406405139660246, -0.004370007887730548, 0.08628807455357254, 0.08762489814416397, 0.017736474119633368, -0.07818084152248159, -0.015281296027385444, -0.04737691455460902, -0.03599872052194736, -0.08998157312460048, -0.07492594834877236, -0.002386231924698903, 0.051216163834232185, -0.0027555514974949066, 0.021215257647208923], [0.0652547871481866, 0.008073768969199039, -0.07133205453905522, 0.0045446200268136235, -0.02333310703647923, -0.07255105676753187, -0.007860641959648015, 0.040942414940200775, -0.08291851408573384, -0.006510294565711334, -0.021211448459476204, -0.044732085957816685, 0.04417763117924278, 0.013687372882785036, -0.02518436040552107, 0.029181712725804443, -0.04201461183615178, -0.031406837051003646, -0.008780174892533434, 0.07980159326724115, -0.010282877078324176, -0.0564723962890668, -0.02598354521894659, -0.00919942021994635, -0.04840406597696085, -0.012959344339447208, 0.01727273465304453, -0.03106311904880891, -0.08967713263385158, -0.08040617164622225, -0.11248431849260014, -0.04745786712186574, -0.02509960636792253, 0.0025719259603954577, 0.010298846041448376, -0.04245585734186636, 0.01088083868136667, -0.014073609992326987, -0.0013605571208731375, -0.08712625392553455, -0.02768830177680939, -0.012824090182363877, -0.018323133263776895, 0.03378306280265542, 0.0548259824884622, 0.10447378489151082, 0.014440686421330678, 0.09767518514573093, -0.04552289716444686, 0.06923501925246929, -0.07499670916911297, -0.062207336562839104, 0.004826494560109965, 0.03378166285147706, 0.12884533798314135, 0.03577677139707875, 0.05530394485383812, -0.0042366019308226035, 0.015193495295306812, 0.08293268259646386, -0.021392121612224344, 0.03737521005801881, -0.02640904987928409, 0.02410734391257719, 0.013110110916412211, 0.0699996910001269, -0.030839859610461665, -0.025618758056010243, -0.0283195227387285, -0.015801066636451675, 0.01683349503395062, 0.005862615927992288, 0.04793059330097048, -0.04323606982898175, -0.04751624033305595, -0.05659073246452732, 0.012079455001377817, 0.009929469250046799, -0.0688952279523841, 0.015464014877867215, -0.04221134323049798, 0.06006951051379958, 0.026964406807720054, 0.03834535459970871, -0.01877009352489136, -0.06818078744707286, -0.035546533596891416, 0.07153606641125884, 0.012918289998250135, -0.0030800989582453592, -0.06836410512308323, 0.05846652467719932, -0.03177148173876686, 0.035587273312990705, -0.015863944767093106, -0.03722053810880327, -0.05577379275937486, -0.02985371099268172, -0.022956413153297463, 0.008954167276781479, -0.05273077211682161, -0.00299295990981022, 0.1280328776452978, -0.051754339772136164, -0.009189876797084079, 0.008618555628267553, 0.05900742282390042, 0.0603881411467335, 0.0776151300201353, 0.03239831694694636, -0.06670092312534484, 0.010758078781436855, 0.1166190201818495, -0.016375081141284546, -0.026687720493789768, 0.10150699363915752, -0.05979556307135083, -0.008572707732217216, 0.03818547209683627, -0.04196727339093666, 0.03609427331113697, 0.09157590858814184, -0.005503189604262801, -0.11554259316472794, -0.025476088571080812, 0.042779068532626335, 0.036207533114252025, 0.04226686937536499], [0.02733075731140444, 0.014538183045687311, -0.0159192559730881, 0.06721388115543062, -0.012378254914718837, 0.010933822809437119, 0.0884883160964543, -0.09056515829884687, 0.019953920884916914, 0.07576000719704712, 0.10853822094903116, -0.027627187110486128, 0.02601768359263305, 0.03243377197263354, -0.05708988069932048, -0.020024898619529913, 0.0072145942828884795, 0.0887019851822639, 0.0017538120078796572, 0.048391175794980104, -0.06867080511185458, 0.022469753862283413, -0.0002482885882177833, 0.01183254176812222, 0.0218801949937583, 0.02511285304734965, 0.02711747727846216, 0.0005044745754684217, -0.030330817162287412, -0.0016709913583561385, -0.05981110255931474, -0.010067923087301919, 0.05564327945120172, -0.0443461828391075, 0.05505550024429678, -0.04895434027214457, -0.03545392777281788, -0.02332354881554489, 0.06457875636227045, 0.04858401004213138, 0.04088359671932956, -0.05769922316127635, -0.011009433941883454, 0.005216338212621452, -0.002329440158865078, -0.027671144448141626, -0.0490816043492542, -0.01465572162388344, -0.086884817169839, 0.029901659629466927, 0.07146812195051387, -0.01015623798945825, 0.02840581698345507, -0.044066839337986954, 0.03960954057123205, -0.052621263701976145, -0.12740954231671314, 0.11479014660242488, -0.05884961237145272, -0.0009589997207578117, -0.04731068932535231, 0.027638809550018843, -0.061322991291070224, 0.08713376048912794, 0.0481602070922634, -0.017807235312868038, -0.06701064682464575, -0.10668987954926519, -0.041572852518198866, 0.060853857908171015, -0.09140145200173996, -0.05125934580808468, 0.010751725697937623, 0.033301143253221616, 0.028894416006615315, 0.06040154478581197, 0.09731700427529176, 0.02462830024997685, 0.013946186233771312, 0.08865517983882854, -0.006091242161941731, 0.0033044158633134106, 0.04196044341360974, 0.0055231628034312415, 0.004280661402813567, 0.1173876572092328, -0.02688473851416161, 0.04897659950975, 0.03895998003306303, -0.03898990358924722, -0.012143683781987458, 0.007431844812314934, 0.031336509419184415, -0.033421046882838056, -0.07377181255344505, -0.03312975558728986, -0.017038693424044137, 0.013428022215139232, -0.0059256430043691695, 0.04068187132454137, 0.01599018452680989, -0.04666531503256251, -0.02226236141470521, 0.03734751294135025, -0.033848196496127525, -0.029081998240065483, 0.06998713069123427, 0.007565360098529391, 0.03959033565571888, -0.03708309698951694, 0.03939562541694393, -0.0921473352432768, 0.051038707440943944, 0.04536641833111122, -0.0754833130032858, 0.03882147785448562, 0.024702728281287552, 0.005735139599172289, -0.02122143896513104, 0.0606421907699494, -0.10053036906511963, 0.0750439393725217, -0.08352393702035377, -0.0009728415801841463, -0.05451555801759293, 0.03685570325618563, -0.05791874873843833, -0.0833102030091909], [0.009448555811503627, 0.028392224718003976, -0.032348435973378054, -0.0312835353780592, -0.02191597868784491, 0.04259656207791058, -0.02243494210750699, 0.053528766284138864, -0.009454373884809086, 0.038946961619216, 0.010452771636436169, 0.10650156361390019, -0.03481199958466774, -0.019778870928406092, -0.08081065098175284, 0.031673651801945854, 0.049479548213115954, -0.0014764145930462982, -0.1590528294961164, -0.04675609405489196, -0.052639435194294856, 0.00864574245621935, -0.019641792349371266, 0.03913327043595694, -0.014921557723780768, -0.06101304671905773, 0.014516514819867954, -0.046685810075744766, 0.04282859711763526, -0.15211034894202258, -0.07646548245070067, -0.04981934783708415, 0.016505202380692984, 0.00978873215491134, 0.055020323270418926, -0.001496510966749841, 0.055892067742892015, 0.0812296039603545, -0.03507838207880859, -0.0011766554340971102, 0.0873791685255134, 0.09224782359995293, -0.000787905799816084, -0.0758426901573025, 0.056035688802048546, 0.05643320455940839, -0.05651814304743654, -0.03244377086304029, 0.021394999965770774, -0.09594513050451402, 0.0008350042916954774, 0.03177537532865175, -0.037499326970255556, 0.003314752086947746, -0.0709702763893886, -0.06985465406208959, 0.01458096641120717, 0.06607203614046032, -0.01255763052547554, -0.06145052528225687, -0.03570226305522055, -0.02844016434649733, 0.06423648958914042, -0.03430398504523282, 0.06105112438333511, -0.004940312022485784, -0.0007729977504256027, 0.032432572398187295, 0.03845343597833228, 0.018906038788378612, -0.060682735952573674, 0.030430397973867106, -0.057308633645361096, 0.05556125590200308, 0.14290097121624695, -0.01433273336796803, 0.006690760473698708, -0.09083813243909303, 0.06311788032483838, -0.019322615242501538, -0.029875560734978223, 0.023046980936987944, -0.028754896095109974, -0.05140239696350217, 0.07044803200261769, -0.0018794554742264456, 0.05447491414651542, -0.05854117037112193, -0.03833460603003552, 0.12315969353400022, 0.05714946925446607, -0.022976269484440603, 0.06894017099265896, 0.00397472328233985, -0.0946864470255298, -0.002206044750012163, -0.09931791710237378, -0.02816219355102573, 0.009047083462260703, 0.003114326768635246, 0.01385966641201853, 0.02908611393000266, -0.03230877938032787, 0.04974001244669277, -0.0003386425330622, -0.010052733257069475, -0.05522847502394472, -0.002633222124869548, 0.13463365737594765, -0.028304995717430132, 0.05392768868869992, -0.05698322517011864, -0.03661755595346919, -0.04004995922189806, -0.012372400136608227, 0.02758378613062904, -0.009793643852422072, -0.01923695854555203, -0.022596792034598894, 0.09712390274356453, 0.005607337252136602, 0.01599361439087868, -0.015958156949335625, 0.06086300529400567, -0.0400377268823533, -0.0009693604278377182, -0.06344813282258804, -0.05125953652074132], [0.010236250652605241, -0.0024146785182993812, 0.027890874463014463, 0.045950857773644785, 0.019079299358156637, 0.0015004442135698054, -0.020379817845087068, 0.07708258648050002, -0.023192231745696474, -0.027792218021964483, 0.0343944267732898, -0.030602848965294333, 0.09570572755865017, -0.022232373260519658, -0.04830348174668436, 0.04804786482541875, 0.04754058028022532, -0.07515733827434068, -0.009501387698493353, -0.007842327218080236, 0.0073652424201632455, 0.09310023188114476, -0.05719226224624395, 0.0069418629231085705, 0.05473163395270675, -0.03223134803152063, 0.05368032620064235, 0.07118144690527077, 0.03978465696822208, -0.00866342502818104, 0.05329647345816418, -0.04302829518802536, 0.04297634813262675, -0.11090363632407492, -0.03178584054148157, -0.09012192868434875, -0.05373056233635193, 0.036180433504735036, 0.06566312288037841, -0.03759557904322329, -0.0010211929012181873, 0.10263710683762867, 0.01912610857111287, -0.05206545803060113, -0.08875209568740021, 0.028753769763227393, 0.059263997996900984, 0.047587210485457464, -0.07393631727137231, -0.01781852728502532, 0.0345123228439318, 0.04250653045459093, -0.044729579771380215, -0.078444597009916, 0.09645973710683309, -0.08936713071668674, 0.029541775391669196, 0.04850148189078882, -0.04589940931537437, -0.003198663559201119, 0.019694861041603763, -0.020310460729057532, 0.04042238875923788, -0.03416868318634534, 0.0033040616112766305, 0.05095134811809205, -0.02721563506046952, -0.007298290472724814, -0.0026098813437713335, 0.026868467904859215, 0.008511435911623327, -0.04854755346380248, 0.14283451654703347, 0.06972192426099134, -0.0064436863291959575, 0.008517267948931966, 0.024991845518903065, -0.04911003764951612, -0.016468324844711484, -0.03666410246645593, 0.07291368905207518, -0.00395412793940648, 0.023674225580676094, 0.007800449315360362, -0.06098496888687929, -0.0027295093571738068, 0.024364917762997176, -0.020627800086445196, 0.013167067244731314, -0.007093582129948266, 0.01876612339245105, 0.015039922206954309, -0.026362868915696443, -0.030148148887825132, 0.01797897223267119, -0.023098409241835774, -0.028960136255915283, 0.030285944519662943, -0.014165848376112872, -0.015134551474527535, 0.06349823789471865, -0.03740661674265715, -0.031574177937751094, -0.06895172333316528, -0.046399215171308815, -0.018234451618346085, -0.029983385481238307, -0.028757748889584427, -0.0007003891100325073, 0.059469534086141515, -0.05544508169206136, -0.042223929994821885, 0.030229910886943618, 0.053506321308857345, 0.04630287810006087, -0.03737152780567903, 0.060790960993922054, 0.08710458153106038, -0.10510169132395943, -0.043563773873219594, 0.13086926930467782, -0.04083825558425549, -0.025377701698989858, 0.01578378546664226, 0.023234800555254117, -0.045566664257283306, -0.024979205550741495, 0.037598510806832616], [0.0441144500589127, -0.06014230402704629, -0.04291143714580979, -0.03982313412695575, 0.04644968535737339, -0.07499899924097421, 0.017902712815273322, -0.01125413406217656, -0.045096705510993, -0.08234646694182542, -0.10327185018633854, -0.014116075249093668, -0.014821604206066517, 0.04877467551945665, -0.013075010039530797, -0.03187546089297366, 0.03190130753971982, -0.02414015720187538, 0.08831504760552879, -0.008102524284293328, 0.00914637715986315, -0.013212621689023242, -0.05291616942658432, 0.03900531869819086, 0.04914223643426205, 0.00802904273971789, 0.018913665765052063, 0.06554275149976749, 0.06761401482746945, -0.026303707484139783, 0.03454038086200942, -0.04888571183320809, -0.035506046532098046, 0.0015896205858279009, 0.008352747562238624, 0.0025306227864993662, 0.04998639887246115, -0.008455935029098577, 0.01380517354468668, -0.03332089453095662, -0.0010139642733297107, 0.05023879031396264, -0.01171142371398186, -0.010722201960703278, 0.01652005068577237, -0.06350323658815288, 0.022895356290596795, -0.029818683241242584, -0.02332502057107009, -0.0077794583708321475, 0.016558711662711573, -0.11113443951548772, -0.019208630891800974, -0.005549213326762086, -0.005610060460301323, 0.030262516366647507, -0.009249616772514546, -0.05262322800702162, -0.03016376736154126, 0.08969032062317907, 0.06404688419961073, -0.012505118912776073, 0.042260851406582235, -0.004264895705832243, 0.06304406776990898, -0.03587710683964206, 0.012474979119637006, -0.009306804528789979, 0.07666644392911366, 0.051776947694689324, -0.03381585393792102, 0.021150283093619618, 0.0689086582868634, -0.022114809928131078, 0.0044008197990236505, -0.00608554940002503, 0.061797902622247186, -0.05213463825975697, -0.02866462576771641, 0.05272368513835889, 0.062293208927858605, 0.0802374139019703, -0.016406748635997587, 0.1359005368537459, -0.07269339915527477, 0.009901518366579279, 0.0009206891218668426, -0.027182889280685255, 0.011497471941088688, 0.059762977020441525, -0.03086592710401496, 0.016250322353868314, 0.039723864815953226, -0.03051669074054205, 0.03963235297657768, 0.05531313810941835, 0.03360628765732177, -0.005100858537242315, 0.1626625036912056, -0.022430018717373486, -0.012037581290497658, -0.03657729068239733, 0.00130580277304056, -0.03874666766362123, -0.07895973147722354, 0.01783886959062433, 0.053572705148603475, 0.027286802134617944, 0.05038453097649561, 0.07556321415652889, 0.0709429860220956, 0.028023248327142813, -0.015189000421877989, -0.0021788938368854766, -0.024771462021873702, 0.013611185396683904, -0.035163552498608246, -0.029522045906110163, -0.05970716163433335, -0.027544167784000075, 0.030317667404604214, 0.1251953297366427, 0.05167807718719382, 0.028511124435172026, -0.02216300941824695, -0.054960724547659136, 0.03678628439594454, -0.04049164887640944], [-0.01660018723793718, -0.02754732005393441, -0.024982345061042303, 0.004538729788019995, -0.005738345460217851, -0.030035208234993813, 0.06001714036993004, -0.006661309140421615, -0.01745494227350823, -0.027548308554624246, 0.028170524343678397, -0.02025324645454981, 0.010979830730686403, 0.0016218301566945353, 0.020581269646841514, -0.02361445645863086, -0.06233295558661931, 0.0861820372788931, -0.0005282428216858829, 0.006936811347969969, -0.02942237590481488, -0.04416455571303345, -0.027741099398307222, 0.040221070006435336, 0.09988574599395972, 0.05084189996380033, 0.004579245596580507, -0.08551257136220136, 0.020129231243730554, -0.024997643051123276, 0.05915786543037676, 0.07080114136895896, 0.029744607840777957, 0.07896927112983759, 0.0172697646865233, 0.08486643022256354, -0.02844506538226376, -0.049075096071400315, 0.11891498094854712, 0.027502806361227615, -0.08324885099149588, -0.10351779540349208, 0.05231017492765302, -0.052513878239787835, 0.07045622871661175, 0.0903762027085813, 0.011383927806050076, -0.03865145626181265, -0.05377425878597213, 0.07011850523236918, -0.029090428571123622, 0.004311259736183428, 0.02571626916510711, 0.041318386378115475, 0.0031418120247461616, -0.00417572849039381, -0.006994285717631686, -0.011400620638000325, 0.020869581914391925, 0.09754680725702101, -0.038600489018366, 0.015316993284338352, 0.009754936639525197, 0.0770333561812068, 0.01566426964583489, -0.05422655380465708, 0.040579672547178244, -0.05954282693260517, -0.08927557788901715, 0.03257374712533908, -0.029216069677020035, -0.005842721830071874, 0.014662653800320788, 0.05403892040560455, -0.01664376575491256, -0.06773481976977819, -0.04755276176820063, 0.04845141990410887, 0.07696598666203854, -0.036866771611350574, -0.028863614853485618, -0.016396672637544577, 0.02821069023003958, -0.019622973376086848, 0.024314057371507155, 0.06821740128651023, -0.09084885230469071, 0.0671530363094367, 0.0625349969435477, -0.013040947046590175, 0.015522828456540166, -0.05158716453698986, -0.05028419147611367, -0.10072394875257969, 0.03465230586083484, -0.03928718363585774, 0.027794478332442883, -0.02618839402323224, 0.0269114461267343, 0.029715366203454465, -0.00539682684817093, 0.052473324685089244, 0.014837159580239814, 0.036079558785189585, -0.0006346346565394598, -0.003970882935087129, -0.016800986285188314, 0.04535461703034995, -0.016238980519206546, 0.08140327378616344, 0.043884983583947615, 0.04286679031593618, 0.11192122352976404, -0.05413791808529971, 0.021268781702873826, 0.03423828426307808, 0.002789652087852734, 0.06237613651985804, 0.08243843985316338, 0.09818168818448582, -0.00671102318451398, 0.0011089968101560704, 0.004818769284456048, 0.013175328398965288, 0.04277019589788788, -0.03153266647456349, -0.03735615213495355, 0.1025773088888962], [-0.048217587298833235, 0.03349333652271963, -0.08712692921959331, 0.03960563060046688, 0.02823262749576996, 0.0968175116407866, 0.07345475641585204, 0.02446368573641771, 0.06565394190006749, -0.07132119946563126, -0.12189235288399888, -0.014370278469910723, -0.04513576645779256, 0.0575630855609462, 0.05694414798110697, -0.017414357860693928, 0.028382003405435553, 0.024347109918074667, -0.03814269999068736, 0.034905805388314504, 0.03243443066715987, -0.04881318367717661, 0.015676559362244522, -0.05740376416612736, 0.0819488016331085, -0.02563565619197331, 0.08103151724622738, -0.053458308543554094, -0.07292316136633313, 0.010969204909891722, 0.028729608215533622, -0.056546854299272184, 0.016319472227830978, -0.028140278677632895, -0.012496946169383462, 0.06481241240953937, 0.01805706182468931, 0.05493914566418292, 0.024840703006126022, -0.020126426589632915, -0.0060522062243345, -0.06856633833930416, -0.006823456781943908, -0.010311989977293164, 0.039987547111539276, 0.0918229685844398, 0.0022741616354715207, 0.07399505518689743, -0.06252530239267395, -0.06252486980828989, 0.06392599792024896, 0.07146633492828826, 0.07560112483589568, 0.08751996930654947, 0.1021490688337986, 0.14266286107870305, -0.05787687619422499, -0.010551491846078323, 0.042617151707432056, -0.08067613305145463, -0.018841112659829812, -0.026708505440130374, -0.03213204266882617, -0.028815093573847466, -0.01275581091082612, -0.01661721886180996, 0.07449667743652588, 0.056034854446274464, -0.012903779200387051, 0.03302468532422912, 0.06999796393823997, 0.025381959990541086, 0.05565051891199959, -0.032696247683417994, 0.016697640020415752, 0.12829957372797723, 0.015883285968041453, -0.01151119527117402, -0.014204895811083647, 0.047614772286182175, -0.051323754637215425, 0.06559036868974119, 0.014354067823527033, -0.07599435009838652, 0.009315235123360287, -0.039355912608618, 0.004869544144806566, 0.04310159315428597, -0.043795530144277436, -0.04062978673567071, -0.040941176846112134, 0.05444699270098552, -0.0724107812375878, -0.04309999562607643, 0.020979913584164105, 0.05864322438210167, 0.01922837991442701, 0.005102267319035952, 0.04467655833203379, 0.031986316105523646, 0.055942986247442254, -0.1389480356706437, 0.018123499004983338, 0.06145645178648338, 0.033967999872975475, -0.026258522520162888, -0.08310124961734522, -0.007413190962548847, -0.03845237330006562, 0.03300899629669853, -0.015855628456753014, -0.01915755108555758, -0.04291488268857639, 0.000510811792531882, -0.012464425784237794, -0.10037427116205709, 0.048245153530331736, -0.04953835233139466, -0.02886868118687515, 0.023452071174660482, -0.0019375518893323008, -0.012267579626011237, 0.023381254301021483, 0.05225058959513192, 0.02784721664499543, 0.04497643839523238, 0.07305324936012826, 0.010155775403360727], [0.026420596682685402, -0.0003091074744197396, 0.006858736518317723, -0.0070371526384398544, 0.035005722126884124, 0.018444538293229767, 0.1024372761564301, -0.08086320422134545, 0.05557814288572591, -0.031610482004061184, 0.02974069477266166, 0.07869714381455865, 0.04164869696814895, -0.06251472741976621, -0.01810959625406323, -0.08731201095732612, 0.014208918685268124, 0.0274236925309519, 0.038271866203193464, -0.029284389510304105, 0.052240092955158336, -0.01758287451081093, -0.00973504317985956, -0.028998243467544076, -0.0096884801480073, -0.08002399014344523, 0.008389675643248426, 0.010520421942625818, 0.01710201231527578, 0.050949203074630744, 0.004284069487889016, -0.006789043255066891, -0.12296730457659777, 0.008849333931761827, 0.015361601313133627, -0.0049292037957506555, -0.06362338511827542, -0.025748678532090886, 0.08120711487218811, -0.058397015766698764, -0.045472764504912826, -0.03499233267699739, 0.043495105690375555, 0.02606488665496057, -0.022936549250799767, 0.041080254544688444, 0.0717414139675687, -0.08927576305905405, -0.03420531230969008, 0.06614274731072338, -0.02340187818237394, -0.10965152368793715, -0.035632098516405794, -0.06319984665544695, -0.0869540895327993, 0.006804282589784014, 0.01231454253230835, -0.17825385851924824, 0.053911605841761696, 0.03538360524030083, 0.03456394926037508, -0.019435076476775358, -0.06937550118107928, 0.050230739983272266, -0.020158844443939762, 0.053687825936507956, 0.02004747295445789, -0.05518995220541684, -0.001370075956790121, -0.038256346606882645, -0.0032567584733376414, 0.0019138400185505053, 0.08992029302604568, 0.04253156708996929, -0.06680995195521612, -0.05833166279798499, 0.00920678681886087, 0.007888575550054636, 0.028014622778944863, 0.03206461858722988, -0.023149367927346905, 0.02278163162624165, 0.014779463790383278, 0.027869140016794674, 0.03544066826437624, -0.02550780093492539, -0.05365011710853923, -0.030777158487945253, -0.06992421167814315, -0.010399775516828373, 0.03822590987508348, -0.021296857328849766, 0.03963906480291766, -0.008519693978862286, -0.03219134009078212, -0.0386779431994916, 0.06270321815346365, -0.02089417593903768, 0.09721832957533473, -0.0026280699157600136, 0.029499544603430593, -0.016251519434175774, -0.0918294220955127, 0.01322223473759209, -0.00026185794377014157, -0.009418507384787826, -0.04843537427941912, -0.03925456765088247, -0.010890090851819911, 0.03528975207986142, -0.049079251875406696, -0.09840530140776667, 0.02894045183215678, 0.015385529458838247, 0.005854910711487462, -0.026361276013336002, 0.04809715670011145, -0.08749035964187188, -0.06606746761262643, -0.029218434600124393, 0.025169956316842382, -0.023508888359571458, 0.023122788366353533, 0.014796419361084988, -0.02796254648803699, -0.05994603973577457, -0.10007731187917306, -0.11518269703881896], [0.058827756278483405, 0.09777462177817521, -0.04399487337982085, 0.05628966511050365, 0.059199058692824075, 0.03128468176538108, 0.094272604885646, 0.08341564041625764, -3.821566036958623e-05, 0.04216942849026069, 0.008494733962454473, -0.02776623434058793, -0.05891315462597701, 0.04005782478712868, -0.006093655874432623, -0.012212268723182247, -0.010361230911037182, 0.04823691721975871, 0.02083191660322498, 0.11985876969100691, -0.031951182195807684, -0.006788259140351085, 0.08312145101143148, -0.046154243661344393, -0.03569614200280506, 0.013444205433419532, 0.06883823714221061, -0.07799330893164882, 0.011464561308527656, 0.01410028914964666, -0.015997167638860377, -0.029401897340639045, 0.02125452348277436, -0.06476131959704318, -0.037764460401812854, 0.03377052070967908, -0.006105520818389447, 0.11636443020609931, -0.05150104685110793, 0.020463978861136777, 0.0681156509205729, 0.018214422312359143, -0.02918968942259106, 0.07950322323153922, -0.011102760693746551, 0.06783229865878883, -0.018797087499204834, 0.058691437606579244, 0.06443569611980383, -0.011328732499615602, 0.019077640726225857, -0.04694968562610367, 0.038478789276209166, -0.09304204588857903, 0.012132090330350244, -0.00987924274252925, -0.041126358670950956, 0.05035676467136613, 0.002747579347114594, 0.008590356737799754, 0.03439674307299402, 0.04858998962940734, -0.059842937994200596, -0.006442718695951554, 0.03066794305342159, -0.018889316256248404, -0.04072547018077654, -0.08905832743125137, 0.04268918168740828, 0.026547032552327415, -0.00782508699479947, 0.10781337320348977, 0.05639345531027238, 0.03889208401780974, -0.019675236788692752, 0.020518761119456982, 0.013189903601679502, 0.007030061434401608, -0.002009225357830501, -0.0318793340530054, -0.026787728656195612, 0.04462354466654681, 0.033679833588215725, 0.10314820784576809, 0.04085099796816687, 0.08714781615537669, 0.047774653086758455, 0.07588562601526173, -0.027072636146122132, -0.0178425954039987, 0.01380271760586823, 0.07097598057690345, 0.0180378458723293, 0.026447627416602965, 0.01955143250838196, -0.0004841161462952785, -0.03997485379639558, 0.08330846489637836, -0.0958384947476288, 0.026366486685860117, 0.05525473183076525, -0.017355126660753444, 0.010769362058674925, 0.058381570302734775, 0.011639830733153781, 0.047390859897684164, 0.03732608229935072, 0.05304625291263777, 0.04292887634974005, -0.061702336656540575, -0.00545641488254372, 0.011618840772133774, -0.044757763336565476, 0.04731128787897846, 0.01710340218668795, -0.049999458457953706, 0.0031151257963939957, 0.03761073603560141, -0.057110122115978434, -0.05275266040783711, -0.003990413502411189, -0.01870008100484064, 0.005915552983054177, -0.06300771374231974, -0.10480690745914864, 0.09008988438070609, -0.01323448963335462, -0.07890548493276163], [0.021494740146545434, 0.054192578246622464, 0.013095479095829315, -0.010087740360290906, 0.07377281855053351, -0.038599133445372524, -0.0243447729535948, -0.018503304352296183, -0.06777942680549716, -0.0015109210380509286, 0.05362628933193276, -0.055951028379833144, 0.03240955542192334, -0.10575282261426555, 0.08339201834385232, 0.017927871604281546, -0.08760567346289894, -0.11143545533057302, -0.13420477658658153, 0.036269117973755524, 0.10313606729022329, -0.0051961640000248634, -0.012474631096109492, 0.03249200334541394, -0.0021853456898131667, 0.026614282168366813, 0.055724007223585156, -0.01560809903036203, -0.0013499077276635082, -0.06524972153313503, 0.0039650580550482165, 0.035268859326552826, 0.142731191637296, -0.004969163904199681, -0.0024500289346597974, -0.0003332386365720169, -0.03904878747803065, 0.07021179231888854, 0.03740691436809975, 0.02685115063460955, 0.02892383857364203, -0.006929175948475415, 0.029756673474992303, -0.02204804848917465, 0.07091522835138071, -0.0620870899958948, -0.035426503666917505, 0.06385718264193918, -0.04714030847935307, -0.07822506502424927, 0.002226604065610029, -0.06742198649226208, 0.011185351121256126, 0.05709542170843612, 0.021947835988539017, 0.03017203146358648, 0.09993541747872586, 0.023815768123886586, -0.026702684742738503, -0.05473044275592713, 0.00940737574951839, 0.10979316636648033, -0.02705109003596164, 0.01469650815547449, -0.02492171704423225, 0.02355651783750378, 0.041231532668149724, 0.0851931254381763, -0.005054019700815131, -0.0356493674582131, 0.02551981867354082, -0.00025727818157320883, 0.01264177824453555, -0.030358130136816014, -0.051583239082296, -0.02811979891342064, 0.005964836088598707, -0.012986478443112142, -0.0078096107727029206, -0.014989635170052031, -0.06755755334802258, 0.019559107498323493, -0.012602682590699436, -0.0365252182765081, 0.042168132599819476, 0.07281821317980443, 0.056374338129929064, 0.03559448875536548, -0.068689496061017, -0.023267055683814947, 0.0025535979284523466, 0.10892948353891435, 0.03902624724526229, -0.043242496524261424, -0.063408268744525, 0.005469425401262112, 0.014263761604635269, -0.01353832430871772, -0.06981786073183394, -0.016643481126144315, 0.023146068234800338, 0.0341656203726475, -0.09126424735630433, 0.034256205684719584, 0.05110678844042573, -0.028822500025074874, 0.011484518439811934, 0.05105158200967015, 0.027984066464399483, 0.05773245225594077, -0.06097137149560781, 0.051258940697002146, -0.02084307451486479, -0.057377578143868825, 0.0010598992693321718, 0.030306004577407522, -0.022762310592875694, 0.029849169879709557, -0.03964836624423878, -0.044419833539920774, 0.0027986392734997345, -0.011151991136179921, 0.024176619494165563, -0.0021183503059017733, 0.01001551227107385, -0.004955981748342402, 0.10675779214552962, 0.0030814139353171096], [-0.004833013581321132, 0.02631471197447922, -0.014420415744662353, 0.08568381476089566, -0.06468896182961603, -0.00847751074328766, 0.04689718897076499, -0.008517143981204659, -0.000506474025572184, 0.013635644434941792, -0.06449469155373962, -0.01031857659459301, -0.0010362798278647455, 0.04347583762402845, 0.056975348070405, -0.048852031132707176, -0.04596472200747498, 0.11245754294751008, -0.008845391536697255, 0.008095633126254099, 0.05293925984090088, 0.020770250015082526, -0.13565193833070344, 0.01972860410978282, 0.02696175000283378, 0.005919570693307987, 0.042531810772040164, 0.03197905325926342, -0.06459427936463664, 0.02520714970289961, -0.05752747525665302, 0.0213693698922987, 0.05137409248792745, -0.010003724856396747, -0.0032671205827028674, 0.0006607765220469995, -0.06642812204753104, -0.10088590020425668, -0.04786814110743028, -0.040048941418712826, 0.089771083435759, -0.0667446402884354, -0.013209414704613221, -0.009181782353404484, 0.029945088125775746, 0.01736920216715172, -0.020185960269318178, 0.04736436558509723, -0.02750273059216316, 0.10940130363878042, -0.07043431801381903, 0.00048549142574341503, 0.05777019914814977, -0.05311748930835243, 0.05057602855982108, -0.00031105908127350125, 0.12425976598175147, -0.052440274049569836, 0.08441970681609416, 0.06120855071726868, 0.027488518115779438, -0.030728202111815837, 0.022512846150971773, -0.011649439729299289, -0.0065426063811594186, -0.03316495603952911, 0.03880749833013128, 0.12455898944395931, 0.06140788789052557, -0.02913787409671142, 0.02511443462169827, -0.02720806441494693, -0.1159995581952967, -0.0006691893237330263, -0.03418280275288364, 0.01188488102914249, 0.016751624628541583, -0.07828084859493495, 0.009120318846475758, -0.04065338497660324, 0.03961859203094724, 0.011634152818941772, 0.00877823725434827, -0.009155636641172098, 0.049568639527207387, 0.0027828170423586608, 0.007537587916463315, -0.0866037929351702, -9.571593849769827e-05, 0.010832131473559038, 0.034810040977127, 0.07275268127100427, -0.017213779194485867, -0.04896276958134671, -0.027074148733954098, -0.0036199400977328148, 0.0336076694851246, -0.05208264028524124, -0.033144725789423256, -0.08603511331921677, 0.032223203235372505, 0.05636463576589666, 0.03633997189926233, 0.025060226147987086, 0.0035799997135206726, -0.04422750413469248, -0.015273733461094906, -0.05284501125745556, 0.05696142767358873, 0.051025890757915554, -0.01860765969745638, -0.06009682287409031, 0.025399146730400238, 0.010521787719438661, 0.04819464903545221, 0.0312293019681866, -0.044686628888293056, -0.08680209075157332, 0.013597742347785846, 0.05845761075767041, 0.01112353111056142, -0.0385107117437048, -0.015240970759626807, -0.009093342527723104, -0.04550505217780707, -0.0995741873985891, -0.025794200105865306, 0.0554058901149798], [0.09186977413397232, 0.14697480404085575, 0.05289244502923587, -0.0022696426172408575, 0.03783634915835223, 0.03492432781510362, 0.06501713223189864, 0.021977090177872843, -0.06603895035415448, 0.039624481764585634, 0.04253506141971446, 0.0705136330559288, 0.00927605646649816, -0.02433783487291221, 0.01913449891877218, 0.019661690092626263, 0.03482665437241213, -0.018329999199388478, 0.06063044409990734, -0.03283217366790045, -0.0205645318440804, -0.005130816581678514, 0.042266916876046376, -0.017738740182285655, -0.036640050983175194, -0.023073990472112497, 0.012879790184218016, 0.022744117339688605, -0.04534539194840147, 0.011436822376756368, -0.07165021543425408, -0.10253733599134435, 0.013815298003527078, -0.06916533037690424, -0.002446925205523909, 0.012817931778660216, -0.034344612129636465, -0.014523082391859834, -0.08403991761023234, 0.020408273915230403, -0.002502580460325189, -0.0705769171340843, 0.02473645921679143, 0.012098414980836419, -0.05605153515859616, -0.0947056842129956, -0.031819278093875705, -0.04610387441979659, -0.04143052453824628, -0.014290684559550305, -0.00943359273192553, -0.030785106992827445, -0.023533572772213598, 0.026375224331900267, 0.04163454787416896, -0.06212172457156001, -0.07534756587342424, 0.03685915011160365, -0.020028235272357475, 0.0665053265452074, 0.024812762138769002, 0.0375902345694735, 0.04834121073621237, 0.0189080559716733, -0.011736184263232462, 0.12732925794898878, -0.12884102688157242, 0.03203768793643003, -0.010677269591889962, -0.0661931084524378, -0.06908568947923578, 0.0794163819724836, 0.026927148355764284, -0.03671783529282085, 0.018896417078445343, 0.046461742141928705, 0.06332157395712207, -0.05213810781422703, -0.08943292031081339, 0.10987112608387226, 0.12390277486042671, 0.05571809621538233, 0.015175258470854651, -0.024869763699505443, 0.0021980517746062554, -0.012996067130526753, 0.026707882176464276, 0.021698541042148356, -0.10567962736420315, -0.01699812093560974, -0.03187527668830149, -0.013493675333698168, -0.01855908747393095, -0.10176173898267285, -0.019796093724644033, 0.041250536972273724, -0.08692193321128804, 0.0630871678940644, 0.0632052841053856, 0.002226784158116324, 0.0064116672102725045, -0.04150905094526381, -0.039268258946301225, 0.0014803728499952304, -0.017787142749112427, -0.012925196582785655, 0.01787157855968727, 0.051895942575456204, -0.003155392430873925, 0.07189675730669032, -0.01953322516305886, 0.018840022492127573, 0.10164867378241205, 0.030302200439420293, -0.007190987394538964, 0.07768238333617675, -0.032509964066946354, 0.010695287629133864, 0.012328084847154327, 0.07201294549965624, -0.047402183714537936, 0.00046728555888430175, 0.05958303151857412, -0.08891263120390808, 0.02871891114960848, 0.08955908037166821, -0.043534912296308986, 0.005626897669060888], [-0.05083105802309369, -0.034809542128243894, -0.044543366766506, -0.010309778574644069, -0.015914422857954993, -0.02389851063825273, -0.07582341679007733, 0.06262682049152084, -0.09743269077923697, -0.05891863633077169, 0.00413355340096375, 0.03603473001234488, 0.011263975354456193, 0.009907053244310094, 0.0007424613786107796, 0.026061907182073428, 0.10930121562019998, -0.07447916366005647, 0.05805404636232163, 0.05074736777621318, -0.036033979890352466, 0.0017622531247705909, 0.004120986627608744, -0.051269038134642606, -0.05664842820948237, 0.033155377724025985, 0.03586383120351872, 0.0009736569691810794, -0.07573052905438692, 0.039549640696419634, -0.05739985738536874, 0.015323519779382245, 0.021472905678890365, 0.009658061721500834, 0.021544637717393206, -0.031619045673221706, -0.08610483146799923, 0.015552647589434107, -0.003186847684806363, -0.029325618283721027, -0.016644238751583138, -0.03008665450268366, -0.02750244310380855, -0.002512561708413851, -0.02739741859434511, -0.053373670532877435, 0.052081035200122514, -0.012973075991467046, 0.021578763504842682, 0.024685646500811762, 0.018888884486074585, 0.08711068327085114, -0.00613369439630527, 0.025088534059358045, 0.007970683525852276, -0.08436939765164181, -0.022347945237180995, 0.04009226910591076, -0.005554498753811347, -0.08354377089244464, -0.021731004101902533, 0.07226901881211309, 0.0606630124480015, 0.05186851402909279, -0.04055027745861307, -0.07650902714711838, -0.015718786399390002, 0.006428915666574487, 0.0756952928493372, -0.07998793497331365, 0.010162100389064345, 0.09121489785660411, 0.09546901007082345, 0.026787226071096626, -0.05698754668325161, -0.0581748394823556, -0.037034740617349106, -0.024960254230438877, -0.01416256231467018, 0.018263250210923693, -0.03641348865811003, 0.008181973859523732, 0.03219121296885286, -0.0866961605593462, -0.003357021262680233, -0.03464539623815094, 0.04501312940971094, 0.016302356697230586, -0.01633778224859099, 0.030506495204130554, 0.12468690358272443, -0.025549414050405332, -0.0019062473569219326, -0.06257173221205303, 0.0616130384140987, 0.01591721719109957, -0.04606155202790783, 0.09080390687339787, -0.09763521602662639, -0.0312754929024189, 0.03839404515590525, 0.05115849957724892, 0.0896469337427253, 0.010360326122160096, 0.013901654364980741, 0.03494729954998198, 0.014738854848037422, -0.016667350631789098, 0.039675603399813235, -0.07091492795210501, -0.000943409376225207, 0.036689292954480035, -0.010373671368771474, -0.011763376248894532, 0.022623129533233463, 6.944452165487166e-05, -0.11629377526552376, 0.05901022520927593, -0.03726063574288844, 0.010810666240515998, 0.0842759306836904, 0.03810740376500478, -0.008153219437333856, -0.0471339253116271, -0.07493772700809369, -0.02589443286888797, -0.08715180751262985, 0.005100731092537264], [0.06148516141794345, 0.018980893213369373, -0.022788488434972158, 0.022223019137739487, -0.0889640813203913, -0.019832114160879315, -0.028557235275876728, -0.08657540872687143, 0.035838710064329544, 0.030094037180110278, 0.036987585313792384, 0.034928655658364914, -0.141728358470675, 0.06403190812550569, 0.05025122950608214, 0.0620255880334531, -0.0584855746310745, -0.05681155498746473, 0.046868451848908664, -0.030660845500687477, -0.007635280920829464, 0.045002446221256764, -0.025131744688262386, -0.02094057109550939, 0.08283058350633836, 0.015574842143341731, -0.08149096399633157, -0.04182937616843032, 0.025430362633823957, -0.015480618437172577, -0.12460695838869675, 0.021384788300432812, 0.03660231276617126, 0.00285984071513785, 0.021373448201026032, -0.07806546114087791, 0.06810681649379949, 0.0645851945785963, 0.038247895081653605, -0.07437498974644025, -0.03857858930632106, 0.03815145602474038, -0.02180888694620454, -0.04432821243347838, 0.042878562045355985, 0.06288561781118548, 0.02705951903035692, -0.06876675335828011, -0.07408238417800717, 0.04571466412593709, 0.006811954136989476, 0.022873680858201774, -0.031757049097143344, -0.04994013041817529, 0.020636970956280507, -0.06776341374768446, -0.1005832972848292, -0.011101362262840827, -0.08904643547893297, 0.17424153335032008, 0.013762304623548513, 0.03521394500010212, -0.007582816282501781, -0.014241671609784581, -0.08786118885369118, 0.030438041311784257, 0.031220854620605944, -0.05883825905370693, 0.019772916154759245, 0.08043001208474057, -0.008062157550998563, 0.024507025934926086, 0.025556976195347265, 0.07503199880915612, -0.0005522217237571837, 0.06544353106417068, 0.03870279528346308, 0.006429191696140563, -0.04349353328435257, 0.05938366636260382, 0.04138341940089189, -0.01477835643734809, 0.06018275083586092, -0.005304908384017583, -0.054811428140047795, -0.0193177788488388, -0.008451672052753214, 0.09644240762548037, 0.08070039027094034, 0.0851603848968483, 0.0970100584688365, -0.052673753061863185, -0.06280046415783712, 0.010624371074772682, 0.017102266243932393, -0.011183674355219166, -0.06952250045392798, -0.0026178283833367447, -0.07352781652152976, 0.00884501414154456, -0.042018970834312545, 0.02264386267798132, 0.032684309904715256, -0.023810117534400387, 0.038043711809602004, 0.022832038070308855, 0.02713979912668056, 0.06546154879249151, 0.11791542114891417, 0.0715825102291144, -0.026315010755430232, 0.07648992437111128, 0.010411829339372403, -0.008874722128673717, -0.003330445220597486, 0.018840736473268407, -0.09041174283385235, 0.016880257500746267, -0.025344770475887724, -0.0035746792712304, -0.030264204919595746, -0.008644561890003483, 0.08280819401338209, 0.0132255056128657, 0.08759130241806175, 0.036403279359158575, -0.061775855084819725, -0.0016636381506836746], [0.013242631759745552, 0.0020842342315752255, -0.014166216680985642, -0.03002346221869582, -0.12921680349227677, 0.037198973288228764, 0.034374420200154694, -0.001630529169920088, 0.05251296422426923, -0.020563952925009062, 0.052310024132830354, 0.016909696071838246, -0.05397889471507634, 0.052801424658740895, 0.08693729763080985, -0.04941542270321269, -0.07781999793698358, 0.0020940109971507273, 0.0023567150818657656, -0.010497055062564448, -0.029890940883671474, -0.03545102141034575, 0.03444751436608485, -0.02522623299083071, 0.06304003984020129, 0.14077340568310648, 0.008669952789788486, 0.01923318939016682, -0.03333778498488091, 0.05331184661939009, -0.01599023818731386, -0.0827988677888084, -0.11036663312598786, -0.03261416034816832, -0.06796959618184548, -0.06314330747278406, -0.004929094338722611, 0.03379683326705954, -0.001969753012190334, -0.047483385967998955, -0.022622200060009777, -0.10262042012453162, -0.01946943381219487, 0.05038735374207625, 0.011459669752326715, -0.033900626761121384, 0.024969778001911854, 0.10719192222650495, -0.022228859833523268, -0.04581270315279012, 0.015827780493246377, 0.07104636879390562, -0.12718232584066705, 0.011735286766018017, 0.005083763086375253, -0.025403218263804307, 0.008614921082272792, 0.04696829849269496, -0.051476570428242364, -0.06184577544404189, -0.030678780654215185, -0.021045351139067518, 0.018268715663103847, 0.13273321758349077, 0.012158068505699273, -0.04795446638569394, 0.017702822912076636, 0.008238247181519472, -0.0610783572778596, -0.053014585002754674, 0.04533820296602201, 0.06041748471915263, -0.020194593747412195, -0.051006153066834814, -0.06243063007544942, 0.053811581666947286, 0.046774648898803874, -0.029754463981513057, -0.052971097967637645, 0.00920185551293615, -0.00909792848523101, -0.008426147925045225, 0.08526120227091527, 0.027203709959757575, 0.0012390830242152103, 0.02000804474074897, -0.03560156329349799, 0.06775021324418491, 0.04808300249220411, 0.022371045664128335, -0.0007190324356801344, 0.07416772432465647, -0.007295936311540466, 0.029892262842253565, -0.07986625345674664, -0.02975560144961515, -0.008921448726297968, -0.002523265303418971, 0.03451370179849718, -0.009390724515835565, -0.003990747780356556, -0.058329466200517335, -0.07366090587199106, -0.09029287058342114, -0.0922423529408348, 0.049098800284346523, 0.027108846238136083, -0.01426523987904358, 0.02365564484123344, 0.03811147314069359, 0.0404445844397458, 0.04703602414501111, -0.08685757478767957, -0.04514699179348179, 0.04449996919047785, 0.03261125026277528, -0.03643348509748078, 0.002237030205782047, 0.04863889659060939, -0.04897708925539834, -0.027518551475026073, -0.019283367420418425, 0.03150118853796256, -0.028850305977575146, -0.06285843471715402, -0.02340993080834805, -0.007909685932212434, 0.005250317466311823], [0.010220423451242895, -0.02673288059852745, -0.06168738082200309, 0.01649291733906555, 0.08203148662820053, 0.07403633467337978, 0.033335184848699684, 0.028389549962650976, -0.06799457953577065, -0.11072741209140563, -0.10221066554414865, 0.055473881038142416, 0.0061851997093355544, 0.01191084960811221, -0.003210730843027066, 0.028706326259506313, 0.06634303580999074, -0.07359841245935297, -0.09940933912331017, -0.0012535684141091734, 0.039415314223806806, 0.027561911718121387, 0.058582679051854894, -0.03584083300716624, 0.011461199671872745, -0.04068146336986705, 0.0159603342378021, -0.07961456685982876, -0.006181014250031764, -0.08874370632003183, -0.01070552521384688, 0.024373348262806956, 0.04642859357397963, -0.002566918965771618, -7.712101547490433e-05, -8.856751862906382e-05, 0.001011994657151063, -0.07837213076941212, 0.06846725838610909, 0.10085254175639274, 0.0048805157091326, 0.0343423972649111, -0.07130379904304635, 0.016601748053496238, -0.033203255047729766, 0.050141011481997566, -0.0420859190978686, 0.03534151664605924, -0.0534864468555962, -0.04543117061887968, 0.040913523907364524, -0.06358267555866054, 0.027990308145270013, 0.06071348462088217, 0.05780190837573432, 0.047229568982027195, 0.0344574074849678, 0.019363092507845646, 0.05878893549183708, -0.05560725471942854, 8.232101029320298e-05, -0.07216688757774026, -0.04207994651610502, -0.0266249656689868, -0.05140046364131533, 0.00048390904937069165, -0.0796450545420673, -0.02155448272829286, 0.04838890737852993, -0.052889242626198554, 0.0025331068929096557, 