{"architecture": {"input_size": 784, "hidden_layers": [128, 64], "output_size": 10}, "weights": [[[-0.008741926377893663, 0.06278651531718081, 0.03731134515532965, 0.02361959007586993, -0.06089231090938637, -0.025319054193114764, -0.1006064566194742, -0.02962471778690591, 0.043668412231974776, -0.03296711340476972, -0.01729279121427066, 0.10633302904043478, 0.01717231793839209, -0.01336671807573595, 0.05520028834345877, 0.03535687290799252, 0.025177247950582637, -0.017940692754726633, -0.014141219884357764, 0.06440099023004311, -0.1258183459679756, 0.06494580397372825, -0.0339102003014224, -0.06707113844295214, 0.084045712556133, -0.022001409745545646, 0.043908222767241774, 0.08067214427404457, -0.03498422360133019, 0.031565796085126885, -0.09540457703563589, 0.06967093225968908, -0.03417891397642604, 0.047351199118178755, 0.07819796913077844, 0.05946078343320723, 0.061430041811958574, 0.01825364736094937, 0.026641069810202152, -0.041250254285749285, -0.012189309095375196, -0.08075940541015628, 0.00011199767537138114, -0.0017667817432495752, -0.025849189656716898, -0.12683436670514994, -0.05064368374362708, -0.04154291412494128, 0.1133744764567863, 0.057090604701466305, 0.040130448667593126, 0.007444577775494076, -0.022001729061927593, -0.006262067649533811, 0.02790025761012478, -0.026116504583476044, 0.02649920590326362, 0.07051821031178929, -0.021643804663765056, 0.008806259590739354, -0.07248767489550165, -0.02857878484981129, 0.0038486002888522665, -0.05974801621759564, -0.05878079852789697, -0.014493525830346122, -0.007131778316053829, 0.014217138018296695, -0.03695133778164197, -0.06788124409303774, -0.02416694451833939, -0.061032821968836366, 0.013851310731092066, 0.042007983703045405, -0.07177591097079376, 0.007173086014949157, 0.007196756656894687, 0.05576752436078693, 0.007602046045183637, 0.013267881528238008, -0.019630168812240386, 0.03663146799103899, 0.07211980733622238, -0.016066702043242433, 0.060256290876849083, -0.08512843720674727, -0.009551512491600998, -0.10397743382158861, -0.00844212402440048, -0.050068879048145866, 0.07078186240260524, -0.012499769594243414, 0.01873142130396364, -0.017309038332827043, 0.04133749277270559, 0.05159794600874982, -0.0320279073976671, -0.06433634104201263, -0.0016906180933975122, -0.03116394470129021, -0.06169043916575202, -0.14085017901153607, -0.0010261118915986403, 0.03331426253017187, 0.04774202777510544, -0.011955457763956677, 0.03708577982942339, 0.021631323601116404, 0.006053381496287109, -0.10334020397645526, 0.023831717234273235, -0.08791264394262249, -0.0007854528863923808, 0.03645254448482342, 0.025371204368525843, 0.031752755497351653, -0.06159477954907227, -0.015484558015651335, -0.025402782222545692, -0.00887708642894798, 0.047220480288922353, -0.09497354314558536, -0.047247080213985146, -0.05588826262990413, 0.028336262552216773, 0.03127163922294986, 0.012005729458700466, 0.04389662640711727], [-0.015230851078760677, 0.1133332197998143, -0.04032186865042298, -0.05143443138954933, 0.0019234154096521388, -0.037996832873565214, 0.012601476389623879, 0.01936945205388463, -0.006883911691893317, 0.04123499677919194, 0.007145908516726747, 0.013003232642583028, -0.06371691241517258, -0.05802493045976393, -0.04094490146333962, -0.0013833710475215243, -0.019670424989917303, 0.01413347509536928, -0.020010680304064415, -0.00797043355579265, 0.039844272436651645, -0.08223865961999999, -0.026649841199473077, -0.0125754978428699, -0.03944626034977906, 0.017370465670445243, -0.012708934200589432, 0.07661003163627968, 0.011223388257194683, -0.02128805205503479, 0.025710993299071914, 0.02173789684243585, 0.02790145145027161, 0.021613221816760453, 0.06069470449901091, 0.02575363731124738, -0.01855190005543614, 0.007939394181276878, 0.11424339884763234, 0.0802178191182147, -0.02485285761561359, 0.06311623737217271, -0.0363325049660708, 0.04287375740471522, 0.04704175203837192, -0.06822493420913238, -0.011883382946512231, 0.11600900020649549, -0.04351184735159473, 0.028446757843186492, -0.0786084620097079, -0.011259516287139051, -0.031045554112551367, 0.11780115785886504, -0.08450968550197474, 0.05147622877978082, -0.07186194243748181, -0.06256594360967976, -0.052214846732837376, -0.04816667314977562, 0.001959293176179716, 0.023115204817860478, 0.05759978085020331, 0.051721057072043046, -0.002312259448083649, -0.056793466008166225, -0.035088846638281386, 0.0874072917578546, -0.0002307784890004915, -0.12807231664361543, -0.011254943837058697, -0.07054556701175843, 0.019708167090090715, -0.01834958147653483, 0.0036049647569985784, 0.042343627141578015, 0.05110539239086045, 0.0058184079436713705, 0.001911212080805678, 0.01054374840769398, 0.02354464224565868, 0.031224025274525943, -0.02243756056694117, 0.025685286590040084, -0.002823140464282352, 0.0723145204644286, 0.025149080695053366, -0.008033158594902008, 0.07640113092623144, 0.05235011311025751, -0.0563778813802047, -0.032088987549590754, 0.08437098930618196, 0.04604033152610065, -0.03647422226847625, -0.024236745757106777, -0.10569040444811664, -0.038775556480962155, -0.05596831591555663, -0.015095956900200632, -0.05635525134486512, -0.00032698223352326135, 0.05069939585976402, -0.07666864954042064, -0.14672030200478556, -0.024633388039759674, 0.06858345926186012, -0.07048111871375763, -0.06343638723464357, 0.04466741616778725, 0.005582646660739525, -0.02786746758806535, -0.029096020123659964, 0.006299133406352423, -0.007219510566251354, -0.0018084769457453566, 0.005059841366772953, 0.0756010102084334, 0.0718264036245745, -0.024264142750273977, 0.015479349418232397, 0.014849240475934049, -0.028148997791547243, 0.0407092225820022, 0.02287485939110151, -0.008684333856444416, 0.059479129587491714, -0.07143071723541926], [-0.05713416804696559, -0.023481669264306438, 0.08657431716938813, -0.029273250240866952, -0.04336186616759048, 0.10678446587888497, -0.028277902532142636, 0.005196180062324339, -0.006684840876113742, 0.01222800936851521, 0.14315423582153, 0.0887545103515032, 0.007704408612534267, -0.039895716871023515, -0.0649380158082293, -0.006387041813131519, 0.0497962627903883, 0.021071798696090927, -0.04365521122620648, -0.013496118914387158, 0.003512035707758426, 0.05208155282941079, -0.03920352463567677, -0.014655774725384964, 0.031271627453064985, -0.013048226964199652, 0.039774100027053894, 0.05995623208168034, 0.02473278935292072, -0.06268939898660465, -0.014092474398788647, 0.08893025079502806, -0.07472843475954315, 0.006960644952566808, -0.07089149086272123, -0.08652946196411825, -0.08117330731973038, -0.05808335819715855, -0.04361877107537641, -0.019077667371603994, -0.02515398102905813, 0.02324426874663178, -0.049885328875996594, -0.059621455281624956, 0.1027990831637082, -0.07905944065933226, 0.02855664163671698, -0.0440383292638172, 0.09290346832508986, -0.1136051886058892, 0.05355802110505664, 0.005087886268228402, 0.02946920112314955, 0.08426629479838388, 0.0063614420171796875, -0.028784170878031923, 0.030592995081352634, -0.010387442506339805, -0.09078137628003571, 0.0027295467764922926, 0.0014842774283559104, -0.09544353846687656, 0.06402925124989642, 0.0036577693223919525, 0.0007857971528645789, -0.03240029483037342, 0.01912901728308265, -0.04443535062853791, 0.032454039039255055, 0.018078324587508767, 0.00012692427846338643, -0.006692844323863658, -0.09490048269296798, 0.04854594687102654, 0.012667382795959357, 0.03309293798368433, 0.08600931994107237, -0.002922847836419955, -0.004415220438481615, -0.06086958554148887, -0.003821967218767244, 0.1061244058152683, -0.024787686099195308, 0.02944371177608213, 0.025794636301447963, -0.003410436680608229, -0.020381912528778398, 0.026978603286753524, 0.1184987148607665, 0.011192123362881959, -0.006141056832266587, -0.04125745264515562, -0.03874841701401082, -0.050486064896728695, -0.016020789049461467, 0.0699647228932952, 0.031390502981598, -0.007195831145084752, 0.051088853435421924, -0.022045407701590018, -0.05056608235300246, -0.04163661731277721, -0.02181468750651672, 0.007178178072412926, 0.010556557383311547, -0.05104706812574274, 0.02160929709947081, -0.04839575152226183, 0.024874923853613486, 0.023815301944877486, 0.019058778347475568, -0.0026634769475588245, -0.023910458520329532, -0.004879330375173165, -0.0013773638182669164, 0.06660053252570491, -0.02927554038116335, -0.044493041557967086, 0.03619975115883826, -0.0827972693935794, -0.004477720774267042, -0.09141057558391623, 0.046009631004951444, -0.011648512528879888, -0.09043504245781286, 0.015538986064925233, -0.05081218714756411, -0.001356797690369319], [0.013932787461126145, -0.08279910773481772, 0.0007218073410736321, -0.04779083612540742, -0.08879735774993999, -0.0694172940513414, -0.018458052443330757, -0.01416445410098753, -0.038145463532216074, 0.00581734008274957, -0.07277951936933946, -0.020143466321126145, 0.032287647905401354, 0.012808078951385264, -0.05452451307347106, -0.0112999944591971, 0.07140585459570592, 0.023907061796749, -0.01037713709538325, -0.07440141115132998, -0.07167522052356304, -0.010266037267867898, 0.016360768981057452, -0.08212464573931925, -0.01565804843588316, 0.009280751470603633, 0.003631612756461458, 0.010117312004134325, -0.03857036620027166, 0.0010939389411681007, 0.038925188052592034, 0.020823565553178193, -0.030799257966948913, -0.0028076136744879417, 0.07415291779018683, 0.00810341418717473, 0.1050776589148701, 0.03642947226526923, 0.05393176349423624, -0.03413470613390202, 0.03567779038325375, -0.06936439208279647, -0.028123065979245753, 0.026067399967548935, 0.05136670017731946, 0.13345857173464237, -0.02794799987558302, 0.03847782953703636, 0.03381440437271908, -0.035744887962093165, 0.002637490149744371, 0.0755915485693572, 0.015857088629869273, -0.018286117542611655, -0.03404529432270107, 0.038619760472702, -0.05472346612282857, -0.06334430815539134, -0.05962720042097279, 0.003540513625004456, 0.07189752650901304, -0.02894083188019565, -0.020034231399568305, -0.007609006447436998, 0.03816411039964567, -0.028658727933393125, 0.04080503329795253, -0.02193631388796035, 0.1051342974393224, 0.010248562963842927, -0.028769965876491433, 0.044216295984048706, 0.0071428406233213886, 0.015632493457421254, -0.029199357422283898, 0.0675115006819181, -0.011798161884407563, 0.02264028633386527, -0.07874367237595072, -0.005838116615899812, -0.0007395381791223264, 0.0919921816711593, -0.10646859552566201, 0.012373263252086807, -0.05883511653556803, 0.008143238090544335, 0.002029601027158023, 0.09590703016863796, 0.04932525280639555, -0.01350465428159206, -0.0007860524219489474, 0.04661983844630034, -0.007818215288779108, -0.08213622770576778, -0.06896678666259848, -0.03958908383815938, -0.01718033131851232, -0.08683298430098607, -0.0652814751439721, -0.04131603298650484, 0.019396026084024603, -0.02627670549007116, 0.010484266634795689, 0.0012634891436806273, -0.017956257955939647, -0.030585356156920956, 0.029483896196363633, 0.03052054207728612, 0.02980471195362952, 0.015909299433630196, 0.03273457318161426, -0.02646427217090898, 0.049558075118831306, -0.07601982882997728, -0.005990053654971651, -0.019390427835617483, -0.04867044182365361, -0.0026185073958491195, 0.023378227734534126, -0.046709641354522324, 0.002386544751754357, -0.03216815029190749, 0.005061486759823198, -0.05011347633446161, 0.03553872309719753, 0.03830693888492633, 0.022834792784656055, -0.006877091180629178], [0.049853338214154164, -0.0017758271521247956, 0.01866436702933579, 0.07463689723145915, 0.05788202589157687, -0.01644323870221924, 0.0032657502388134603, 0.016460614787489638, 0.03526044305664611, 0.07092634761355394, -0.03025333977369836, 0.037279822734326826, 0.003854682971505567, -0.062247045685324257, 0.036024838485524034, -0.00845005467261812, -0.026521036301139635, 0.03572302740597011, -0.00021061003423670773, -0.03300411189516779, -0.0312618034681416, -0.06656659540559863, -0.05500989342893506, 0.07041860526517346, -0.02171170107982275, 0.07720187933780527, 0.0016429166890144823, 0.11091952912098527, 0.12138250745324453, 0.05066422556033933, 0.027376672893520762, 0.024485075581327505, 0.04451244673258856, -0.05838411766589897, 0.015369256960817706, -0.008855352874078912, -0.15473797747635962, 0.08565097629236662, -0.005403883105423535, -0.05907848229487789, -0.028006381057554618, 0.027984636006752033, -0.002528981043288769, -0.021537803011823474, 0.024932355359237227, -0.0373229765415858, 0.008255204050112118, 0.024799637553013655, 0.10258291979451428, 0.00992781982594751, 0.05262706341772837, 0.0006040699071974674, 0.03376274598564011, 0.05101776486501231, -0.043653146710815736, -0.018191707504049005, 0.04468647264503413, -0.014046129674291008, 0.048962269717565864, -0.027513753870045437, -0.05795131790652514, 0.12455656052684701, -0.09565411208413109, -0.010060961618848, 0.026284992031350513, 0.041010687770611544, -0.0361594926710107, 0.010664869933356146, -0.027629908200360837, -0.018621382716926288, -0.04559004670798426, -0.05488046274146955, -0.09031501234226462, 0.06373993454806888, -0.02789246023061976, -0.02242328082022062, 0.03298711632142187, 0.017341354669714044, 0.02140954485544821, -0.011593537080696398, -0.01810689194447649, -0.0890760256958576, -0.010626494264034916, 0.009310985516257992, -0.031004425288944065, -0.023091426476296296, -0.0552190921817768, -0.04099345241946267, 0.049736404962849624, -0.030892594855739298, 0.027327176803260873, -0.03416315176017419, -0.04225873102018641, -0.015176614049747314, 0.0024234041891064515, -0.014374368736606496, 0.006913350160565488, -0.024517729025130275, 0.047053233350875724, 0.02609265831817869, 0.012701957316152765, 0.05306428689692919, -0.0014361342885078358, -0.07361399784519959, -0.1101687214721184, 0.09730335434557677, 0.01990758081587455, 0.09235899071576244, 0.008403643617808034, 0.06946422234226239, -0.030097577420640086, 0.005382575446360244, -0.03621786576677975, -0.01598948503702674, 0.04001418165475939, -0.10923459137353513, 0.0019235031305386901, -0.032126018225014694, 0.04648066675647393, -0.033561987132583855, 0.006117819307159743, -0.004850885489530544, -0.034121409613350646, 0.0188080105441434, 0.025210723086581382, 0.045075066931271994, 0.017029559909217902, 0.03862627695488714], [0.008982088549875682, 0.028865890224479055, 0.020898365224977674, -0.06388955561840011, -0.05514555752101901, 0.0050027630495636955, -0.07580503343812421, -0.006865627187196755, 0.08587663487823455, 0.03959216828273409, 0.05918808463716794, -0.041379196965836224, -0.02451316061294447, 0.05165667694794516, 0.06402219445523526, -0.018917988681381673, 0.014650884694425043, 0.047079621958252556, 0.009546108531232693, 0.04652631298426184, 0.021623565092974112, 0.11889228013626503, 0.06275841915741474, 0.008998000670006725, 0.005543111085375306, -0.004606608477957213, -0.05669092876262027, 0.04661591615867473, 0.036364277138254394, -0.0002829664256422732, 0.05225905286858552, 0.05495396968030486, -0.007589632962521049, 0.05227484788044703, 0.00952327429481469, 0.012938224991298425, 0.0634798557780495, 0.05667177093380646, 0.015143191533015127, -0.05997227252891757, 0.027659656048882587, 0.0023825029685899824, 0.023377848408507786, 0.03903048460384199, 0.043236880024604185, 0.00502288494639999, -0.009720176424095393, 0.021983267650205723, -0.09103540711670266, -0.00521509657901259, 0.07985818664065181, -0.02471661683889312, -0.03600189965970554, -0.022741246467571932, 0.09241909267918444, -0.020605856929309326, -0.10345559148065897, 0.006172173163297397, 0.07590618134286987, 0.058883313461712085, -0.01861099974155488, 0.03346691306154313, -0.028470286679616843, 0.028491579199712416, -0.031218969157241715, -0.010264134496234263, 0.009293203262629448, -0.02721218154654958, -0.005341903625239377, 0.02007811966025418, -0.06849686629453694, 0.07931908476101597, -0.043722329620492335, -0.0580410667518952, -0.027826200369497123, 0.014827709043172009, -0.011900755139961031, -0.020420101907378918, -0.06895400808218304, -0.030407217095025325, 0.06488884321880088, -0.09499629935474223, 0.025029415340417225, 0.013042328173066435, -0.0393043629292466, -0.11839518308474704, 0.013481179406898467, 0.02903799152261524, -0.08202593379939882, -0.011097528042875579, 0.08136759137693278, -0.051747294012142966, -0.0013573229027604113, 0.012302054445229778, 0.009808073389235663, 0.05714349627278752, 0.006237277874443262, -0.022176518128570036, 0.050682671812062485, 0.030429144370028645, 0.0628453863605785, -0.04157036949566811, 0.024524200712361787, -0.08506241807129117, -0.04971677567823129, 0.056922714400332954, 0.037057291363071836, -0.04647557677627609, 0.0009474448126310593, -0.19814750871130465, 0.0743052924416714, 0.0077682651142885325, 0.03938219443729038, -0.03550437990272258, 0.11032464007633956, 0.018079284637050188, -0.04186926518922799, 0.06817930158920724, 0.024621037208174292, 0.09020484814481645, 0.0264702733386616, 0.03601122953168934, 0.060734606090292305, -0.03199076278262521, -0.031057273937978254, -0.07730236745942484, 0.044009393620605894, 0.0661870490524905], [0.041527138955581806, 0.04473079577640429, 0.07841241094852662, 0.02146225718782671, 0.07095513115243175, -0.05404613773561304, 0.029963979145549456, -0.06677801916502896, 0.031036386152461362, 0.007927303051733427, -0.01058466234972056, -0.036882582487907656, 0.06404566545038842, -0.0018450460931809726, 0.05020833535084951, 0.0008580179444235494, 0.06347903548928367, -0.02351436170477469, 0.004105278811050802, -0.03601833663847079, -0.05293105878249375, 0.008324525547510035, -0.010018033147999912, 0.03030672491358043, 0.015882096702225932, -0.017223506293647113, 0.015706651623524834, -0.10498049900161065, 0.0699263575770332, 0.02957120643270292, 0.0783888059987022, -0.04436282733888055, -0.0017608260943814953, 0.02293431823683466, 0.010987728293506888, 0.01382620453601744, 0.03206793685078603, -0.01645951568616973, -0.09759559817477632, 0.039678149293560845, -0.0746963781642737, -0.008549208852694343, 0.018405565521168177, -0.12612265241445542, -0.11215625898550562, -0.056959856462986944, -0.015718249387597215, 0.04185052282061851, -0.022766887692571854, -0.039881361264757643, 0.0013344854088143117, -0.036022994682314555, -0.055755844547950004, 0.04894309595759327, 0.061780603905402104, -0.019648970251869843, -0.03894900721694226, 0.14759848364561426, 0.018369244410588334, -0.0846815800318045, -0.0884679419776664, -0.029175655695272047, 0.003577768420029089, 0.007518103874214397, -0.04081274753084555, 0.06328023944770748, 0.00900359069474283, 0.018138665526060527, 0.04901539623660487, -0.042751058494427556, 0.08985913161631576, -0.021839600831734352, 0.017163410102693316, -0.043072058384618854, 0.008621234140327958, 0.07913920840922829, 0.016225797491043623, 0.010700757369701708, -0.028669244630552617, 0.06112204328028075, 0.02513480101212986, -0.06932184384435769, -0.07399846824449191, 0.04826045211632637, 0.016307035101788124, 0.056294868708189616, 0.023233709718337943, -0.0043690794340949125, 0.017515151418055153, -0.05997569616777217, -0.05102225322421878, -0.016434184176740512, 0.00235934750372889, -0.0177747984067853, 0.00911907610040783, 0.004610419867656711, 0.05636874679585587, -0.011364415132703901, 0.029059656022477252, -0.027913573657252, 0.03169630266384921, 0.029387011319807716, 0.08491425660431538, 0.004323132208713558, 0.13362658926967716, 0.050847849839311635, -0.039835737782531244, -0.06535990564807032, 0.04003261233363626, 0.03677427658991202, 0.05959158683342932, -0.032166621970787436, -0.018660289353830774, -0.007079605937523613, 0.022097410677275928, 0.006168378981492665, 0.0011178159322695691, 0.0060816469432839635, -0.0036202732350696758, 0.04160809957661358, -0.02581848935890811, 0.03162284550418822, 0.04649482029521887, -0.028817877020606203, 0.053234898168749295, 0.0411187377673948, 0.040618780249443445, -0.0008038227577485791], [-0.02581782034105683, 0.012482844826852895, -0.05291734591571196, 0.08636018898112058, 0.012054579110581751, -0.02481808871586395, 0.059840006999140986, -0.03564349138757326, 0.004553395842943514, 0.03957612640836055, -0.0028359521029739454, -0.002190620238952181, 0.041815118064948184, 0.00740386515822301, -0.009651511526658909, -0.021786638710783065, 0.03403792856936525, -0.03644370588899221, 0.024194852528264487, 0.05134223066084803, -0.011764743355195192, -0.0192863097880685, 0.020609047067269695, 0.0458299222499496, -0.014863660461598354, 0.037434478238438616, -0.034023781288661896, 0.03194019334175763, -0.11472123007331157, 0.026517162358802273, -0.02089250846438093, -0.03141836415550929, 0.025388735981574456, 0.08773814932205339, 0.026110506715619458, -0.008885400795427566, 0.013533444811533872, 0.0049639790210215225, -0.04877709890871883, 0.03127186095194618, 0.02838163014878767, -0.09294964893175733, 0.03550975648821706, -0.01609249005995278, 0.04175770087801364, -0.06869279721649559, -0.060182994884297604, -0.1231082145584279, 0.007913999698434867, 0.10332824669161753, -0.0017879805733180035, 0.08583502802570962, -0.02109980163203031, -0.020908080709946493, 0.04392506738941374, -0.001638067899701019, -0.011260013775068765, -0.01793594231614867, -0.008671867873140223, -0.01633205352279516, 0.014841217887750394, -0.031650761200066276, 0.037189486821833165, -0.003129437922296602, 0.027314688772181118, 0.025043572182545843, -0.06739060709466237, 0.13609459877220778, 0.00900993675283716, 0.052621539015739835, 0.06534416843167427, -0.02848270359084633, -0.06287701861020467, -0.12698165813901707, 0.026970188763009384, 0.08076771189148772, -0.07545828235155674, 0.004155598325975828, -0.04019799924246296, 0.07888116275864022, -0.07690084078513096, -0.043653046241596216, -0.05511429820383545, -0.028600457161113528, -0.019783537284257947, -0.05786438536058132, -0.010936078611122854, -0.11345290747480484, 0.019086756943309177, 0.1311231461813811, -0.011806152195990805, -0.05219490987706027, 0.08371951113815043, -0.0058835994561257585, -0.004119943755224848, -0.03884010865693082, -0.004928812186409546, -0.03751982802779321, -0.019665388738617354, -0.03835745176645754, 0.01270871243924666, -0.0389269658075392, 0.04081377019807021, 0.008906696455614201, 0.010453092559188918, 0.11063820736415406, -0.057348311401140786, 0.0415703343599367, 0.03216870808923024, -0.0585017943422334, -0.04612375787358233, -0.028330298650336955, -0.03009164822781567, -0.06323194935474813, 0.10157632005583925, -0.055339960431805287, -0.0020519938274490947, 0.09658034493278161, 0.04448498241113291, 0.022307805856808124, 0.048745364278294574, 0.006210459400588057, -0.0686136738446372, 0.08688084570870519, 0.026988231217819535, 0.052281193453507, -0.03035798696092673, -0.02541833961872081], [0.012417080823173197, -0.03529474378814295, 0.06277472188964972, 0.10722975185561238, 0.021202290919685403, 0.09096720631639423, 0.020187119889587605, -0.08467225824811157, -0.06121693594519944, -0.03931290826759707, 0.053877147027791776, 0.008074733008410264, -0.08123389564580698, 0.06143383931631387, 0.031050320257840183, -0.050653346444657715, -0.018001238029077934, -0.0034147749411207527, -0.019738304629106185, 0.007642605293573147, 0.059117897469067815, -0.04814717409533195, 0.03267334426512046, 0.003350614099671801, -0.05001871406629203, -0.028867506881494483, -0.06885815741904946, 0.005168311942155356, 0.020803311665150308, 0.03164263870309225, 0.011944077581844017, 0.004790359585526932, -0.017058024128342827, -0.009441463544834716, -0.00814311453182546, -0.15156639410374437, -0.0010308961040533936, 0.049355386532771106, -0.03449527617994853, -0.08581654977044897, -0.06537961576615554, 0.10174345439956385, 0.006126740551009552, -0.08450147634678244, 0.04444389251570682, -0.08814448607979684, 0.10351348600526729, 0.03388996470640942, 0.0005008073574681433, -0.09659115186826485, 0.03765708856732403, 0.009072304821644213, 0.07961463876949167, -0.052658189672575725, 0.00382190041630096, -0.04389592568140075, 0.05091503592763719, 0.06460248316762358, 0.04424763925486717, -0.0035081729473233894, -0.059877593626026925, -0.029914509023279977, -0.00712419309440664, -0.00499086586021884, -0.051605869275626444, 0.006075696807486946, 0.016832324290183682, 0.10789055350544625, 0.05530443949029064, -0.00552951160987624, -0.0032538015113480444, -0.024636552583109046, -0.03818748432851782, -0.05175262334784401, -0.0008215255070917234, 0.030919208658653954, -0.05313907901704143, 0.024672200670043037, -0.07881146301743859, -0.014205289723927947, 0.004275271192299302, 0.06680209615701867, -0.07976544728397995, 0.051412765205538266, 0.08219111409098262, -0.009944071107844572, -0.03502542372792962, 0.05160805473282373, -0.023970648708274044, -0.10165417761194304, 0.059431065159419975, -0.006320386119597449, 0.0033233423294412733, 0.0029093330874965673, -0.0005763187464744524, 0.018614246041328227, -0.024147699269136194, 0.007025980131068826, 0.08235782411545671, -0.021649500500963, -0.02732335757848902, 0.022649879275413537, 0.0833335106595329, -0.02646502360528941, 0.030294954818326107, -0.06436168007497356, 0.04688782655901451, -0.08497688325614398, -0.0030447341371604773, 0.010602340484031577, 0.011752964057286562, 0.07339476012145402, -0.016044700419556274, -0.047519825846814905, 0.03245072350897885, -0.10755620864383561, -0.04509078890500182, -0.040721314778698205, 0.04314396924723432, -0.021098689346714106, -0.011537970387822581, -0.01906519624017275, -0.06468625031473649, 0.03776459442059585, -0.03225319972016386, -0.01717767787467454, -0.023912792785728415, -0.05955140295166912], [-0.08858858105142205, -0.051138493201894876, -0.037964765246953344, -0.04954649441580703, 0.0015025184295522742, -0.03401015373256048, -0.03571153293429628, -0.06680881960505931, 0.04781736216713994, 0.0386449935688858, 0.034878075057453696, -0.03472653884266304, -0.08075683017689006, -0.09486217377288995, -0.010320422129995092, -0.02962478521485418, 0.03618152994373924, 0.040050805762784976, -0.02194290119664262, -0.018296994611216047, 0.0581635219212707, 0.07265596628047426, 0.012313271058294205, 0.10547569947012736, 0.09148480159550067, 0.0038204983888401487, 0.03900650610189421, 0.10441723432818117, 0.0009959969928667984, -0.0035323779182183683, 0.00880421161034109, 0.01895124217441062, -0.034347245422222734, -0.009877389968897067, -0.03826186701793096, 0.05285477290080487, 0.01662691347492805, 0.01818404871487762, -0.051374286908816305, 0.05159022384970328, 0.03734341633967308, 0.06329088890726872, -0.02860510263700021, 0.048700993041014745, 0.043006023197714266, -0.034580803608152744, -0.04241350818118749, -0.06505525503069902, -0.10635231654330532, -0.013109082511328455, -0.00659609528706329, -0.023935192691601635, -0.0022615839699149675, -0.006336637922164461, 0.03673283171226284, -0.06255363769800253, 0.010862195113802427, 0.025771435077193563, -0.026439635457568684, 0.1022919886358613, -0.01255816595212563, -0.03570661564764886, -0.004611114185763866, 0.014213917455303968, -0.01946030200523235, -0.022169962733319892, 0.10362538303787558, 0.04692574129000545, -0.09032330441455967, 0.0182663134635411, 0.028819192310370813, 0.02827110350815893, -0.04069140719383619, -0.06342958567477627, -0.02977439658490687, -0.05804782042524971, 0.021824282964264887, 0.06823077641389717, -0.015659637256555236, 0.030062156437534807, -0.005816672712691827, 0.0027660677818858817, -0.03354740646224183, 0.05111482041282651, 0.005150575998300333, 0.012418824695386377, 0.026843214525212773, -0.0505168344185255, 0.012912841686362551, 0.02696284632712352, -0.03129733693231099, 0.01934470098317761, -0.02704569657319727, 0.07991371061114667, 0.05049028220396206, 0.11051999625398215, -0.024366031273951008, -0.030930652354571174, -0.06661385322784133, -0.05405744770902772, -0.08142292000478758, -0.010306886208943693, 0.004158054047755573, -0.19614546804067445, 0.007525418277228139, 0.09663367199628149, -0.00124037805650433, 0.07057011967773137, -0.007115190248570499, 0.0035902052836841824, 0.00516711666900608, -0.0816543971986522, -0.03789549084676785, -0.06274622472012407, -0.011951207323824181, -0.06302561165581778, -0.0014874707253158671, 0.08637062987913637, 0.07658734145401722, -0.034498555786382994, 0.1053476240589945, -0.005888673168841899, -0.06930560107198737, -0.01767072189984747, -0.020195148139907346, -0.03650125064059957, -0.02952127701173178, 0.007893055586899154], [-0.0003974435600435994, 0.017816098550045845, 0.10631132049454314, -0.013027307773581426, 0.06125561815795072, 0.044471662980776115, -0.03914954443576468, 0.05790987126472053, 0.04140971128357577, -0.0998484399893257, 0.07359597469842415, -0.04904121388404219, 0.05744928827189987, 0.024576550012885168, -0.01784930651196244, 0.0249741759017504, 0.09443162511763313, 0.03835336474275214, -0.02993118062614008, -0.025799844558404107, 0.025953927828437445, 0.051652576602655244, -0.04848158252131794, 0.036222303908185836, 0.03474783241839669, 0.020679824720681368, -0.09010193147172742, -0.04926600488188534, 0.04601443105149451, -0.021378097734619707, -0.000504850050771883, 0.04408098415536347, 0.0331500555538726, -0.0354002729179737, 0.02995989053716367, -0.0900499337172348, 0.06784747640966506, 0.07076209951238487, 0.02323998127873376, -0.024837506015244825, 0.016181003565132353, -0.039078668800763355, 0.0016912167362662296, 0.07582410220219735, 0.035085344841352215, 0.08665205242919403, -0.022420638969604806, 0.03902514229352202, -0.013410784268993255, -0.036556703642775544, -0.06038870354866213, 0.04280810460941622, 0.021482571043428197, 0.013251112370802766, 0.021083103272269997, -0.01670240125335109, 0.032128258634453434, 0.10350993113848074, -0.05972751217961126, 0.023833414406596854, 0.03666667910524043, 0.01873456983812641, 0.040612602306420345, -0.013950079928594745, -0.0744611495473937, 0.039139466047876464, -0.005203633280833199, -0.0388225585219713, -0.0008232054158877009, 0.020802281544253308, -0.06843545068052358, -0.0011128810502589398, 0.0199218340007015, -0.0045447819299064, -0.0533500639949796, -0.003630093932369407, 0.024164578631468224, 0.07243240328874206, -0.02536535450356725, 0.035788147734887144, 0.04019343842960374, 0.022522798898298124, 0.053316846867781834, -0.014566222854584438, -0.05729896838908706, 0.09072362760376851, 0.0018382616618966502, 0.04012180806326326, 0.05794687440470263, 0.12728664334692205, 0.06737834273911068, -0.06610776696417271, -0.04785652052962015, -0.034020742165269235, 0.10176316523282336, 0.06988144281746342, 0.03692504268412115, -0.10653917637508717, 0.051216557919513524, -0.05698715267540006, 0.015906968363869196, -0.07330563949715238, 0.0027287443310108355, 0.002340889658335604, 0.024706157282501823, -0.03250072012872527, 0.02634199443778161, 0.028533230194844612, 0.012890263913687113, 0.004020509135432437, -0.030779729005073423, -0.03259300204508555, 0.08901359428848032, 0.10223773517522754, 0.014247369547489513, -0.012304144456322946, 0.00854143683165745, 0.015753507200335918, 0.06173387623387027, 0.08625361390384366, -0.006738949098069295, 0.014715240166655184, -0.06350890480533988, 0.0310144198280443, -0.0008412606206587966, -0.045427641048494304, -0.005381472843440852, -0.017151752959949515], [0.028137826885348615, 0.05601180922496337, -0.007136397073702706, -0.00037913587820321664, -0.010727886763940047, -0.01894353842606742, 0.03598185569421497, -0.055627966412303435, -0.03084531493569371, 0.04885190442890686, 0.051219143801026476, -0.019809287642714897, 0.06349244567412504, 0.013187864448920818, 0.05253331307859287, -0.020784462463198435, -0.001470469948965663, -0.03527765172640376, -0.017965916010915718, -0.046000648811098103, 0.07465187976816713, -0.11126190183544792, -0.048276766308881336, -0.06956042896390507, 0.0800872969745742, -0.07661138775936684, 0.018572381793662433, -0.047723675589776436, 0.12344175518914577, 0.066958095929685, 0.021188431000194585, 0.03758504399376822, -0.019956693518433082, -0.0064334979129734675, -0.09573559825760015, -0.0942493007560966, 0.0761318595609769, -0.021423388269428734, -0.001134457214561124, -0.03547382915074401, -0.025079776782685553, -0.0595939291382672, 0.02989138138680565, -0.03308086800437388, 0.020605893547379166, -0.003945429722409425, 0.07638916794176792, 0.04204135188760136, 0.035331815722547316, 0.056370711809237944, -0.016056867373504476, -0.06909342961191747, -0.006300125995376688, 0.07066299098366423, -0.10324905848497075, -0.040379569047177745, -0.013228146455622264, -0.041613185566251806, 0.08189340395502377, -0.014324050161264989, -0.007898861256548055, 0.009654283089657675, -0.0290012421984384, 0.009557952280194603, -0.026969607521848193, 0.05813150775134418, -0.02442610432931829, 0.03036707527387149, 0.01118071354223611, 0.11503672159915962, 0.0054870094337802905, -0.053115039803530426, -0.10307382772850016, -0.038093722492999055, 0.11940960696878565, 0.0034026070278434617, 0.004152174465607945, -0.0960716733925735, 0.04915136565260702, 0.04850702946401121, 0.028630577311454578, 0.04406741798747568, 0.1176881844829038, -0.06647180651881975, 0.0036509981121384395, -0.04201811006237619, -0.04819251028891992, -0.04990578078375106, -0.013881412479698317, 0.006124116087556293, 0.010909037972605153, -0.03727660902705328, -0.04490555264657812, -0.07209528022184977, -0.017408259775771682, -0.03972923783451923, -0.027547240097007514, 0.013780302280784508, -0.05186958260682649, 0.020836420878292367, -0.11904066167725207, -0.01776007070870026, -0.11293788778581196, 0.02385799669530015, -0.005779032052111183, 0.04745502912970964, 0.07560829144135096, -0.06656664330204445, -0.009261244259053428, -0.016033041277007925, -0.017152012536590933, -0.05707233932185739, 0.03403686606334257, 0.02494736844716906, -0.04005413444300615, 0.021123423309689922, -0.021346044384557568, -0.007855913647252251, -0.04494931641683619, 0.03999044495432291, 0.0014127441443148856, -0.033523548575380493, 0.1081104234425023, 0.010989702046127517, -0.02523234511066461, -0.022621991919484954, 0.02430555755583651, 0.054273503072710234], [-0.09921171137253153, -0.029432019188817143, -0.06177207036080871, -0.013066092846734427, -0.03849414432559254, -0.07433585164984667, 0.04317023447147525, 0.07593275954737334, 0.00618661707602438, 0.014247041106661543, 0.04190519142351744, -0.0508751028242773, 0.0068787330116469704, 0.010238521306779302, -0.0060438948511416955, -0.023111721910963855, -0.016280101375973823, -0.04620391220018711, -0.045961361235527416, 0.02734725949486081, 0.011551440819016557, 0.038164388558948055, -0.03296750204974916, 0.12189723569390276, -0.12103509099221105, 0.07802719346008002, 0.026816256491888752, -0.05204567204602298, 0.012411088547923842, -0.017162554444216837, 0.046657545905047115, 0.00533795132016399, -0.005312249931003565, -0.005232869150312226, 0.008947941355194118, 0.038034506543412935, 0.07215846315424666, 0.042518829774539156, 0.028608199979926526, -0.04157902049850633, 0.011021903373239567, 0.053319302233375346, 0.08165967932218866, 0.002953013913615523, 0.007882458156416057, -0.04414870229969715, -0.03776758128290124, -0.022482982264619242, 0.058994375823243315, -0.02748126779744515, -0.09396779104163766, -0.003212727426229146, -0.11580111418803062, 0.01440631506457555, -0.03731970932655183, -0.03576469462192327, -0.07274462373998007, -0.1094135656210991, -0.02610159491799017, -0.011600020379343138, 0.05096831466632473, 0.03532473168210984, -0.03723892951032264, 0.024161046346959272, 0.04278477434873586, -0.03224876576739027, 0.01484847780056325, -0.03430149097967498, 0.02016448245377448, 0.0068707196526546395, 0.03573810607615823, 0.030381674813841398, -0.03599781579699879, 0.05685479223127114, -0.0055270221433860066, -0.0420547822618543, -0.07653958027186596, 0.08270214030436196, 0.02839524470443644, -0.017534479846683406, 0.003992599772344261, 0.04008008515984221, 0.08239702604212963, -0.0014489437844726779, 0.04920752809355699, 0.11034934185096638, -0.0015711947418637945, -0.03605522989315761, 0.0029913077549730176, -0.0031416029746105254, 0.042861860641966364, 0.05766575162160139, 0.0049818763987502495, 0.054658878358907585, 0.09034888890493371, 0.015211980218921053, -0.05394166291649151, -0.024171180959370275, 0.028595551424100304, 0.007011199165870718, -0.030652464218037124, -0.051679175209248966, 0.05736082692805927, 0.07899958130992987, -0.05991760658649087, 0.018792632496058143, 0.08386541035665969, 0.015278667422318877, 0.04398742385983272, 0.10166395042078906, -0.045751438288250096, -0.1234943790089611, -0.06723007054535371, 0.0026563054508277305, 5.791995590884729e-05, -0.008951389995623928, -0.05588529560084446, -0.05538440691222322, -0.02216226035351861, 0.028350563714748384, 0.03150777846344804, -0.052378769688615885, 0.016311537874157633, -0.08456370320037349, -0.014175622020462467, -0.0051042299100858045, 0.10380139766566837, -0.017609902992266176], [0.04989706938472371, -0.029351352700890128, 0.056275020356762746, -0.0036508302245958665, 0.007022894235242565, -0.03773765919242905, 0.038556713911370485, 0.03799746449652837, 0.07322081507207895, 0.0031990837014275867, -0.02115194000558269, -0.04796580024131818, 0.0039495540377522806, -0.06112747721806893, -0.005124756611072567, 0.052358411633714456, -0.004106299148963351, -0.07748176863961814, -0.012732908886442703, -0.028704097726591212, -0.040645848723882404, 0.08586143231722096, -0.053823028470680524, -0.08452217152322543, 0.02259659499545176, -0.08576956516029534, 0.008720702414439695, -0.014854605751618264, -0.0024530914637139493, 0.024322542906637608, -0.025842254693993087, 0.0349855685390411, 0.03209465512460389, 0.03426874703885073, -0.052029150056294896, -0.018067621048518032, -0.034039817771806744, 0.02324259400687518, 0.017599776688676076, 0.004598041695290781, -0.01807905499084421, 0.01876653000774716, 0.018923735474825235, 0.04746455407411378, 0.011562890833783292, 0.06510037425808854, 0.03441658857486233, 0.0553326508795064, 0.03404476233705647, -0.051126033467106126, -0.04405923259431344, -0.029255435670584442, -0.027966154403552525, -0.07022152615357699, 0.05782932246713531, 0.011592242315430198, 0.025367952004186647, -0.021517200545261645, 0.004083337842812812, -0.02997277105872598, 0.005716871513652852, -0.03481598121422084, 0.038347406024158176, -0.08797667443890238, -0.0008216180395257012, 0.008639388433355108, -0.055779361938069594, 0.037651281748428966, 0.028601869608931366, 0.0038000841828744096, 0.0009675868611428487, -0.08410765102968824, -0.03497179862774387, 0.008065004289967717, -0.015821978916506194, 0.01573376861774591, 0.03192722013340481, 0.0807548196841375, -0.004520072522310642, 0.003047738085017651, -0.01077405036825043, 0.043884491138961645, 0.07353095312674518, -0.003535350688205993, -0.00470908656038208, 0.12658521881741522, 0.0659072725933077, 0.031405539013281164, -0.09170712725596576, -0.002223732530963352, 0.07636939737896743, -0.06083307451868643, -0.02517980278383784, 0.03213465172729698, -0.08095381797473825, -0.06836322715528097, 0.07481040117739904, 0.02888586365499133, -0.02073672278960755, -0.06560003569772148, 0.11481079047489916, -0.0059645409579010995, -0.0005429011154520492, -0.07429271042017956, 0.017005270624091084, 0.07306348677990018, -0.03103737407363871, -0.054935485544347025, -0.039264578134814224, -0.006093957193929776, 0.06584847118742822, -0.005375699413264821, -0.03466852655453814, -0.04994684874544078, 0.021992300789144603, -0.08845722942115086, -0.08561928158322642, -0.018990437988967823, 0.046748938254806284, -0.08782364716748202, 0.029363790038429375, -0.03377442612680779, 0.012194651970991495, -0.046788804969778906, 0.09299163866015664, -0.003026505402686882, 0.08115590942946316, -0.02613452217371814], [-0.02449050666449454, 0.058514094713381454, -0.07345354972721557, -0.037711825631224154, 0.10534110949059447, -0.03487576658205714, -0.013351277051152141, -0.004171390207900569, 0.08636331304985047, -0.12080304155651414, 0.03385738453364355, 0.040676241591107005, 0.009972780999847095, 0.05620851233897885, -0.036394064781375655, 0.02424464886406368, -0.04412453968816523, 0.017042723731606892, -0.011761100803046261, -0.11101935807849318, 0.11482752026446714, -0.033890176626011896, 0.02027029723575847, 0.01560745303779196, -0.09807914946157612, -0.09462036451449032, 0.07641527663052695, 0.03680250999926365, 0.024285388997018414, 0.008164490581016787, 0.02193544959603862, -0.03912545703860782, 0.012629043342183122, 0.0128543414558501, -0.043780705410539335, -0.0035766631118145965, 0.024407878581871635, 0.06952619515244438, 0.037596240125384456, 0.060956727157510035, 0.0318374086263503, 0.02034526514787767, -0.03826579479606236, 0.0003599589911039881, 0.14809125213333812, 0.04758830052484842, -0.04318292745393251, -0.006767283850136507, -0.026336199731475222, 0.07286993848395604, 0.01433674646425664, -0.023291446666517317, -0.05250324015009888, 0.015292043195187616, 0.00283985464978172, -0.0126846563045589, 0.02257221048130787, -0.06063275509140725, 0.01012673820876329, -0.02655520480029794, 0.0031234339515280787, -0.03888919140259864, 0.0023639291594844372, 0.09029548514658572, 0.03595830867956294, -0.08249728339406394, -0.017389364431125036, 0.039924633293881566, 0.059263519097999214, -0.02341967831976171, 0.0215528785421203, 0.06043703379032465, -0.028928789099117037, 0.026873074848053343, -0.10404023213017197, 0.002788742629450512, -0.06849136269348195, -0.02274708426870794, -0.008275381777168826, 0.09074878254783042, -0.03339844258816491, 0.0027557225619386206, -0.004814159975805799, 0.022894977278368957, 0.025026798390170735, -0.042174544875326674, -0.021229626970419968, -0.04998284570542077, -0.14990464060808278, -0.011728473654237816, 0.004335885219733765, -0.06286710372779539, -0.03635713750459121, -0.019056622454447766, 0.0038528417459184196, 0.06203601414368095, 0.03019668970058984, 0.050245070032952116, 0.0876565757496448, 0.05962918092637383, -0.025042797830176825, -0.009506114762427005, 0.04287381525620012, 0.024473668704589474, -0.01910546073470958, -0.0014564144876302043, -0.05420933042337186, 0.017311306550023907, 0.023479211303337, 0.043199148168763156, -0.01883531702117994, 0.012443532919582473, 0.013909717025366388, -0.0041379018392010405, -0.07502278825296269, -0.0031990732402238024, 0.05742323328342007, 0.0861166852188134, 0.020911046811292473, 0.052093261793291594, -0.025563846039562747, 0.012444209389088738, -0.025239382790249006, 0.07581337222401995, -0.04458864799220675, -0.046693654664660106, 0.07888336440276907, -0.044529220599835065], [-0.12148304340757293, 0.013732818298076543, 0.037891119816410516, -0.015906907612060237, 0.04794778741342131, -0.0734803875537395, 0.07595625366679176, 0.06039158768839721, 0.03736922874744794, 0.01908429255368712, 0.009916084637178165, -0.04720684162356385, 0.033301021091979376, -0.0010701546325519807, 0.004530999994552619, -0.009898662105395967, 0.014302999580140582, 0.007707480545540671, -0.04671183809132751, 0.07776466334403304, -0.06288544992522191, -0.006311825602500379, -0.07914579521029146, 0.10829590466529149, -0.011527343951626223, -0.033798643797150425, 0.03401673937034645, 0.005138685188030038, 0.036058352738005985, -0.05199899757720136, 0.008316616451473255, 0.11150469149872252, -0.10506197405490825, 0.014513200167345513, 0.04430893486740667, -0.036854774607584816, 0.0031668722726403108, 0.05292965794880997, 0.058601111931255175, -0.08265920683670509, 0.00557839991467229, -0.03909095499250242, 0.027736959120165713, 0.07148397513391566, -0.022919444959862065, -0.019702474264324088, 0.01685571118186095, 0.0391364457278461, -0.02610047140445553, -0.08722210620181915, -0.023184284757127766, 0.027437881887944646, -0.04136262546688856, -0.07453604950894148, 0.01343772829262774, -0.01216812995549461, -0.06439487787892646, -0.03601535990658154, 0.07436674810882017, 0.01895038298907903, -0.023406380184299195, -0.10842912579210784, 0.03894874067874357, 0.03682486789611851, -0.07287514259860414, -0.02218858481118908, -0.012583050011046773, 0.0128846920235021, 0.021841855780794537, 0.0121421079232419, 0.05444626744547494, -0.050885780063490545, 0.007325854690376226, 0.052181377203024265, -0.015677381158810958, -0.025293023318808498, 0.07585962941990786, -0.003398011986156106, -0.019712738233629772, 0.018061371463030818, -0.018845344869694268, 0.014324030020945738, 0.03509730068345683, 0.021208968484650648, 0.04529580392005265, -0.04061642138614538, -0.00040312849847471153, 0.043226857410042056, 0.08937689922500155, -0.010005426867024683, -0.015129246563849846, 0.04546218049394063, 0.05434296154343932, 0.05086731985024723, -0.00951810968846224, -0.01020914784129619, -0.013179736426667442, -0.06370025832079187, -0.048494101195662394, -0.03875246895529058, 0.055469190835437096, -0.015084662408177305, 0.0415459055669481, 0.009171521148504011, 0.03088119217971505, -0.02090428581573172, 0.034019213461505396, 0.0024003623004425737, -0.05309148582982057, 0.007752734589792834, -0.11424861056836118, 0.011704421155620474, -0.03265829495974536, -0.035446402991096464, -0.03681158409100014, 0.00834939788603688, 0.0274918583938584, 0.12332547234008306, 0.017247368456951188, 0.03014088431478931, 0.058609010960576025, -0.0878011374446525, 0.02927032297666156, -0.01363072875364322, 0.02785007140397089, 0.03441364064466889, 0.0005962348612439462, 0.008982738335870634], [-0.1455659477106866, -0.033686994687927706, 0.025636840511858876, 0.022669578757526513, -0.055584390177206754, 0.08471326382649912, 0.06492164822542981, 0.010668293149171212, 0.05466919039201077, -0.056150352599290125, 0.015798699756741565, -0.023897479070247203, -0.028744057728903774, -0.037959359745512296, -0.030313689524917153, -0.0334978498589971, 0.02206407528227733, -0.02675209583570235, -0.01754614018448458, 0.046105559876478505, -0.05118450676786553, 0.004371306741188653, -0.06530553217463786, -0.021752827853063414, -0.17618361706378896, 0.01681732884813609, -0.09376753380257079, 0.05789648659411106, -0.057164957262904235, -0.04330757399034605, -0.011987685543355078, -0.10634708282607327, -0.03211118712186423, 0.061221853251400574, -0.06507759140051031, 0.01639053391756433, -0.004264566893185734, -0.07316976707630839, -0.00014325625801322152, -0.02197294356354101, -0.04209898304128392, 0.0837586092197353, -0.06022374067513814, -0.006852887145184384, -0.0724249628949436, -0.033335521578801174, 0.016019392643297298, 0.045073394404749244, 0.025888149177239722, -0.042376851498090985, 0.005029335917008803, 0.04182080117692398, 0.0225983260326492, 0.012451250793289017, -0.02120512428096659, -0.011657595695052212, -0.03900232599735707, 0.06030308621485593, -0.002144165551616245, -0.021616723464631168, 0.029284962873821083, -0.038225131530507016, 0.0030326303337915275, -0.037785786181326234, -0.0667062528783848, 0.010315825115673293, 0.06161651651237093, 0.06012454093895313, 0.004329721049779146, -0.025174734339731445, 0.03591181047758163, -0.026765740619553946, 0.06761617609806325, 0.06396928555216208, -0.03317716726229948, 0.02042100200963584, -0.01689880770353736, 0.04811473782637084, -0.04070109997538987, -0.06713347160275634, -0.056898923791275695, 0.0575974725516047, -0.017079472025645328, -0.06469666875525024, 0.00563203159008555, 0.048102850932545425, -0.0493961241758457, -0.022242241442419156, -0.11060024867971611, -0.023423254690336563, 0.04478565590717732, 0.0007583943440227727, -0.01988584405768643, 0.06716212967378611, 0.02290798422021754, -0.04686103537977159, -0.05271034679512169, -0.04049061699882393, 0.03157417506033055, -0.11152110568250873, 0.0059585507343598845, 0.022450292726488557, 0.05702381524897247, -0.017225593010927045, 0.07839698794538262, -0.058719025592031224, 0.026386569305051785, -0.14667216332437938, 0.009362364645406018, 0.06872272342956139, 0.04113145737668127, -0.09870000059419308, -0.06971859688729894, 0.029903716717844527, -0.005819656496117556, 0.011932274769775307, -0.007471905104772254, -0.10774717864127457, -0.019195130770439463, 0.015470183933151948, -0.015354930153443799, -0.11081177744279525, 0.05491895904787906, -0.05114356025745833, 0.03019039244160074, 0.0507075047697938, 0.03653491812552519, -0.028398363049976692], [-0.07009312256502982, 0.03276063360186998, -0.0002268795428967098, -0.0647575001121366, 0.05541769241713992, 0.011714647305660917, -0.04919696439172455, 0.015110559460659484, -0.014393687325163558, -0.008286965278706945, -0.027071569637689488, 0.09699956663864251, 0.05380856909247603, -0.015222527077177417, -0.016487162080519806, -0.08746963410167975, 0.032349651173891165, 0.0025895830556757933, 0.023807662623506354, 0.02769124972004332, -0.006400493703286558, 0.036028070551690404, 0.05053209317772521, -0.03322020212329406, 0.0622504859954465, 0.03307543857170316, -0.052409322630416956, 0.0002550065287808656, 0.09073801986802804, -0.015137678984599032, -0.04349826638385058, -0.10879467842872921, -0.04413677996195933, 0.003602445489313732, -0.0120677845755988, -0.07170335591485519, -0.012764345917711927, -0.042688918673622595, 0.006235995918631985, 0.03196443576912267, 0.06276678652648139, 0.010490191806356313, 0.028467055711049433, -0.04654905273076802, -0.001996373335303239, -0.02563505031784994, -0.08349741727836286, 0.018825754066907414, -0.0030544297574453256, 0.03789784325294764, -0.018645767080457454, -0.03660501008913145, -0.0448321099819925, 0.08040767842772774, 0.006062774920887343, -0.033055320033446654, 0.12516476693680148, -0.003629589792616541, -0.011921034249675238, 0.01821798282212859, -0.0383865101267795, -0.03447619186345123, -0.11583892230012897, -0.03478756948853728, -0.02607397269519665, -0.03946153651793792, -0.032695174263392295, 0.008673302783079404, 0.02816956979203918, 0.05207324551718491, -0.007791206786295221, -0.042479704553480116, -0.016527760872081063, -0.03406659952625878, -0.04553330939026762, -0.03890454095217151, -0.04973230511227675, -0.01936260639812349, 0.07269032445629642, -0.03337441809060843, 0.08433663042254581, -0.028149712926328195, 0.054516161738392487, -0.09538566591441099, 0.027919626799080593, 0.0011604377738388249, -0.10059155337707873, 0.011778403534508942, 0.07708146751957158, -0.01581312765822551, 0.06913068539141394, -0.10787446278538969, -0.007999406091366438, 0.06423219486911426, 0.04575789934005327, 0.0017051201482483984, -0.048864513661083485, 0.04640797101859576, 0.026684578401302277, -0.024360020395803476, 0.05992836574297352, -0.026685853591103825, 0.08267845188808261, 0.0283001148391996, -0.0032400874895165254, 0.04418495522638633, -0.05093810842342181, -0.008355120189322308, 0.08850904750005656, 0.012316330785941805, -0.04841987555676316, -0.019707977441243005, 0.007567275508107454, 0.026142725261373595, -0.0980031236936724, 0.032080696196591485, -0.008531120743640761, -0.061160908552223954, -0.0036316849298731126, 0.03947330950642357, 0.01239472188218151, 0.041363140596529416, -0.05316334973404011, -0.02966427845719204, -0.02486689137397851, 0.045692594184140414, 0.04988982997011415, -0.00840173954302498], [0.05765162844626503, -0.006792767428650987, -0.027913828533146466, -0.04277885971983983, -0.042717861128505084, 0.009948959969649484, -0.011038342983213548, 0.03194784800389335, -0.042964597985821085, 0.012404436312535698, 0.06357172069964641, 0.015859383606016977, 0.0106347331395897, 0.07673826875706942, 0.024694514110868364, 0.025488450214991503, -0.030721151250299512, -0.02009158396496007, -0.011360419485359225, 0.056127352350459445, -0.0436597799666966, 0.08370044044160792, 0.020447229930928228, 0.006135398669592095, -0.020293334366040337, 0.020877061643423313, 0.05398423070830909, -0.05068941682342979, 0.04215037116083792, 0.07215255727920364, 0.11216582052580457, 0.04414806943926208, 0.011736495139538753, -0.0807326302197753, -0.06225377854865803, -0.04951135721790282, -0.0663586364791524, -0.0017787216654080588, 0.03423751537408507, -0.08792896648979137, 0.08277610963184229, 0.007579376999185938, -0.014466161150509277, -0.04365642411520489, 0.012059771575181975, 0.07513850110436121, -0.023927192824789608, -0.01593248738122361, 0.02876276411912662, 0.009632040119329898, 0.06926822496743242, -0.05903046527168367, -0.057777904072957194, -0.01701514078222923, -0.02646499370545984, -0.032083376894789024, 0.03568348344110427, -0.05956531979919135, 0.002666638827155799, 0.0008493935829805558, 0.010028348668519725, 0.03208249590346912, 0.0188456450178314, -0.017728769420084722, 0.013098461982256018, -0.03572459074602578, 0.03809122957734172, -0.012095789648276612, 0.10524515549856965, -0.08205718858007473, 0.08386334145271798, 0.025621539851478043, 0.09735401406719733, 0.06072595070798775, -0.005675482301071826, -0.0056480175433391505, 0.047778790840223836, 0.021179247376835554, -0.04037681304520416, -0.02776508254871099, 0.03897526002795315, 0.07423125587868103, -0.007653887768691256, -0.03340358196154563, 0.04668874660233015, 0.014309038512265476, 0.06905240135925692, -0.030472467549256182, -0.023231876423435247, -0.018824158606182983, -0.08445629694919031, 0.019181267419919434, -0.051499834043158596, 0.003933007193631456, -0.02640243438706691, -0.07493687209046668, -0.012445851723420373, 0.018240029906298066, -0.014679337530671443, -0.014783549037267044, 0.02170897697338902, -0.013389360021856634, 0.05651527859793868, 0.00523658988968658, 0.035518079956279563, -0.046006954038221984, 0.04635300731929757, 0.015858844956733467, 0.053545024001272826, -0.1327947727834245, 0.0383149914860831, 0.0634415323782646, 0.03720494589254957, 0.07036291631744844, -0.11515813245539397, 0.09089604632589313, 0.08308312551203795, 0.1345540442200346, 0.002078849643505847, 0.09825093124332468, 0.01616258004617878, -0.0343521018404657, 0.02779372980679424, 0.03600746325985678, -0.054457492385152795, -0.06252107986880681, -0.05019531101520231, -0.0708399957207691], [0.048639113117075736, -0.04437792450669519, 0.028586766210817592, 0.06491459376595735, 0.03970102899341861, 0.006740207310438647, -0.08541185230326326, -0.03572887227238433, 0.0525895690853246, 0.0985862967505378, -0.057605076615279624, -0.005128034686668109, -0.07917991952718285, -0.026143666027476094, -0.017168337858342837, 0.08023435630999502, 0.09215149381877405, -0.054416829238237714, 0.09485409353192242, 0.043250526331049755, 0.009609402572604762, -0.04262273488021048, -0.054808547162852765, -0.023256716678488318, -0.027885062895669777, -0.008058056755960287, -0.01800940446926265, 0.04683766913807081, 0.07767197360996647, -0.029904646339095804, -0.06565326142671982, -0.04671731676142065, -0.011808192092303738, -0.040316946004739444, -0.01753293374008772, -0.025845522403916275, -0.05713695050312687, -0.026128984470572415, -0.02591536139714258, -0.031344116091833955, 0.02206497782755057, 0.00398790601661124, 0.06639565274510707, 0.0013194662347346233, -0.05267051430953432, 0.0364474967948449, 0.005017402958584389, 0.0013107868910343435, 0.05125569879493086, -0.0347925575579374, -0.059990817901178856, -0.0083229938704523, -0.00017387815007329803, 0.006104231815121222, 0.036600992987367076, -0.05279403745357587, -0.04536255478749574, -0.11343964001561148, 0.019832222542948166, 0.07239012905051184, 0.04280105037667976, 0.03619561806755982, 0.05154901333642744, -0.0039839540545690225, -0.05675365449167579, -0.04028211317832718, -0.019267929039958838, -0.03379400131971412, 0.033919992944092814, -0.06196304929338315, 0.004877323908631063, -0.023805932623407057, 0.02280294865926252, 0.022605361356700906, 0.003231140731432847, -0.11933446444499159, -0.022014313411849337, -0.03271662805477715, -0.00883510416849336, 0.05783018414252753, 0.04675571703254818, 0.026062413858450623, 0.0035276527352101615, 0.05810083016314073, -0.10960011567367207, 0.003305361808765216, 0.09219687150321727, -0.07198835694671223, -0.03833454536658303, -0.010805926334061222, -0.01827164499697555, -0.060916709221384924, -0.05736569708497204, -0.033910492800603424, -0.12398954267251218, -0.08367656048136075, 0.02377825537424286, 0.0034281734199155586, -0.03610693952853858, 0.016541709096471426, 0.033669691059052195, 0.08550177638349997, -0.032056262030905655, 0.0012949635047673738, 0.0886398125662589, -0.02957930633892784, -0.015043008741434688, -0.10175234525272656, -0.012536513465161837, 0.07384177110214661, 0.062292973005819464, -0.04949587343152482, 0.009067927672016808, 0.0006420077149010736, -0.004378462128235357, 0.08626515306827777, 0.08762489814416397, 0.017738097101065053, -0.07818084152248159, -0.015280078430337341, -0.04735699876435095, -0.03600742318964246, -0.08998054736738838, -0.07495279950341291, -0.002357804619186897, 0.05122975911084667, -0.0027555514974949066, 0.021216297602642067], [0.06525515950242923, 0.008073768969199039, -0.0713328908931679, 0.0045446200268136235, -0.02333310703647923, -0.07255105676753187, -0.00786078735789491, 0.04094089023992174, -0.08291851408573384, -0.006510294565711334, -0.02121178486246461, -0.044732085957816685, 0.04417763117924278, 0.013687372882785036, -0.02518436040552107, 0.029181712725804443, -0.04201654776321182, -0.031406967503955614, -0.008776269971250325, 0.07980159326724115, -0.010282877078324176, -0.0564723962890668, -0.025982710241010492, -0.009199770215313853, -0.048401706754407796, -0.012959344339447208, 0.01727273465304453, -0.031063797224295562, -0.08967713263385158, -0.08040617164622225, -0.112482160580543, -0.04745786712186574, -0.02509960636792253, 0.002570670544246558, 0.010298846041448376, -0.042458127479121144, 0.010881128592544248, -0.01407160569905993, -0.0013618236426751567, -0.08712625392553455, -0.027689678706769333, -0.012826179896186948, -0.018322447726515412, 0.03378188200759648, 0.05482638176347097, 0.10447240194855376, 0.01444127812232154, 0.09767518514573093, -0.04552368098633272, 0.06923501925246929, -0.07499670916911297, -0.062207336562839104, 0.004826494560109965, 0.03378166285147706, 0.12884533798314135, 0.03577677139707875, 0.055302775568365756, -0.004236353224805818, 0.015193186005648236, 0.08293308645099111, -0.021392121612224344, 0.03737521005801881, -0.02640880398907515, 0.02410734391257719, 0.013110110916412211, 0.0699996910001269, -0.030839859610461665, -0.02562037030899539, -0.0283195227387285, -0.015801066636451675, 0.01683349503395062, 0.005862615927992288, 0.047931898169747, -0.04323802038489747, -0.04751771810973249, -0.05658884063182961, 0.012079455001377817, 0.009930134834469832, -0.06889642374934447, 0.015464014877867215, -0.04221299982648301, 0.06006951051379958, 0.026964406807720054, 0.03834535459970871, -0.01877018815652179, -0.06817934612620652, -0.03554638973874494, 0.0715370304816817, 0.012918289998250135, -0.0030772591836817796, -0.06836410512308323, 0.05846652467719932, -0.03177148173876686, 0.03558714524693833, -0.015862988440496825, -0.03722053810880327, -0.05577379275937486, -0.029854701622045655, -0.022959205082916254, 0.008954167276781479, -0.05273077211682161, -0.002991427062465312, 0.12803368047380181, -0.05175552165922453, -0.009189876797084079, 0.008618555628267553, 0.05900747055286364, 0.06038799004554524, 0.0776151300201353, 0.03239633189825982, -0.06669969542546052, 0.010758078781436855, 0.1166190201818495, -0.01637725690209143, -0.026687720493789768, 0.10150696616659784, -0.05979556307135083, -0.008572707732217216, 0.03818547209683627, -0.04196727339093666, 0.03609303168510972, 0.09157837572142907, -0.005503189604262801, -0.11554259316472794, -0.02547359421869529, 0.042779838690910156, 0.036207533114252025, 0.042268467790914976], [0.02733075731140444, 0.014538183045687311, -0.0159192559730881, 0.06721388115543062, -0.012378254914718837, 0.010933822809437119, 0.0884883160964543, -0.09056515829884687, 0.019953920884916914, 0.07576000719704712, 0.10853822094903116, -0.027627187110486128, 0.02601768359263305, 0.03243377197263354, -0.05708988069932048, -0.020024898619529913, 0.0072145942828884795, 0.0887019851822639, 0.0017538120078796572, 0.048391175794980104, -0.06867080511185458, 0.022469753862283413, -0.0002482885882177833, 0.01183254176812222, 0.0218801949937583, 0.02511285304734965, 0.02711747727846216, 0.0005044745754684217, -0.030330817162287412, -0.0016709913583561385, -0.05981110255931474, -0.010067923087301919, 0.05564327945120172, -0.0443461828391075, 0.05505550024429678, -0.04895434027214457, -0.03545392777281788, -0.02332354881554489, 0.06457875636227045, 0.04858401004213138, 0.04088359671932956, -0.05769922316127635, -0.011009433941883454, 0.005216338212621452, -0.002329440158865078, -0.027671144448141626, -0.0490816043492542, -0.01465572162388344, -0.086884817169839, 0.029901659629466927, 0.07146812195051387, -0.01015623798945825, 0.02840581698345507, -0.044066839337986954, 0.03960954057123205, -0.052621263701976145, -0.12740954231671314, 0.11479014660242488, -0.05884961237145272, -0.0009589997207578117, -0.04731068932535231, 0.027638809550018843, -0.061322991291070224, 0.08713376048912794, 0.0481602070922634, -0.017807235312868038, -0.06701064682464575, -0.10668987954926519, -0.041572852518198866, 0.060853857908171015, -0.09140145200173996, -0.05125934580808468, 0.010751725697937623, 0.033301143253221616, 0.028894416006615315, 0.06040154478581197, 0.09731700427529176, 0.02462830024997685, 0.013946186233771312, 0.08865517983882854, -0.006091242161941731, 0.0033044158633134106, 0.04196044341360974, 0.0055231628034312415, 0.004280661402813567, 0.1173876572092328, -0.02688473851416161, 0.04897659950975, 0.03895998003306303, -0.03898990358924722, -0.012143683781987458, 0.007431844812314934, 0.031336509419184415, -0.033421046882838056, -0.07377181255344505, -0.03312975558728986, -0.017038693424044137, 0.013428022215139232, -0.0059256430043691695, 0.04068187132454137, 0.01599018452680989, -0.04666531503256251, -0.02226236141470521, 0.03734751294135025, -0.033848196496127525, -0.029081998240065483, 0.06998713069123427, 0.007565360098529391, 0.03959033565571888, -0.03708309698951694, 0.03939562541694393, -0.0921473352432768, 0.051038707440943944, 0.04536641833111122, -0.0754833130032858, 0.03882147785448562, 0.024702728281287552, 0.005735139599172289, -0.02122143896513104, 0.0606421907699494, -0.10053036906511963, 0.0750439393725217, -0.08352393702035377, -0.0009728415801841463, -0.05451555801759293, 0.03685570325618563, -0.05791874873843833, -0.0833102030091909], [0.009448555811503627, 0.028392224718003976, -0.032348435973378054, -0.0312835353780592, -0.02191597868784491, 0.04259656207791058, -0.02243494210750699, 0.053528766284138864, -0.009454373884809086, 0.038946961619216, 0.010452771636436169, 0.10650156361390019, -0.03481199958466774, -0.019778870928406092, -0.08081065098175284, 0.031673651801945854, 0.049479548213115954, -0.0014764145930462982, -0.1590528294961164, -0.04675609405489196, -0.052639435194294856, 0.00864574245621935, -0.019641792349371266, 0.03913327043595694, -0.014921557723780768, -0.06101304671905773, 0.014516514819867954, -0.046685810075744766, 0.04282859711763526, -0.15211034894202258, -0.07646548245070067, -0.04981934783708415, 0.016505202380692984, 0.00978873215491134, 0.055020323270418926, -0.001496510966749841, 0.055892067742892015, 0.0812296039603545, -0.03507838207880859, -0.0011766554340971102, 0.0873791685255134, 0.09224782359995293, -0.000787905799816084, -0.0758426901573025, 0.056035688802048546, 0.05643320455940839, -0.05651814304743654, -0.03244377086304029, 0.021394999965770774, -0.09594513050451402, 0.0008350042916954774, 0.03177537532865175, -0.037499326970255556, 0.003314752086947746, -0.0709702763893886, -0.06985465406208959, 0.01458096641120717, 0.06607203614046032, -0.01255763052547554, -0.06145052528225687, -0.03570226305522055, -0.02844016434649733, 0.06423648958914042, -0.03430398504523282, 0.06105112438333511, -0.004940312022485784, -0.0007729977504256027, 0.032432572398187295, 0.03845343597833228, 0.018906038788378612, -0.060682735952573674, 0.030430397973867106, -0.057308633645361096, 0.05556125590200308, 0.14290097121624695, -0.01433273336796803, 0.006690760473698708, -0.09083813243909303, 0.06311788032483838, -0.019322615242501538, -0.029875560734978223, 0.023046980936987944, -0.028754896095109974, -0.05140239696350217, 0.07044803200261769, -0.0018794554742264456, 0.05447491414651542, -0.05854117037112193, -0.03833460603003552, 0.12315969353400022, 0.05714946925446607, -0.022976269484440603, 0.06894017099265896, 0.00397472328233985, -0.0946864470255298, -0.002206044750012163, -0.09931791710237378, -0.02816219355102573, 0.009047083462260703, 0.003114326768635246, 0.01385966641201853, 0.02908611393000266, -0.03230877938032787, 0.04974001244669277, -0.0003386425330622, -0.010052733257069475, -0.05522847502394472, -0.002633222124869548, 0.13463365737594765, -0.028304995717430132, 0.05392768868869992, -0.05698322517011864, -0.03661755595346919, -0.04004995922189806, -0.012372400136608227, 0.02758378613062904, -0.009793643852422072, -0.01923695854555203, -0.022596792034598894, 0.09712390274356453, 0.005607337252136602, 0.01599361439087868, -0.015958156949335625, 0.06086300529400567, -0.0400377268823533, -0.0009693604278377182, -0.06344813282258804, -0.05125953652074132], [0.010236250652605241, -0.0024146785182993812, 0.027890874463014463, 0.045950857773644785, 0.019079299358156637, 0.0015004442135698054, -0.020379817845087068, 0.07708258648050002, -0.023192231745696474, -0.027792218021964483, 0.0343944267732898, -0.030602848965294333, 0.09570572755865017, -0.022232373260519658, -0.04830348174668436, 0.04804786482541875, 0.04754058028022532, -0.07515733827434068, -0.009501387698493353, -0.007842327218080236, 0.0073652424201632455, 0.09310023188114476, -0.05719226224624395, 0.0069418629231085705, 0.05473163395270675, -0.03223134803152063, 0.05368032620064235, 0.07118144690527077, 0.03978465696822208, -0.00866342502818104, 0.05329647345816418, -0.04302829518802536, 0.04297634813262675, -0.11090363632407492, -0.03178584054148157, -0.09012192868434875, -0.05373056233635193, 0.036180433504735036, 0.06566312288037841, -0.03759557904322329, -0.0010211929012181873, 0.10263710683762867, 0.01912610857111287, -0.05206545803060113, -0.08875209568740021, 0.028753769763227393, 0.059263997996900984, 0.047587210485457464, -0.07393631727137231, -0.01781852728502532, 0.0345123228439318, 0.04250653045459093, -0.044729579771380215, -0.078444597009916, 0.09645973710683309, -0.08936713071668674, 0.029541775391669196, 0.04850148189078882, -0.04589940931537437, -0.003198663559201119, 0.019694861041603763, -0.020310460729057532, 0.04042238875923788, -0.03416868318634534, 0.0033040616112766305, 0.05095134811809205, -0.02721563506046952, -0.007298290472724814, -0.0026098813437713335, 0.026868467904859215, 0.008511435911623327, -0.04854755346380248, 0.14283451654703347, 0.06972192426099134, -0.0064436863291959575, 0.008517267948931966, 0.024991845518903065, -0.04911003764951612, -0.016468324844711484, -0.03666410246645593, 0.07291368905207518, -0.00395412793940648, 0.023674225580676094, 0.007800449315360362, -0.06098496888687929, -0.0027295093571738068, 0.024364917762997176, -0.020627800086445196, 0.013167067244731314, -0.007093582129948266, 0.01876612339245105, 0.015039922206954309, -0.026362868915696443, -0.030148148887825132, 0.01797897223267119, -0.023098409241835774, -0.028960136255915283, 0.030285944519662943, -0.014165848376112872, -0.015134551474527535, 0.06349823789471865, -0.03740661674265715, -0.031574177937751094, -0.06895172333316528, -0.046399215171308815, -0.018234451618346085, -0.029983385481238307, -0.028757748889584427, -0.0007003891100325073, 0.059469534086141515, -0.05544508169206136, -0.042223929994821885, 0.030229910886943618, 0.053506321308857345, 0.04630287810006087, -0.03737152780567903, 0.060790960993922054, 0.08710458153106038, -0.10510169132395943, -0.043563773873219594, 0.13086926930467782, -0.04083825558425549, -0.025377701698989858, 0.01578378546664226, 0.023234800555254117, -0.045566664257283306, -0.024979205550741495, 0.037598510806832616], [0.0441144500589127, -0.06014230402704629, -0.04291143714580979, -0.03982313412695575, 0.04644968535737339, -0.07499899924097421, 0.017902712815273322, -0.01125413406217656, -0.045096705510993, -0.08234646694182542, -0.10327185018633854, -0.014116075249093668, -0.014821604206066517, 0.04877467551945665, -0.013075010039530797, -0.03187546089297366, 0.03190130753971982, -0.02414015720187538, 0.08831504760552879, -0.008102524284293328, 0.00914637715986315, -0.013212621689023242, -0.05291616942658432, 0.03900531869819086, 0.04914223643426205, 0.00802904273971789, 0.018913665765052063, 0.06554275149976749, 0.06761401482746945, -0.026303707484139783, 0.03454038086200942, -0.04888571183320809, -0.035506046532098046, 0.0015896205858279009, 0.008352747562238624, 0.0025306227864993662, 0.04998639887246115, -0.008455935029098577, 0.01380517354468668, -0.03332089453095662, -0.0010139642733297107, 0.05023879031396264, -0.01171142371398186, -0.010722201960703278, 0.01652005068577237, -0.06350323658815288, 0.022895356290596795, -0.029818683241242584, -0.02332502057107009, -0.0077794583708321475, 0.016558711662711573, -0.11113443951548772, -0.019208630891800974, -0.005549213326762086, -0.005610060460301323, 0.030262516366647507, -0.009249616772514546, -0.05262322800702162, -0.03016376736154126, 0.08969032062317907, 0.06404688419961073, -0.012505118912776073, 0.042260851406582235, -0.004264895705832243, 0.06304406776990898, -0.03587710683964206, 0.012474979119637006, -0.009306804528789979, 0.07666644392911366, 0.051776947694689324, -0.03381585393792102, 0.021150283093619618, 0.0689086582868634, -0.022114809928131078, 0.0044008197990236505, -0.00608554940002503, 0.061797902622247186, -0.05213463825975697, -0.02866462576771641, 0.05272368513835889, 0.062293208927858605, 0.0802374139019703, -0.016406748635997587, 0.1359005368537459, -0.07269339915527477, 0.009901518366579279, 0.0009206891218668426, -0.027182889280685255, 0.011497471941088688, 0.059762977020441525, -0.03086592710401496, 0.016250322353868314, 0.039723864815953226, -0.03051669074054205, 0.03963235297657768, 0.05531313810941835, 0.03360628765732177, -0.005100858537242315, 0.1626625036912056, -0.022430018717373486, -0.012037581290497658, -0.03657729068239733, 0.00130580277304056, -0.03874666766362123, -0.07895973147722354, 0.01783886959062433, 0.053572705148603475, 0.027286802134617944, 0.05038453097649561, 0.07556321415652889, 0.0709429860220956, 0.028023248327142813, -0.015189000421877989, -0.0021788938368854766, -0.024771462021873702, 0.013611185396683904, -0.035163552498608246, -0.029522045906110163, -0.05970716163433335, -0.027544167784000075, 0.030317667404604214, 0.1251953297366427, 0.05167807718719382, 0.028511124435172026, -0.02216300941824695, -0.054960724547659136, 0.03678628439594454, -0.04049164887640944], [-0.01660018723793718, -0.02754732005393441, -0.024982345061042303, 0.004538729788019995, -0.005738345460217851, -0.030035208234993813, 0.06001714036993004, -0.006661309140421615, -0.01745494227350823, -0.027548308554624246, 0.028170524343678397, -0.02025324645454981, 0.010979830730686403, 0.0016218301566945353, 0.020581269646841514, -0.02361445645863086, -0.06233295558661931, 0.0861820372788931, -0.0005282428216858829, 0.006936811347969969, -0.02942237590481488, -0.04416455571303345, -0.027741099398307222, 0.040221070006435336, 0.09988574599395972, 0.05084189996380033, 0.004579245596580507, -0.08551257136220136, 0.020129231243730554, -0.024997643051123276, 0.05915786543037676, 0.07080114136895896, 0.029744607840777957, 0.07896927112983759, 0.0172697646865233, 0.08486643022256354, -0.02844506538226376, -0.049075096071400315, 0.11891498094854712, 0.027502806361227615, -0.08324885099149588, -0.10351779540349208, 0.05231017492765302, -0.052513878239787835, 0.07045622871661175, 0.0903762027085813, 0.011383927806050076, -0.03865145626181265, -0.05377425878597213, 0.07011850523236918, -0.029090428571123622, 0.004311259736183428, 0.02571626916510711, 0.041318386378115475, 0.0031418120247461616, -0.00417572849039381, -0.006994285717631686, -0.011400620638000325, 0.020869581914391925, 0.09754680725702101, -0.038600489018366, 0.015316993284338352, 0.009754936639525197, 0.0770333561812068, 0.01566426964583489, -0.05422655380465708, 0.040579672547178244, -0.05954282693260517, -0.08927557788901715, 0.03257374712533908, -0.029216069677020035, -0.005842721830071874, 0.014662653800320788, 0.05403892040560455, -0.01664376575491256, -0.06773481976977819, -0.04755276176820063, 0.04845141990410887, 0.07696598666203854, -0.036866771611350574, -0.028863614853485618, -0.016396672637544577, 0.02821069023003958, -0.019622973376086848, 0.024314057371507155, 0.06821740128651023, -0.09084885230469071, 0.0671530363094367, 0.0625349969435477, -0.013040947046590175, 0.015522828456540166, -0.05158716453698986, -0.05028419147611367, -0.10072394875257969, 0.03465230586083484, -0.03928718363585774, 0.027794478332442883, -0.02618839402323224, 0.0269114461267343, 0.029715366203454465, -0.00539682684817093, 0.052473324685089244, 0.014837159580239814, 0.036079558785189585, -0.0006346346565394598, -0.003970882935087129, -0.016800986285188314, 0.04535461703034995, -0.016238980519206546, 0.08140327378616344, 0.043884983583947615, 0.04286679031593618, 0.11192122352976404, -0.05413791808529971, 0.021268781702873826, 0.03423828426307808, 0.002789652087852734, 0.06237613651985804, 0.08243843985316338, 0.09818168818448582, -0.00671102318451398, 0.0011089968101560704, 0.004818769284456048, 0.013175328398965288, 0.04277019589788788, -0.03153266647456349, -0.03735615213495355, 0.1025773088888962], [-0.048217587298833235, 0.03349333652271963, -0.08712692921959331, 0.03960563060046688, 0.02823262749576996, 0.0968175116407866, 0.07345475641585204, 0.02446368573641771, 0.06565394190006749, -0.07132119946563126, -0.12189235288399888, -0.014370278469910723, -0.04513576645779256, 0.0575630855609462, 0.05694414798110697, -0.017414357860693928, 0.028382003405435553, 0.024347109918074667, -0.03814269999068736, 0.034905805388314504, 0.03243443066715987, -0.04881318367717661, 0.015676559362244522, -0.05740376416612736, 0.0819488016331085, -0.02563565619197331, 0.08103151724622738, -0.053458308543554094, -0.07292316136633313, 0.010969204909891722, 0.028729608215533622, -0.056546854299272184, 0.016319472227830978, -0.028140278677632895, -0.012496946169383462, 0.06481241240953937, 0.01805706182468931, 0.05493914566418292, 0.024840703006126022, -0.020126426589632915, -0.0060522062243345, -0.06856633833930416, -0.006823456781943908, -0.010311989977293164, 0.039987547111539276, 0.0918229685844398, 0.0022741616354715207, 0.07399505518689743, -0.06252530239267395, -0.06252486980828989, 0.06392599792024896, 0.07146633492828826, 0.07560112483589568, 0.08751996930654947, 0.1021490688337986, 0.14266286107870305, -0.05787687619422499, -0.010551491846078323, 0.042617151707432056, -0.08067613305145463, -0.018841112659829812, -0.026708505440130374, -0.03213204266882617, -0.028815093573847466, -0.01275581091082612, -0.01661721886180996, 0.07449667743652588, 0.056034854446274464, -0.012903779200387051, 0.03302468532422912, 0.06999796393823997, 0.025381959990541086, 0.05565051891199959, -0.032696247683417994, 0.016697640020415752, 0.12829957372797723, 0.015883285968041453, -0.01151119527117402, -0.014204895811083647, 0.047614772286182175, -0.051323754637215425, 0.06559036868974119, 0.014354067823527033, -0.07599435009838652, 0.009315235123360287, -0.039355912608618, 0.004869544144806566, 0.04310159315428597, -0.043795530144277436, -0.04062978673567071, -0.040941176846112134, 0.05444699270098552, -0.0724107812375878, -0.04309999562607643, 0.020979913584164105, 0.05864322438210167, 0.01922837991442701, 0.005102267319035952, 0.04467655833203379, 0.031986316105523646, 0.055942986247442254, -0.1389480356706437, 0.018123499004983338, 0.06145645178648338, 0.033967999872975475, -0.026258522520162888, -0.08310124961734522, -0.007413190962548847, -0.03845237330006562, 0.03300899629669853, -0.015855628456753014, -0.01915755108555758, -0.04291488268857639, 0.000510811792531882, -0.012464425784237794, -0.10037427116205709, 0.048245153530331736, -0.04953835233139466, -0.02886868118687515, 0.023452071174660482, -0.0019375518893323008, -0.012267579626011237, 0.023381254301021483, 0.05225058959513192, 0.02784721664499543, 0.04497643839523238, 0.07305324936012826, 0.010155775403360727], [0.026420596682685402, -0.0003091074744197396, 0.006858736518317723, -0.0070371526384398544, 0.035005722126884124, 0.018444538293229767, 0.1024372761564301, -0.08086320422134545, 0.05557814288572591, -0.031610482004061184, 0.02974069477266166, 0.07869714381455865, 0.04164869696814895, -0.06251472741976621, -0.01810959625406323, -0.08731201095732612, 0.014208918685268124, 0.0274236925309519, 0.038271866203193464, -0.029284389510304105, 0.052240092955158336, -0.01758287451081093, -0.00973504317985956, -0.028998243467544076, -0.0096884801480073, -0.08002399014344523, 0.008389675643248426, 0.010520421942625818, 0.01710201231527578, 0.050949203074630744, 0.004284069487889016, -0.006789043255066891, -0.12296730457659777, 0.008849333931761827, 0.015361601313133627, -0.0049292037957506555, -0.06362338511827542, -0.025748678532090886, 0.08120711487218811, -0.058397015766698764, -0.045472764504912826, -0.03499233267699739, 0.043495105690375555, 0.02606488665496057, -0.022936549250799767, 0.041080254544688444, 0.0717414139675687, -0.08927576305905405, -0.03420531230969008, 0.06614274731072338, -0.02340187818237394, -0.10965152368793715, -0.035632098516405794, -0.06319984665544695, -0.0869540895327993, 0.006804282589784014, 0.01231454253230835, -0.17825385851924824, 0.053911605841761696, 0.03538360524030083, 0.03456394926037508, -0.019435076476775358, -0.06937550118107928, 0.050230739983272266, -0.020158844443939762, 0.053687825936507956, 0.02004747295445789, -0.05518995220541684, -0.001370075956790121, -0.038256346606882645, -0.0032567584733376414, 0.0019138400185505053, 0.08992029302604568, 0.04253156708996929, -0.06680995195521612, -0.05833166279798499, 0.00920678681886087, 0.007888575550054636, 0.028014622778944863, 0.03206461858722988, -0.023149367927346905, 0.02278163162624165, 0.014779463790383278, 0.027869140016794674, 0.03544066826437624, -0.02550780093492539, -0.05365011710853923, -0.030777158487945253, -0.06992421167814315, -0.010399775516828373, 0.03822590987508348, -0.021296857328849766, 0.03963906480291766, -0.008519693978862286, -0.03219134009078212, -0.0386779431994916, 0.06270321815346365, -0.02089417593903768, 0.09721832957533473, -0.0026280699157600136, 0.029499544603430593, -0.016251519434175774, -0.0918294220955127, 0.01322223473759209, -0.00026185794377014157, -0.009418507384787826, -0.04843537427941912, -0.03925456765088247, -0.010890090851819911, 0.03528975207986142, -0.049079251875406696, -0.09840530140776667, 0.02894045183215678, 0.015385529458838247, 0.005854910711487462, -0.026361276013336002, 0.04809715670011145, -0.08749035964187188, -0.06606746761262643, -0.029218434600124393, 0.025169956316842382, -0.023508888359571458, 0.023122788366353533, 0.014796419361084988, -0.02796254648803699, -0.05994603973577457, -0.10007731187917306, -0.11518269703881896], [0.058827756278483405, 0.09777462177817521, -0.04399487337982085, 0.05628966511050365, 0.059199058692824075, 0.03128468176538108, 0.094272604885646, 0.08341564041625764, -3.821566036958623e-05, 0.04216942849026069, 0.008494733962454473, -0.02776623434058793, -0.05891315462597701, 0.04005782478712868, -0.006093655874432623, -0.012212268723182247, -0.010361230911037182, 0.04823691721975871, 0.02083191660322498, 0.11985876969100691, -0.031951182195807684, -0.006788259140351085, 0.08312145101143148, -0.046154243661344393, -0.03569614200280506, 0.013444205433419532, 0.06883823714221061, -0.07799330893164882, 0.011464561308527656, 0.01410028914964666, -0.015997167638860377, -0.029401897340639045, 0.02125452348277436, -0.06476131959704318, -0.037764460401812854, 0.03377052070967908, -0.006105520818389447, 0.11636443020609931, -0.05150104685110793, 0.020463978861136777, 0.0681156509205729, 0.018214422312359143, -0.02918968942259106, 0.07950322323153922, -0.011102760693746551, 0.06783229865878883, -0.018797087499204834, 0.058691437606579244, 0.06443569611980383, -0.011328732499615602, 0.019077640726225857, -0.04694968562610367, 0.038478789276209166, -0.09304204588857903, 0.012132090330350244, -0.00987924274252925, -0.041126358670950956, 0.05035676467136613, 0.002747579347114594, 0.008590356737799754, 0.03439674307299402, 0.04858998962940734, -0.059842937994200596, -0.006442718695951554, 0.03066794305342159, -0.018889316256248404, -0.04072547018077654, -0.08905832743125137, 0.04268918168740828, 0.026547032552327415, -0.00782508699479947, 0.10781337320348977, 0.05639345531027238, 0.03889208401780974, -0.019675236788692752, 0.020518761119456982, 0.013189903601679502, 0.007030061434401608, -0.002009225357830501, -0.0318793340530054, -0.026787728656195612, 0.04462354466654681, 0.033679833588215725, 0.10314820784576809, 0.04085099796816687, 0.08714781615537669, 0.047774653086758455, 0.07588562601526173, -0.027072636146122132, -0.0178425954039987, 0.01380271760586823, 0.07097598057690345, 0.0180378458723293, 0.026447627416602965, 0.01955143250838196, -0.0004841161462952785, -0.03997485379639558, 0.08330846489637836, -0.0958384947476288, 0.026366486685860117, 0.05525473183076525, -0.017355126660753444, 0.010769362058674925, 0.058381570302734775, 0.011639830733153781, 0.047390859897684164, 0.03732608229935072, 0.05304625291263777, 0.04292887634974005, -0.061702336656540575, -0.00545641488254372, 0.011618840772133774, -0.044757763336565476, 0.04731128787897846, 0.01710340218668795, -0.049999458457953706, 0.0031151257963939957, 0.03761073603560141, -0.057110122115978434, -0.05275266040783711, -0.003990413502411189, -0.01870008100484064, 0.005915552983054177, -0.06300771374231974, -0.10480690745914864, 0.09008988438070609, -0.01323448963335462, -0.07890548493276163], [0.021494740146545434, 0.054192578246622464, 0.013095479095829315, -0.010087740360290906, 0.07377281855053351, -0.038599133445372524, -0.0243447729535948, -0.018503304352296183, -0.06777942680549716, -0.0015109210380509286, 0.05362628933193276, -0.055951028379833144, 0.03240955542192334, -0.10575282261426555, 0.08339201834385232, 0.017927871604281546, -0.08760567346289894, -0.11143545533057302, -0.13420477658658153, 0.036269117973755524, 0.10313606729022329, -0.0051961640000248634, -0.012474631096109492, 0.03249200334541394, -0.0021853456898131667, 0.026614282168366813, 0.055724007223585156, -0.01560809903036203, -0.0013499077276635082, -0.06524972153313503, 0.0039650580550482165, 0.035268859326552826, 0.142731191637296, -0.004969163904199681, -0.0024500289346597974, -0.0003332386365720169, -0.03904878747803065, 0.07021179231888854, 0.03740691436809975, 0.02685115063460955, 0.02892383857364203, -0.006929175948475415, 0.029756673474992303, -0.02204804848917465, 0.07091522835138071, -0.0620870899958948, -0.035426503666917505, 0.06385718264193918, -0.04714030847935307, -0.07822506502424927, 0.002226604065610029, -0.06742198649226208, 0.011185351121256126, 0.05709542170843612, 0.021947835988539017, 0.03017203146358648, 0.09993541747872586, 0.023815768123886586, -0.026702684742738503, -0.05473044275592713, 0.00940737574951839, 0.10979316636648033, -0.02705109003596164, 0.01469650815547449, -0.02492171704423225, 0.02355651783750378, 0.041231532668149724, 0.0851931254381763, -0.005054019700815131, -0.0356493674582131, 0.02551981867354082, -0.00025727818157320883, 0.01264177824453555, -0.030358130136816014, -0.051583239082296, -0.02811979891342064, 0.005964836088598707, -0.012986478443112142, -0.0078096107727029206, -0.014989635170052031, -0.06755755334802258, 0.019559107498323493, -0.012602682590699436, -0.0365252182765081, 0.042168132599819476, 0.07281821317980443, 0.056374338129929064, 0.03559448875536548, -0.068689496061017, -0.023267055683814947, 0.0025535979284523466, 0.10892948353891435, 0.03902624724526229, -0.043242496524261424, -0.063408268744525, 0.005469425401262112, 0.014263761604635269, -0.01353832430871772, -0.06981786073183394, -0.016643481126144315, 0.023146068234800338, 0.0341656203726475, -0.09126424735630433, 0.034256205684719584, 0.05110678844042573, -0.028822500025074874, 0.011484518439811934, 0.05105158200967015, 0.027984066464399483, 0.05773245225594077, -0.06097137149560781, 0.051258940697002146, -0.02084307451486479, -0.057377578143868825, 0.0010598992693321718, 0.030306004577407522, -0.022762310592875694, 0.029849169879709557, -0.03964836624423878, -0.044419833539920774, 0.0027986392734997345, -0.011151991136179921, 0.024176619494165563, -0.0021183503059017733, 0.01001551227107385, -0.004955981748342402, 0.10675779214552962, 0.0030814139353171096], [-0.004833013581321132, 0.02631471197447922, -0.014420415744662353, 0.08568381476089566, -0.06468896182961603, -0.00847751074328766, 0.04689718897076499, -0.008517143981204659, -0.000506474025572184, 0.013635644434941792, -0.06449469155373962, -0.01031857659459301, -0.0010362798278647455, 0.04347583762402845, 0.056975348070405, -0.048852031132707176, -0.04596472200747498, 0.11245754294751008, -0.008845391536697255, 0.008095633126254099, 0.05293925984090088, 0.020770250015082526, -0.13565193833070344, 0.01972860410978282, 0.02696175000283378, 0.005919570693307987, 0.042531810772040164, 0.03197905325926342, -0.06459427936463664, 0.02520714970289961, -0.05752747525665302, 0.0213693698922987, 0.05137409248792745, -0.010003724856396747, -0.0032671205827028674, 0.0006607765220469995, -0.06642812204753104, -0.10088590020425668, -0.04786814110743028, -0.040048941418712826, 0.089771083435759, -0.0667446402884354, -0.013209414704613221, -0.009181782353404484, 0.029945088125775746, 0.01736920216715172, -0.020185960269318178, 0.04736436558509723, -0.02750273059216316, 0.10940130363878042, -0.07043431801381903, 0.00048549142574341503, 0.05777019914814977, -0.05311748930835243, 0.05057602855982108, -0.00031105908127350125, 0.12425976598175147, -0.052440274049569836, 0.08441970681609416, 0.06120855071726868, 0.027488518115779438, -0.030728202111815837, 0.022512846150971773, -0.011649439729299289, -0.0065426063811594186, -0.03316495603952911, 0.03880749833013128, 0.12455898944395931, 0.06140788789052557, -0.02913787409671142, 0.02511443462169827, -0.02720806441494693, -0.1159995581952967, -0.0006691893237330263, -0.03418280275288364, 0.01188488102914249, 0.016751624628541583, -0.07828084859493495, 0.009120318846475758, -0.04065338497660324, 0.03961859203094724, 0.011634152818941772, 0.00877823725434827, -0.009155636641172098, 0.049568639527207387, 0.0027828170423586608, 0.007537587916463315, -0.0866037929351702, -9.571593849769827e-05, 0.010832131473559038, 0.034810040977127, 0.07275268127100427, -0.017213779194485867, -0.04896276958134671, -0.027074148733954098, -0.0036199400977328148, 0.0336076694851246, -0.05208264028524124, -0.033144725789423256, -0.08603511331921677, 0.032223203235372505, 0.05636463576589666, 0.03633997189926233, 0.025060226147987086, 0.0035799997135206726, -0.04422750413469248, -0.015273733461094906, -0.05284501125745556, 0.05696142767358873, 0.051025890757915554, -0.01860765969745638, -0.06009682287409031, 0.025399146730400238, 0.010521787719438661, 0.04819464903545221, 0.0312293019681866, -0.044686628888293056, -0.08680209075157332, 0.013597742347785846, 0.05845761075767041, 0.01112353111056142, -0.0385107117437048, -0.015240970759626807, -0.009093342527723104, -0.04550505217780707, -0.0995741873985891, -0.025794200105865306, 0.0554058901149798], [0.09186977413397232, 0.14697480404085575, 0.05289244502923587, -0.0022696426172408575, 0.03783634915835223, 0.03492432781510362, 0.06501713223189864, 0.021977090177872843, -0.06603895035415448, 0.039624481764585634, 0.04253506141971446, 0.0705136330559288, 0.00927605646649816, -0.02433783487291221, 0.01913449891877218, 0.019661690092626263, 0.03482665437241213, -0.018329999199388478, 0.06063044409990734, -0.03283217366790045, -0.0205645318440804, -0.005130816581678514, 0.042266916876046376, -0.017738740182285655, -0.036640050983175194, -0.023073990472112497, 0.012879790184218016, 0.022744117339688605, -0.04534539194840147, 0.011436822376756368, -0.07165021543425408, -0.10253733599134435, 0.013815298003527078, -0.06916533037690424, -0.002446925205523909, 0.012817931778660216, -0.034344612129636465, -0.014523082391859834, -0.08403991761023234, 0.020408273915230403, -0.002502580460325189, -0.0705769171340843, 0.02473645921679143, 0.012098414980836419, -0.05605153515859616, -0.0947056842129956, -0.031819278093875705, -0.04610387441979659, -0.04143052453824628, -0.014290684559550305, -0.00943359273192553, -0.030785106992827445, -0.023533572772213598, 0.026375224331900267, 0.04163454787416896, -0.06212172457156001, -0.07534756587342424, 0.03685915011160365, -0.020028235272357475, 0.0665053265452074, 0.024812762138769002, 0.0375902345694735, 0.04834121073621237, 0.0189080559716733, -0.011736184263232462, 0.12732925794898878, -0.12884102688157242, 0.03203768793643003, -0.010677269591889962, -0.0661931084524378, -0.06908568947923578, 0.0794163819724836, 0.026927148355764284, -0.03671783529282085, 0.018896417078445343, 0.046461742141928705, 0.06332157395712207, -0.05213810781422703, -0.08943292031081339, 0.10987112608387226, 0.12390277486042671, 0.05571809621538233, 0.015175258470854651, -0.024869763699505443, 0.0021980517746062554, -0.012996067130526753, 0.026707882176464276, 0.021698541042148356, -0.10567962736420315, -0.01699812093560974, -0.03187527668830149, -0.013493675333698168, -0.01855908747393095, -0.10176173898267285, -0.019796093724644033, 0.041250536972273724, -0.08692193321128804, 0.0630871678940644, 0.0632052841053856, 0.002226784158116324, 0.0064116672102725045, -0.04150905094526381, -0.039268258946301225, 0.0014803728499952304, -0.017787142749112427, -0.012925196582785655, 0.01787157855968727, 0.051895942575456204, -0.003155392430873925, 0.07189675730669032, -0.01953322516305886, 0.018840022492127573, 0.10164867378241205, 0.030302200439420293, -0.007190987394538964, 0.07768238333617675, -0.032509964066946354, 0.010695287629133864, 0.012328084847154327, 0.07201294549965624, -0.047402183714537936, 0.00046728555888430175, 0.05958303151857412, -0.08891263120390808, 0.02871891114960848, 0.08955908037166821, -0.043534912296308986, 0.005626897669060888], [-0.05083105802309369, -0.034809542128243894, -0.04420665267736014, -0.010309778574644069, -0.015914422857954993, -0.02342669943490406, -0.07582341679007733, 0.06354131851080479, -0.09777955200925184, -0.05891863633077169, 0.004436773934689746, 0.03603473001234488, 0.011263975354456193, 0.009907053244310094, 0.0007424613786107796, 0.026061907182073428, 0.109919157389286, -0.07447916366005647, 0.056261806311383784, 0.05074736777621318, -0.036033979890352466, 0.0017622531247705909, 0.004120986627608744, -0.051269038134642606, -0.05664842820948237, 0.03236403266764178, 0.0356733546000035, 0.001189562371267129, -0.07573052905438692, 0.039549640696419634, -0.05739985738536874, 0.015323519779382245, 0.02170235991041653, 0.009846304258770639, 0.021544637717393206, -0.030989191078699442, -0.08631879452589947, 0.01468829844505801, -0.002484162219304726, -0.029325618283721027, -0.015911114532931394, -0.029465077361573173, -0.027379319085720683, -0.00241769330427136, -0.027345374678141795, -0.05286803914986807, 0.05152661674387288, -0.012973075991467046, 0.021578763504842682, 0.024685646500811762, 0.018888884486074585, 0.08711068327085114, -0.00613369439630527, 0.025088534059358045, 0.007970683525852276, -0.08436939765164181, -0.02191924760005587, 0.04009226910591076, -0.005554498753811347, -0.08364344582690021, -0.021731004101902533, 0.07226901881211309, 0.0606630124480015, 0.05186851402909279, -0.040690356660268656, -0.07650902714711838, -0.015718786399390002, 0.006916106365192703, 0.0756952928493372, -0.07987906334707065, 0.010162100389064345, 0.09121489785660411, 0.09536692791543566, 0.026787226071096626, -0.05657165645822323, -0.059143070568223884, -0.037034740617349106, -0.025438967291797957, -0.013835401697877671, 0.018263250210923693, -0.0360336153153869, 0.008181973859523732, 0.0324093242375891, -0.0866961605593462, -0.003807735810006749, -0.03464539623815094, 0.04521505902581315, 0.016302356697230586, -0.01775569653038675, 0.030506495204130554, 0.12461204954719429, -0.025992335192448514, -0.0019062473569219326, -0.06227038285415228, 0.0612759135772281, 0.015261485177409563, -0.04606160085318486, 0.09080390687339787, -0.09652374377851354, -0.0312754929024189, 0.03839404515590525, 0.05115849957724892, 0.08928254532249341, 0.010360326122160096, 0.013901654364980741, 0.03494729954998198, 0.014738854848037422, -0.016667350631789098, 0.03920638966287338, -0.07009592152981181, -0.0015310937383423227, 0.03676289469933015, -0.010373671368771474, -0.011763376248894532, 0.022623129533233463, 6.944452165487166e-05, -0.11629377526552376, 0.05901022520927593, -0.03726063574288844, 0.010810666240515998, 0.08537700822959526, 0.03810740376500478, -0.008153219437333856, -0.047060813346604, -0.07604959520802881, -0.02589443286888797, -0.08715180751262985, 0.005100731092537264], [0.061466672851781354, 0.01897683997237408, -0.022580929865177016, 0.022223019137739487, -0.08873533182165984, -0.018427891053872252, -0.02856079854803312, -0.08586839710103646, 0.03528452910624143, 0.02990897690912908, 0.037467811659713385, 0.03493413596620993, -0.14186940700925668, 0.06403190812550569, 0.05025122950608214, 0.062069513678999745, -0.058002216100903205, -0.05681459573408553, 0.04536998240531488, -0.030660845500687477, -0.007409751937185156, 0.045002446221256764, -0.024840806093016258, -0.02105688770748228, 0.08272224869397542, 0.01379867825398215, -0.08193870666298798, -0.041133564611542994, 0.02579404803731886, -0.015453287367919387, -0.12460695838869675, 0.021384788300432812, 0.036960509899016045, 0.002948573865503611, 0.02136284750055402, -0.07642866694818075, 0.06802919874169427, 0.06280245646443205, 0.03872943957870441, -0.07423517904839752, -0.037186676771474074, 0.039221859167738814, -0.021732768714128593, -0.044071233641041235, 0.043155998927508606, 0.06277245116683, 0.026707256738150116, -0.06876675335828011, -0.07371043803062353, 0.04571466412593709, 0.0067365073527019936, 0.022873680858201774, -0.0316582436763801, -0.04994013041817529, 0.020636970956280507, -0.06742194020167037, -0.10006337607648128, -0.011122766330597186, -0.08903394497870568, 0.17341546276099445, 0.013720573172208131, 0.035253569054282764, -0.007586731086758172, -0.014241671609784581, -0.08825350121936917, 0.030438041311784257, 0.031220854620605944, -0.05800038999300558, 0.019676406399487312, 0.08052941228021332, -0.008062157550998563, 0.02450849647713942, 0.02517622344222883, 0.07573553615006354, -2.078077763438088e-05, 0.06287534029756645, 0.03870279528346308, 0.0047071980697939945, -0.04316931401332241, 0.05971700263345366, 0.0419807229569411, -0.014738825732436393, 0.06040611331502069, -0.005434089900737052, -0.05507991273971844, -0.019259533562656903, -0.008099309435177839, 0.09664309734812072, 0.07851746430141074, 0.08517974562875344, 0.09679387293736555, -0.05354145404900339, -0.06254257782356087, 0.010961992955443029, 0.016375485664611073, -0.01205181323737963, -0.06958055500828741, -0.002403762580456377, -0.07166897917813715, 0.00884501414154456, -0.042018970834312545, 0.022641039003209195, 0.03233204293053165, -0.02311737849251703, 0.038170041145238934, 0.022832038070308855, 0.027473817600385666, 0.06546440621702762, 0.11712484788742024, 0.07275470394802531, -0.02772622202794593, 0.07655782635790886, 0.010411829339372403, -0.008911863715878793, -0.003330445220597486, 0.018854279703361215, -0.09041174283385235, 0.016858681083293352, -0.025344770475887724, -0.003159516367306918, -0.028503625063931625, -0.008260820174573517, 0.08280819401338209, 0.013187677897053307, 0.08613530202230982, 0.03641158099429574, -0.06178962380444668, -0.001445703639624173], [0.013220775077419528, 0.0020868835391541496, -0.014309365789923962, -0.03002346221869582, -0.12993471610641322, 0.0380414916400115, 0.034370555916110296, -0.0017145147769362734, 0.05224297759297496, -0.021169134527287685, 0.05309162251432167, 0.016919635995325696, -0.05400121859064066, 0.05279178181912474, 0.08693729763080985, -0.04926878571943202, -0.07696172990871886, 0.002207918005819737, 0.0029677667591966965, -0.010497055062564448, -0.029665016154685822, -0.03545167838137551, 0.034467593767868066, -0.025536717445821644, 0.06274788836128865, 0.13972162364303656, 0.008361318198945096, 0.019925162459538213, -0.03310112038123859, 0.05329462088740225, -0.01599023818731386, -0.0827988677888084, -0.11024168891251188, -0.032695219347816926, -0.06799179784130276, -0.06217418815913551, -0.004763592417198057, 0.03277680024346498, -0.002056607654724874, -0.04747751383800552, -0.021493065256354797, -0.10204576237522871, -0.01946418443716422, 0.05069888638732507, 0.01221304358125511, -0.032904275012511225, 0.02429552046504467, 0.1071904960133702, -0.022253221276622607, -0.04581270315279012, 0.015719687636952133, 0.07104636879390562, -0.1271211212487941, 0.011734500424935766, 0.005083647025496866, -0.025625260436671442, 0.008929487752426257, 0.04693768172724332, -0.05155018908245974, -0.062212484313089886, -0.030948000649546874, -0.02075449714635624, 0.018268715663103847, 0.13273321758349077, 0.011905835341677043, -0.04795446638569394, 0.017885997127706693, 0.007880245742104228, -0.0613281525335194, -0.05293681137792425, 0.04533820296602201, 0.06052476286477491, -0.02063664145177666, -0.05024735526011584, -0.06163218385738158, 0.05244994357896229, 0.04679412155915917, -0.030263797986191793, -0.05297484558600511, 0.009321869655488726, -0.009043000110038946, -0.008466329825740202, 0.08475265447337203, 0.02709055302595134, 0.0012390830242152103, 0.020292691451502965, -0.03532133216522172, 0.06731575300776929, 0.04691600039593148, 0.022196364221544893, -0.0012775401527341764, 0.07426208986873933, -0.007723482833477931, 0.030405272983765125, -0.08025063795842116, -0.03029638489627622, -0.008955291282566454, -0.0025668831736611365, 0.035449353485480305, -0.009390724515835565, -0.003990747780356556, -0.058263297558366095, -0.07406122640119703, -0.08952285538659038, -0.09214388700642874, 0.049098800284346523, 0.026317930940207325, -0.014599270431167722, 0.023056232682831027, 0.0389617164055775, 0.03977088017803523, 0.04700288595974117, -0.08685757478767957, -0.045694099963023635, 0.04449996919047785, 0.03261348259600601, -0.0364335313057911, 0.0022243818135354817, 0.04863858451340335, -0.04886045858144957, -0.026726875383289862, -0.01902091726060856, 0.03150118853796256, -0.029094470718567855, -0.06375920576836942, -0.02338759909337477, -0.007826132530015796, 0.0052575969650829075], [0.010022711805180943, -0.02625418016114223, -0.06292734639806244, 0.01649291733906555, 0.08180332665917056, 0.07241869150756051, 0.03299478958301193, 0.027343277875691963, -0.06758602899627303, -0.11065340365435243, -0.10235078433300647, 0.055483820961629876, 0.006438167890911664, 0.012899490129220903, -0.003210730843027066, 0.029183555517600882, 0.0640152754748023, -0.07329572271962613, -0.0978294661057147, -0.001256795220036127, 0.038956030529892764, 0.0275505881980945, 0.05884981418052485, -0.03582876921440569, 0.01276669668298276, -0.04050619616479229, 0.016348549398944975, -0.08035775459190587, -0.006333797340339654, -0.08968561162768861, -0.009905539891211453, 0.024591250153483853, 0.04518987556721093, -0.0028529167976922543, -9.932267493170416e-05, -0.0009524557566566279, 0.00038475342841248576, -0.07675039179603577, 0.06828861778263376, 0.10042091093075851, 0.0027471383717101814, 0.03350592891850609, -0.06999414792111898, 0.015733680104447867, -0.033862028405837005, 0.04740321280573127, -0.04189652007513946, 0.03534152947711625, -0.05288664107322683, -0.04543117061887968, 0.040915245363469244, -0.06358202725014868, 0.02853310164012292, 0.06071269827979995, 0.05780179231485577, 0.046329690451015954, 0.03266658109682421, 0.019968598020195936, 0.058143074851262654, -0.05423528937116099, 0.0009688691427349541, -0.06934068071503928, -0.041704238978607845, -0.0266249656689868, -0.051242286781883334, 0.00048390904937069165, -0.0798560167267195, -0.023880853480933488, 0.04864879698978379, 